
/*
 * =====================================================================================
 *
 *       Filename:  GaussWeights.h
 *
 *    Description:  This file is autogenerated by scripts/GaussWeights.py
 *
 *         Author:  Paul P. Hilscher (2012) 
 *   
 * =====================================================================================
 */


#ifndef GAUSS_CHEBYCHEV_SECOND_JACOBI_WEIGHTS_H_
#define GAUSS_CHEBYCHEV_SECOND_JACOBI_WEIGHTS_H_

#define GAUSS_WEIGHTS_MAX 256


/* Merge all together */
// using from GSL glfixed
struct GaussWeights 
{
    int     n;
    double *points;
    double *weights;
};


static double x1[1] = {0.};
static double w1[1] = {1.5707963267};

static double x2[2] = {-0.5,0.};
static double w2[2] = {0.785398163397,0.78539816339};

static double x3[3] = {-0.707106781187,4.88975179791e-17,0.70710678118};
static double w3[3] = {0.392699081699,0.785398163397,0.39269908169};

static double x4[4] = {-0.809016994375,-0.309016994375,0.309016994375,0.80901699437};
static double w4[4] = {0.217078713423,0.568319449975,0.568319449975,0.21707871342};

static double x5[5] = {-0.866025403784,-0.5,-1.64912104743e-17,0.5,0.86602540378};
static double w5[5] = {0.1308996939,0.392699081699,0.523598775598,0.392699081699,0.130899693};

static double x6[6] = {-0.900968867902,-0.623489801859,-0.222520933956,0.222520933956,0.623489801859,0.90096886790};
static double w6[6] = {0.0844886908916,0.27433305607,0.426576416436,0.426576416436,0.27433305607,0.084488690891};

static double x7[7] = {-0.923879532511,-0.707106781187,-0.382683432365,8.97162494507e-17,0.382683432365,0.707106781187,0.92387953251};
static double w7[7] = {0.0575094490319,0.196349540849,0.335189632667,0.392699081699,0.335189632667,0.196349540849,0.057509449031};

static double x8[8] = {-0.939692620786,-0.766044443119,-0.5,-0.173648177667,0.173648177667,0.5,0.766044443119,0.93969262078};
static double w8[8] = {0.0408329477091,0.144225600796,0.261799387799,0.338540227094,0.338540227094,0.261799387799,0.144225600796,0.040832947709};

static double x9[9] = {-0.951056516295,-0.809016994375,-0.587785252292,-0.309016994375,9.37945527979e-18,0.309016994375,0.587785252292,0.809016994375,0.95105651629};
static double w9[9] = {0.0299995403716,0.108539356711,0.205619908648,0.284159724987,0.314159265359,0.284159724987,0.205619908648,0.108539356711,0.029999540371};

static double x10[10] = {-0.959492973614,-0.841253532831,-0.654860733945,-0.415415013002,-0.142314838273,0.142314838273,0.415415013002,0.654860733945,0.841253532831,0.95949297361};
static double w10[10] = {0.0226689425019,0.0834785409342,0.163122177455,0.236313560203,0.279814942303,0.279814942303,0.236313560203,0.163122177455,0.0834785409342,0.022668942501};

static double x11[11] = {-0.965925826289,-0.866025403784,-0.707106781187,-0.5,-0.258819045103,1.199672792e-16,0.258819045103,0.5,0.707106781187,0.866025403784,0.96592582628};
static double w11[11] = {0.0175372336349,0.0654498469498,0.1308996939,0.196349540849,0.244262154164,0.261799387799,0.244262154164,0.196349540849,0.1308996939,0.0654498469498,0.017537233634};

static double x12[12] = {-0.970941817426,-0.885456025653,-0.748510748171,-0.568064746731,-0.354604887043,-0.120536680255,0.120536680255,0.354604887043,0.568064746731,0.748510748171,0.885456025653,0.97094181742};
static double w12[12] = {0.0138404041662,0.0521909468652,0.106265980939,0.163677567756,0.211273404661,0.238149859011,0.238149859011,0.211273404661,0.163677567756,0.106265980939,0.0521909468652,0.013840404166};

static double x13[13] = {-0.974927912182,-0.900968867902,-0.781831482468,-0.623489801859,-0.433883739118,-0.222520933956,-2.22790395693e-16,0.222520933956,0.433883739118,0.623489801859,0.781831482468,0.900968867902,0.97492791218};
static double w13[13] = {0.0111112670384,0.0422443454458,0.0872329472215,0.137166528035,0.182155129811,0.213288208218,0.224399475256,0.213288208218,0.182155129811,0.137166528035,0.0872329472215,0.0422443454458,0.011111267038};

static double x14[14] = {-0.978147600734,-0.913545457643,-0.809016994375,-0.669130606359,-0.5,-0.309016994375,-0.104528463268,0.104528463268,0.309016994375,0.5,0.669130606359,0.809016994375,0.913545457643,0.97814760073};
static double w14[14] = {0.00905349850465,0.0346485618787,0.0723595711409,0.115665950196,0.157079632679,0.189439816658,0.207151132339,0.207151132339,0.189439816658,0.157079632679,0.115665950196,0.0723595711409,0.0346485618787,0.0090534985046};

static double x15[15] = {-0.980785280403,-0.923879532511,-0.831469612303,-0.707106781187,-0.55557023302,-0.382683432365,-0.195090322016,8.43358991607e-17,0.195090322016,0.382683432365,0.55557023302,0.707106781187,0.831469612303,0.923879532511,0.98078528040};
static double w15[15] = {0.00747310942032,0.028754724516,0.0606049123069,0.0981747704247,0.135744628542,0.167594816333,0.188876431429,0.196349540849,0.188876431429,0.167594816333,0.135744628542,0.0981747704247,0.0606049123069,0.028754724516,0.0074731094203};

static double x16[16] = {-0.982973099684,-0.932472229404,-0.85021713573,-0.739008917221,-0.602634636379,-0.445738355777,-0.273662990072,-0.0922683594633,0.0922683594633,0.273662990072,0.445738355777,0.602634636379,0.739008917221,0.85021713573,0.932472229404,0.98297309968};
static double w16[16] = {0.00623955141225,0.0241155196562,0.0512136561664,0.0838742074512,0.117686185081,0.148083094119,0.170959663563,0.183226285948,0.183226285948,0.170959663563,0.148083094119,0.117686185081,0.0838742074512,0.0512136561664,0.0241155196562,0.0062395514122};

static double x17[17] = {-0.984807753012,-0.939692620786,-0.866025403784,-0.766044443119,-0.642787609687,-0.5,-0.342020143326,-0.173648177667,1.42613377995e-16,0.173648177667,0.342020143326,0.5,0.642787609687,0.766044443119,0.866025403784,0.939692620786,0.98480775301};
static double w17[17] = {0.00526281165267,0.0204164738546,0.0436332312999,0.0721128003978,0.102420124802,0.1308996939,0.154116451345,0.169270113547,0.174532925199,0.169270113547,0.154116451345,0.1308996939,0.102420124802,0.0721128003978,0.0436332312999,0.0204164738546,0.0052628116526};

static double x18[18] = {-0.986361303403,-0.945817241701,-0.879473751206,-0.789140509396,-0.677281571626,-0.546948158122,-0.401695424653,-0.245485487141,-0.0825793454723,0.0825793454723,0.245485487141,0.401695424653,0.546948158122,0.677281571626,0.789140509396,0.879473751206,0.945817241701,0.98636130340};
static double w18[18] = {0.00447947777433,0.0174324901742,0.0374553773194,0.0623783487007,0.0895006136491,0.115883053912,0.138666722722,0.155382656037,0.164219423109,0.164219423109,0.155382656037,0.138666722722,0.115883053912,0.0895006136491,0.0623783487007,0.0374553773194,0.0174324901742,0.0044794777743};

static double x19[19] = {-0.987688340595,-0.951056516295,-0.891006524188,-0.809016994375,-0.707106781187,-0.587785252292,-0.45399049974,-0.309016994375,-0.15643446504,-1.74582399929e-16,0.15643446504,0.309016994375,0.45399049974,0.587785252292,0.707106781187,0.809016994375,0.891006524188,0.951056516295,0.98768834059};
static double w19[19] = {0.00384401222121,0.0149997701858,0.0323752705775,0.0542696783557,0.0785398163397,0.102809954324,0.124704362102,0.142079862494,0.153235620458,0.157079632679,0.153235620458,0.142079862494,0.124704362102,0.102809954324,0.0785398163397,0.0542696783557,0.0323752705775,0.0149997701858,0.0038440122212};

static double x20[20] = {-0.988830826225,-0.955572805786,-0.900968867902,-0.826238774316,-0.73305187183,-0.623489801859,-0.5,-0.365341024366,-0.222520933956,-0.0747300935864,0.0747300935864,0.222520933956,0.365341024366,0.5,0.623489801859,0.73305187183,0.826238774316,0.900968867902,0.955572805786,0.98883082622};
static double w20[20] = {0.00332314635623,0.0129973092878,0.0281628969639,0.0474723803663,0.0692100271566,0.0914443520233,0.112199737628,0.129631976877,0.142192138812,0.148764197926,0.148764197926,0.142192138812,0.129631976877,0.112199737628,0.0914443520233,0.0692100271566,0.0474723803663,0.0281628969639,0.0129973092878,0.0033231463562};

static double x21[21] = {-0.989821441881,-0.959492973614,-0.909631995355,-0.841253532831,-0.755749574354,-0.654860733945,-0.540640817456,-0.415415013002,-0.281732556841,-0.142314838273,-8.74540539385e-17,0.142314838273,0.281732556841,0.415415013002,0.540640817456,0.654860733945,0.755749574354,0.841253532831,0.909631995355,0.959492973614,0.98982144188};
static double w21[21] = {0.00289219492072,0.0113344712509,0.0246428859705,0.0417392704671,0.0612385773449,0.0815610887274,0.101060395605,0.118156780102,0.131465194821,0.139907471152,0.142799666072,0.139907471152,0.131465194821,0.118156780102,0.101060395605,0.0815610887274,0.0612385773449,0.0417392704671,0.0246428859705,0.0113344712509,0.0028921949207};

static double x22[22] = {-0.990685946036,-0.962917287348,-0.917211301505,-0.854419404546,-0.775711290704,-0.682553143219,-0.576680322115,-0.460065037731,-0.334879612171,-0.203456013053,-0.0682424133647,0.0682424133647,0.203456013053,0.334879612171,0.460065037731,0.576680322115,0.682553143219,0.775711290704,0.854419404546,0.917211301505,0.962917287348,0.99068594603};
static double w22[22] = {0.00253258212268,0.00994249846048,0.0216801894167,0.0368751241496,0.0544003638621,0.0729561416974,0.0911662605005,0.107680159066,0.121273077082,0.130936890004,0.135954877036,0.135954877036,0.130936890004,0.121273077082,0.107680159066,0.0911662605005,0.0729561416974,0.0544003638621,0.0368751241496,0.0216801894167,0.00994249846048,0.0025325821226};

static double x23[23] = {-0.991444861374,-0.965925826289,-0.923879532511,-0.866025403784,-0.793353340291,-0.707106781187,-0.608761429009,-0.5,-0.382683432365,-0.258819045103,-0.13052619222,4.74280706293e-17,0.13052619222,0.258819045103,0.382683432365,0.5,0.608761429009,0.707106781187,0.793353340291,0.866025403784,0.923879532511,0.965925826289,0.99144486137};
static double w23[23] = {0.00223014945432,0.00876861681747,0.019169816344,0.0327249234749,0.0485101800601,0.0654498469498,0.0823895138394,0.0981747704247,0.111729877556,0.122131077082,0.128669544445,0.1308996939,0.128669544445,0.122131077082,0.111729877556,0.0981747704247,0.0823895138394,0.0654498469498,0.0485101800601,0.0327249234749,0.019169816344,0.00876861681747,0.0022301494543};

static double x24[24] = {-0.992114701314,-0.968583161129,-0.929776485888,-0.876306680044,-0.809016994375,-0.728968627421,-0.637423989749,-0.535826794979,-0.425779291565,-0.309016994375,-0.187381314586,-0.0627905195293,0.0627905195293,0.187381314586,0.309016994375,0.425779291565,0.535826794979,0.637423989749,0.728968627421,0.809016994375,0.876306680044,0.929776485888,0.968583161129,0.99211470131};
static double w24[24] = {0.00197397820395,0.00777188050545,0.0170294033797,0.0291648626177,0.0434157426845,0.0588866083744,0.0746053682982,0.0895843549604,0.10288238354,0.113663889995,0.121251432623,0.125168258215,0.125168258215,0.121251432623,0.113663889995,0.10288238354,0.0895843549604,0.0746053682982,0.0588866083744,0.0434157426845,0.0291648626177,0.0170294033797,0.00777188050545,0.0019739782039};

static double x25[25] = {-0.992708874098,-0.970941817426,-0.935016242685,-0.885456025653,-0.822983865894,-0.748510748171,-0.663122658241,-0.568064746731,-0.464723172044,-0.354604887043,-0.239315664288,-0.120536680255,4.20575757926e-16,0.120536680255,0.239315664288,0.354604887043,0.464723172044,0.568064746731,0.663122658241,0.748510748171,0.822983865894,0.885456025653,0.935016242685,0.970941817426,0.99270887409};
static double w25[25] = {0.00175555717117,0.00692020208309,0.0151937843462,0.0260954734326,0.0389917027987,0.0531329904695,0.0676974962071,0.0818387838779,0.0947350132439,0.10563670233,0.113910284593,0.119074929505,0.120830486677,0.119074929505,0.113910284593,0.10563670233,0.0947350132439,0.0818387838779,0.0676974962071,0.0531329904695,0.0389917027987,0.0260954734326,0.0151937843462,0.00692020208309,0.0017555571711};

static double x26[26] = {-0.993238357742,-0.97304487058,-0.939692620786,-0.893632640323,-0.835487811413,-0.766044443119,-0.686241637869,-0.597158591703,-0.5,-0.396079766039,-0.286803232711,-0.173648177667,-0.0581448289105,0.0581448289105,0.173648177667,0.286803232711,0.396079766039,0.5,0.597158591703,0.686241637869,0.766044443119,0.835487811413,0.893632640323,0.939692620786,0.97304487058,0.99323835774};
static double w26[26] = {0.00156818586228,0.00618820214337,0.0136109825697,0.0234363631272,0.0351346550068,0.0480752002652,0.0615603707581,0.0748631774537,0.0872664625997,0.0981015618834,0.106784352298,0.112846742365,0.115961907065,0.115961907065,0.112846742365,0.106784352298,0.0981015618834,0.0872664625997,0.0748631774537,0.0615603707581,0.0480752002652,0.0351346550068,0.0234363631272,0.0136109825697,0.00618820214337,0.0015681858622};

static double x27[27] = {-0.993712209893,-0.974927912182,-0.943883330308,-0.900968867902,-0.846724199228,-0.781831482468,-0.707106781187,-0.623489801859,-0.532032076515,-0.433883739118,-0.330279061955,-0.222520933956,-0.111964476103,-2.34831537099e-17,0.111964476103,0.222520933956,0.330279061955,0.433883739118,0.532032076515,0.623489801859,0.707106781187,0.781831482468,0.846724199228,0.900968867902,0.943883330308,0.974927912182,0.99371220989};
static double w27[27] = {0.00140654083749,0.00555563351919,0.0122392252129,0.0211221727229,0.031759047969,0.0436164736108,0.0560998688141,0.0685832640174,0.0804406896592,0.0910775649053,0.0999605124153,0.106644104109,0.110793196791,0.112199737628,0.110793196791,0.106644104109,0.0999605124153,0.0910775649053,0.0804406896592,0.0685832640174,0.0560998688141,0.0436164736108,0.031759047969,0.0211221727229,0.0122392252129,0.00555563351919,0.001406540837};

static double x28[28] = {-0.994137957154,-0.97662055571,-0.947653171183,-0.907575419671,-0.856857176168,-0.796093065706,-0.725995491923,-0.647386284782,-0.561187065362,-0.4684084407,-0.37013815534,-0.267528338529,-0.161781996553,-0.0541389085854,0.0541389085854,0.161781996553,0.267528338529,0.37013815534,0.4684084407,0.561187065362,0.647386284782,0.725995491923,0.796093065706,0.856857176168,0.907575419671,0.947653171183,0.97662055571,0.99413795715};
static double w28[28] = {0.00126635673149,0.00500621349264,0.0110446987378,0.0190994596084,0.0287938644381,0.0396746136317,0.0512329354501,0.0629283756111,0.0742140683314,0.0845623071624,0.0934892199578,0.100577394197,0.10549539473,0.108013261318,0.108013261318,0.10549539473,0.100577394197,0.0934892199578,0.0845623071624,0.0742140683314,0.0629283756111,0.0512329354501,0.0396746136317,0.0287938644381,0.0190994596084,0.0110446987378,0.00500621349264,0.0012663567314};

static double x29[29] = {-0.994521895368,-0.978147600734,-0.951056516295,-0.913545457643,-0.866025403784,-0.809016994375,-0.743144825477,-0.669130606359,-0.587785252292,-0.5,-0.406736643076,-0.309016994375,-0.207911690818,-0.104528463268,-2.04096043991e-16,0.104528463268,0.207911690818,0.309016994375,0.406736643076,0.5,0.587785252292,0.669130606359,0.743144825477,0.809016994375,0.866025403784,0.913545457643,0.951056516295,0.978147600734,0.99452189536};
static double w29[29] = {0.00114418894997,0.00452674925232,0.00999984679054,0.0173242809393,0.0261799387799,0.0361797855704,0.0468867800216,0.057832975098,0.0685399695492,0.0785398163397,0.0873954741803,0.0947199083291,0.100193005867,0.10357556617,0.10471975512,0.10357556617,0.100193005867,0.0947199083291,0.0873954741803,0.0785398163397,0.0685399695492,0.057832975098,0.0468867800216,0.0361797855705,0.0261799387799,0.0173242809393,0.00999984679054,0.00452674925232,0.0011441889499};

static double x30[30] = {-0.994869323392,-0.979529941252,-0.9541392564,-0.91895781162,-0.874346616145,-0.820763441207,-0.758758122693,-0.688966919076,-0.612105982548,-0.528964010327,-0.440394151558,-0.347305252845,-0.250652532259,-0.151427777505,-0.0506491688387,0.0506491688387,0.151427777505,0.250652532259,0.347305252845,0.440394151558,0.528964010327,0.612105982548,0.688966919076,0.758758122693,0.820763441207,0.874346616145,0.91895781162,0.9541392564,0.979529941252,0.99486932339};
static double w30[30] = {0.00103723526096,0.0041064765104,0.00908206865093,0.0157603103557,0.0238677936247,0.0330725971403,0.042997875165,0.0532372856504,0.063371625928,0.0729859949162,0.081686779219,0.0891177677047,0.0949747348316,0.0990178956774,0.101081722762,0.101081722762,0.0990178956774,0.0949747348316,0.0891177677047,0.081686779219,0.0729859949162,0.063371625928,0.0532372856504,0.042997875165,0.0330725971403,0.0238677936247,0.0157603103557,0.00908206865093,0.0041064765104,0.0010372352609};

static double x31[31] = {-0.995184726672,-0.980785280403,-0.956940335732,-0.923879532511,-0.881921264348,-0.831469612303,-0.773010453363,-0.707106781187,-0.634393284164,-0.55557023302,-0.471396736826,-0.382683432365,-0.290284677254,-0.195090322016,-0.0980171403296,4.78753863469e-17,0.0980171403296,0.195090322016,0.290284677254,0.382683432365,0.471396736826,0.55557023302,0.634393284164,0.707106781187,0.773010453363,0.831469612303,0.881921264348,0.923879532511,0.956940335732,0.980785280403,0.99518472667};
static double w31[31] = {0.000943200342594,0.00373655471016,0.00827271606089,0.014377362258,0.0218158951716,0.0303024561535,0.0395109114243,0.0490873852123,0.0586638590003,0.0678723142712,0.0763588752531,0.0837974081667,0.0899020543638,0.0944382157145,0.0972315700821,0.0981747704247,0.0972315700821,0.0944382157145,0.0899020543638,0.0837974081667,0.0763588752531,0.0678723142712,0.0586638590003,0.0490873852123,0.0395109114243,0.0303024561535,0.0218158951716,0.014377362258,0.00827271606089,0.00373655471016,0.00094320034259};

static double x32[32] = {-0.995471922573,-0.981928697263,-0.959492973614,-0.928367933016,-0.888835448655,-0.841253532831,-0.786053094743,-0.723734038105,-0.654860733945,-0.580056909571,-0.5,-0.415415013002,-0.327067963317,-0.235758935509,-0.142314838273,-0.0475819158237,0.0475819158237,0.142314838273,0.235758935509,0.327067963317,0.415415013002,0.5,0.580056909571,0.654860733945,0.723734038105,0.786053094743,0.841253532831,0.888835448655,0.928367933016,0.959492973614,0.981928697263,0.99547192257};
static double w32[32] = {0.000860191998792,0.00340967841512,0.00755631416729,0.0131502290352,0.0199892443609,0.0278261803114,0.0363777896027,0.0453349947939,0.0543740591516,0.063168287339,0.0713998330361,0.0787711867345,0.0850159285055,0.0899083571111,0.0932716474344,0.0949842414,0.0949842414,0.0932716474344,0.0899083571111,0.0850159285055,0.0787711867345,0.0713998330361,0.063168287339,0.0543740591516,0.0453349947939,0.0363777896027,0.0278261803114,0.0199892443609,0.0131502290352,0.00755631416729,0.00340967841512,0.00086019199879};

static double x33[33] = {-0.995734176295,-0.982973099684,-0.961825643173,-0.932472229404,-0.895163291355,-0.85021713573,-0.79801722728,-0.739008917221,-0.673695643647,-0.602634636379,-0.526432162877,-0.445738355777,-0.361241666187,-0.273662990072,-0.183749517817,-0.0922683594633,-2.83521245367e-16,0.0922683594633,0.183749517817,0.273662990072,0.361241666187,0.445738355777,0.526432162877,0.602634636379,0.673695643647,0.739008917221,0.79801722728,0.85021713573,0.895163291355,0.932472229404,0.961825643173,0.982973099684,0.99573417629};
static double w33[33] = {0.000786640955095,0.00311977570612,0.00691995214743,0.0120577598281,0.0183582368697,0.0256068280832,0.0335566913885,0.0419371037256,0.0504626802035,0.0588430925406,0.0667929558459,0.0740415470594,0.080342024101,0.0854798317817,0.089280008223,0.091613142974,0.0923997839291,0.091613142974,0.089280008223,0.0854798317817,0.080342024101,0.0740415470594,0.0667929558459,0.0588430925406,0.0504626802035,0.0419371037256,0.0335566913885,0.0256068280832,0.0183582368697,0.0120577598281,0.00691995214743,0.00311977570613,0.00078664095509};

static double x34[34] = {-0.995974293995,-0.983929588599,-0.963962860696,-0.93623487064,-0.900968867902,-0.858448793602,-0.809016994375,-0.753071466004,-0.691062648987,-0.623489801859,-0.550896981452,-0.473868662473,-0.393025031654,-0.309016994375,-0.222520933956,-0.134233265818,-0.0448648303505,0.0448648303505,0.134233265818,0.222520933956,0.309016994375,0.393025031654,0.473868662473,0.550896981452,0.623489801859,0.691062648987,0.753071466004,0.809016994375,0.858448793602,0.900968867902,0.93623487064,0.963962860696,0.983929588599,0.99597429399};
static double w34[34] = {0.000721238377124,0.00286177231362,0.00635280328753,0.0110821266909,0.0168977381783,0.0236127192114,0.0310112447747,0.038855520169,0.0468934239289,0.054866611214,0.0625188172244,0.0696040937629,0.0758947142117,0.0811884928535,0.0853152832872,0.0881424470726,0.0895791168396,0.0895791168396,0.0881424470726,0.0853152832872,0.0811884928535,0.0758947142117,0.0696040937629,0.0625188172244,0.054866611214,0.0468934239289,0.038855520169,0.0310112447747,0.0236127192114,0.0168977381783,0.0110821266909,0.00635280328753,0.00286177231362,0.00072123837712};

static double x35[35] = {-0.996194698092,-0.984807753012,-0.965925826289,-0.939692620786,-0.906307787037,-0.866025403784,-0.819152044289,-0.766044443119,-0.707106781187,-0.642787609687,-0.573576436351,-0.5,-0.422618261741,-0.342020143326,-0.258819045103,-0.173648177667,-0.0871557427477,-1.73711782434e-16,0.0871557427477,0.173648177667,0.258819045103,0.342020143326,0.422618261741,0.5,0.573576436351,0.642787609687,0.707106781187,0.766044443119,0.819152044289,0.866025403784,0.906307787037,0.939692620786,0.965925826289,0.984807753012,0.99619469809};
static double w35[35] = {0.000662886826783,0.00263140582634,0.00584574454498,0.0102082369273,0.0155863308497,0.0218166156499,0.0287097872769,0.0360564001989,0.0436332312999,0.0512100624008,0.0585566753228,0.0654498469498,0.07168013175,0.0770582256724,0.0814207180547,0.0846350567734,0.0866035757729,0.0872664625997,0.0866035757729,0.0846350567734,0.0814207180547,0.0770582256724,0.07168013175,0.0654498469498,0.0585566753228,0.0512100624008,0.0436332312999,0.0360564001989,0.0287097872769,0.0218166156499,0.0155863308497,0.0102082369273,0.00584574454498,0.00263140582634,0.00066288682678};

static double x36[36] = {-0.996397488543,-0.985615910348,-0.967732946933,-0.942877445461,-0.911228490388,-0.873014113161,-0.828509649244,-0.778035754318,-0.721956093955,-0.66067472339,-0.594633176304,-0.524307283557,-0.450203744818,-0.37285647778,-0.292822771277,-0.210679269996,-0.127017819747,-0.0424412031961,0.0424412031961,0.127017819747,0.210679269996,0.292822771277,0.37285647778,0.450203744818,0.524307283557,0.594633176304,0.66067472339,0.721956093955,0.778035754318,0.828509649244,0.873014113161,0.911228490388,0.942877445461,0.967732946934,0.985615910348,0.99639748854};
static double w36[36] = {0.000610661491625,0.00242507834721,0.00539105309733,0.00942326004855,0.0144056999483,0.0201950370722,0.0266247227318,0.0335097865771,0.040652157857,0.0478463635538,0.0548854394681,0.0615668842017,0.0676984847547,0.0731038461429,0.0776274659606,0.0811392079018,0.0835380455448,0.084754968698,0.084754968698,0.0835380455448,0.0811392079018,0.0776274659606,0.0731038461429,0.0676984847547,0.0615668842017,0.0548854394681,0.0478463635538,0.040652157857,0.0335097865771,0.0266247227318,0.0201950370722,0.0144056999483,0.00942326004855,0.00539105309733,0.00242507834721,0.00061066149162};

static double x37[37] = {-0.996584493007,-0.986361303403,-0.969400265939,-0.945817241701,-0.915773326655,-0.879473751206,-0.837166478263,-0.789140509396,-0.735723910673,-0.677281571626,-0.61421271269,-0.546948158122,-0.475947393037,-0.401695424653,-0.324699469205,-0.245485487141,-0.164594590281,-0.0825793454723,2.97398503727e-16,0.0825793454723,0.164594590281,0.245485487141,0.324699469205,0.401695424653,0.475947393037,0.546948158122,0.61421271269,0.677281571626,0.735723910673,0.789140509396,0.837166478263,0.879473751206,0.915773326655,0.945817241701,0.969400265939,0.986361303403,0.99658449300};
static double w37[37] = {0.000563779329402,0.00223973888716,0.00498216286545,0.00871624508711,0.0133401295231,0.0187276886597,0.0247319639279,0.0311891743503,0.0379231840594,0.0447503068245,0.0514843165336,0.0579415269561,0.0639458022242,0.0693333613608,0.0739572457968,0.0776913280185,0.0804337519968,0.0821097115545,0.0826734908839,0.0821097115545,0.0804337519968,0.0776913280185,0.0739572457968,0.0693333613608,0.0639458022242,0.0579415269561,0.0514843165336,0.0447503068245,0.0379231840594,0.0311891743503,0.0247319639279,0.0187276886597,0.0133401295231,0.0087162450871,0.00498216286545,0.00223973888717,0.00056377932940};

static double x38[38] = {-0.996757308134,-0.987050262638,-0.970941817426,-0.948536441947,-0.919979443659,-0.885456025653,-0.845190085544,-0.799442763404,-0.748510748171,-0.69272435351,-0.632445375595,-0.568064746731,-0.5,-0.428692561403,-0.354604887043,-0.278217463916,-0.200025693776,-0.120536680255,-0.0402659401094,0.0402659401094,0.120536680255,0.200025693776,0.278217463916,0.354604887043,0.428692561403,0.5,0.568064746731,0.632445375595,0.69272435351,0.748510748171,0.799442763403,0.845190085544,0.885456025653,0.919979443659,0.948536441947,0.970941817426,0.987050262638,0.99675730813};
static double w38[38] = {0.000521574355931,0.00207278892188,0.0046134680554,0.00807780950148,0.0123760886364,0.0173969822884,0.0230104519492,0.0290711117032,0.0354219936463,0.0418986132721,0.0483332295344,0.0545591892519,0.0604152433383,0.0657497230687,0.0704244682202,0.074318405349,0.0773306835287,0.0793832863369,0.0804230524389,0.0804230524389,0.0793832863369,0.0773306835287,0.074318405349,0.0704244682202,0.0657497230687,0.0604152433383,0.0545591892519,0.0483332295344,0.0418986132721,0.0354219936463,0.0290711117032,0.0230104519492,0.0173969822884,0.0123760886364,0.00807780950149,0.0046134680554,0.00207278892188,0.00052157435593};

static double x39[39] = {-0.996917333733,-0.987688340595,-0.972369920398,-0.951056516295,-0.923879532511,-0.891006524188,-0.852640164354,-0.809016994375,-0.7604059656,-0.707106781187,-0.64944804833,-0.587785252292,-0.522498564716,-0.45399049974,-0.382683432365,-0.309016994375,-0.233445363856,-0.15643446504,-0.0784590957278,4.3531061513e-17,0.0784590957278,0.15643446504,0.233445363856,0.309016994375,0.382683432365,0.45399049974,0.522498564716,0.587785252292,0.64944804833,0.707106781187,0.7604059656,0.809016994375,0.852640164354,0.891006524188,0.923879532511,0.951056516295,0.972369920398,0.987688340595,0.99691733373};
static double w39[39] = {0.000483477734248,0.0019220061106,0.00428016378624,0.0074998850929,0.0115018898064,0.0161876352887,0.0214417429351,0.0271348391778,0.0331267410931,0.0392699081699,0.0454130752466,0.0514049771619,0.0570980734046,0.062352181051,0.0670379265334,0.0710399312468,0.0742596525535,0.0766178102291,0.0780563386055,0.0785398163397,0.0780563386055,0.0766178102291,0.0742596525535,0.0710399312468,0.0670379265334,0.062352181051,0.0570980734046,0.0514049771619,0.0454130752466,0.0392699081699,0.0331267410931,0.0271348391778,0.0214417429351,0.0161876352887,0.0115018898064,0.0074998850929,0.00428016378624,0.0019220061106,0.00048347773424};

static double x40[40] = {-0.997065801184,-0.98828042378,-0.973695423878,-0.953396392055,-0.927502451102,-0.896165556961,-0.859569606987,-0.817929360767,-0.771489179822,-0.720521593601,-0.665325700166,-0.606225410967,-0.543567550001,-0.477719818512,-0.409068637171,-0.338016878409,-0.264981502197,-0.190391109165,-0.114683425398,-0.03830273369,0.03830273369,0.114683425398,0.190391109165,0.264981502197,0.338016878409,0.409068637171,0.477719818512,0.543567550001,0.606225410967,0.665325700166,0.720521593601,0.771489179822,0.817929360767,0.859569606987,0.896165556961,0.927502451102,0.953396392055,0.973695423878,0.98828042378,0.99706580118};
static double w40[40] = {0.000449001640913,0.00178548234574,0.00397811613952,0.00697550954451,0.0107074061998,0.0150863336107,0.0200096534302,0.0253619672145,0.031017821265,0.0368446471563,0.0427058690282,0.0484641048077,0.0539843863286,0.0591373228708,0.0638021339692,0.0678694804054,0.0712440270262,0.073846677319,0.0756164273668,0.0765117957285,0.0765117957285,0.0756164273668,0.073846677319,0.0712440270262,0.0678694804054,0.0638021339692,0.0591373228708,0.0539843863286,0.0484641048077,0.0427058690282,0.0368446471563,0.031017821265,0.0253619672145,0.0200096534302,0.0150863336107,0.0107074061998,0.00697550954451,0.00397811613952,0.00178548234574,0.00044900164091};

static double x41[41] = {-0.997203797181,-0.988830826225,-0.974927912182,-0.955572805786,-0.930873748644,-0.900968867902,-0.866025403784,-0.826238774316,-0.781831482468,-0.73305187183,-0.680172737771,-0.623489801859,-0.563320058064,-0.5,-0.433883739118,-0.365341024366,-0.294755174411,-0.222520933956,-0.149042266176,-0.0747300935864,1.28072233936e-16,0.0747300935864,0.149042266176,0.222520933956,0.294755174411,0.365341024366,0.433883739118,0.5,0.563320058064,0.623489801859,0.680172737771,0.73305187183,0.781831482468,0.826238774316,0.866025403784,0.900968867902,0.930873748644,0.955572805786,0.974927912182,0.988830826225,0.99720379718};
static double w41[41] = {0.000417726122354,0.00166157317812,0.00370375567946,0.0064986546439,0.00998383664701,0.0140814484819,0.0186999562714,0.0237361901832,0.0290776490738,0.0346050135783,0.0401948115072,0.0457221760116,0.0510636349023,0.0560998688141,0.0607183766035,0.0648159884385,0.0683011704416,0.071096069406,0.0731382519074,0.0743820989631,0.0747998250855,0.0743820989631,0.0731382519074,0.071096069406,0.0683011704416,0.0648159884385,0.0607183766035,0.0560998688141,0.0510636349023,0.0457221760116,0.0401948115072,0.0346050135783,0.0290776490738,0.0237361901832,0.0186999562714,0.0140814484819,0.00998383664701,0.0064986546439,0.00370375567946,0.00166157317812,0.00041772612235};

static double x42[42] = {-0.997332283664,-0.989343368075,-0.976075877556,-0.957600599908,-0.934016108733,-0.905448237493,-0.872049408144,-0.83399781789,-0.791496488429,-0.744772182744,-0.694074195221,-0.639673021559,-0.581858915558,-0.520940340488,-0.457242323305,-0.39110472049,-0.322880404771,-0.252933382392,-0.181636850979,-0.109371208378,-0.0365220230577,0.0365220230577,0.109371208378,0.181636850979,0.252933382392,0.322880404771,0.39110472049,0.457242323305,0.520940340488,0.581858915558,0.639673021559,0.694074195221,0.744772182744,0.791496488429,0.83399781789,0.872049408144,0.905448237493,0.934016108733,0.957600599908,0.976075877556,0.989343368075,0.99733228366};
static double w42[42] = {0.000389288332177,0.00154885632377,0.00345398979623,0.00606408413717,0.00932350971725,0.0131627975391,0.0175001198483,0.0222430341502,0.0272904534607,0.0325348008004,0.0378643020107,0.0431653680261,0.048325015828,0.0532332764813,0.0577855389318,0.0618847796086,0.0654436303137,0.068386240323,0.070649893013,0.0721863425566,0.0729628421992,0.0729628421992,0.0721863425566,0.070649893013,0.068386240323,0.0654436303137,0.0618847796086,0.0577855389318,0.0532332764813,0.048325015828,0.0431653680261,0.0378643020107,0.0325348008004,0.0272904534607,0.0222430341502,0.0175001198483,0.0131627975391,0.00932350971725,0.00606408413717,0.00345398979623,0.00154885632377,0.00038928833217};

static double x43[43] = {-0.99745211461,-0.989821441881,-0.977146865971,-0.959492973614,-0.936949725,-0.909631995355,-0.877678989567,-0.841253532831,-0.800541240924,-0.755749574354,-0.707106781187,-0.654860733945,-0.599277666511,-0.540640817456,-0.47924898672,-0.415415013002,-0.349464179599,-0.281732556841,-0.212565289553,-0.142314838273,-0.0713391831992,-1.26869949067e-16,0.0713391831992,0.142314838273,0.212565289553,0.281732556841,0.349464179599,0.415415013002,0.47924898672,0.540640817456,0.599277666511,0.654860733945,0.707106781187,0.755749574354,0.800541240924,0.841253532831,0.877678989567,0.909631995355,0.936949725,0.959492973615,0.977146865971,0.989821441881,0.9974521146};
static double w43[43] = {0.000363373675125,0.00144609746036,0.00322613022175,0.00566723562546,0.00871971980506,0.0123214429853,0.0163990844686,0.0208696352335,0.0256420877584,0.0306192886724,0.0356999165181,0.0407805443637,0.0457577452777,0.0505301978026,0.0550007485675,0.0590783900509,0.0626801132311,0.0657325974107,0.0681737028144,0.0699537355758,0.071036459361,0.0713998330361,0.071036459361,0.0699537355758,0.0681737028144,0.0657325974107,0.0626801132311,0.0590783900509,0.0550007485675,0.0505301978026,0.0457577452777,0.0407805443637,0.0356999165181,0.0306192886724,0.0256420877584,0.0208696352335,0.0163990844686,0.0123214429853,0.00871971980505,0.00566723562546,0.00322613022175,0.00144609746036,0.00036337367512};

static double x44[44] = {-0.99756405026,-0.990268068742,-0.978147600734,-0.961261695938,-0.939692620786,-0.913545457643,-0.882947592859,-0.848048096156,-0.809016994375,-0.766044443119,-0.719339800339,-0.669130606359,-0.615661475326,-0.559192903471,-0.5,-0.438371146789,-0.374606593416,-0.309016994375,-0.2419218956,-0.173648177667,-0.104528463268,-0.0348994967025,0.0348994967025,0.104528463268,0.173648177667,0.2419218956,0.309016994375,0.374606593416,0.438371146789,0.5,0.559192903471,0.615661475326,0.669130606359,0.719339800339,0.766044443119,0.809016994375,0.848048096156,0.882947592859,0.913545457643,0.939692620786,0.961261695938,0.978147600734,0.990268068742,0.9975640502};
static double w44[44] = {0.000339708486074,0.00135222190503,0.00301783283488,0.00530412205349,0.00816658954182,0.0115495206262,0.0153870704012,0.0196045453255,0.024119857047,0.0288451201591,0.0336883627904,0.038555316732,0.0433512522616,0.0479828219495,0.0523598775598,0.0563972246841,0.060016280953,0.0631466055527,0.0657272702758,0.0677080454187,0.0690503774465,0.069728139393,0.069728139393,0.0690503774465,0.0677080454187,0.0657272702758,0.0631466055527,0.060016280953,0.0563972246841,0.0523598775598,0.0479828219495,0.0433512522616,0.038555316732,0.0336883627904,0.0288451201591,0.024119857047,0.0196045453255,0.0153870704012,0.0115495206262,0.00816658954182,0.00530412205349,0.00301783283488,0.00135222190503,0.00033970848607};

static double x45[45] = {-0.997668769191,-0.990685946036,-0.979084087682,-0.962917287348,-0.942260922119,-0.917211301505,-0.887885218402,-0.854419404546,-0.81696989301,-0.775711290704,-0.730835964278,-0.682553143219,-0.631087944326,-0.576680322115,-0.519583950035,-0.460065037731,-0.398401089846,-0.334879612171,-0.269796771157,-0.203456013053,-0.136166649096,-0.0682424133647,7.18375088578e-17,0.0682424133647,0.136166649096,0.203456013053,0.269796771157,0.334879612171,0.398401089846,0.460065037731,0.519583950035,0.576680322115,0.631087944326,0.682553143219,0.730835964278,0.775711290704,0.81696989301,0.854419404546,0.887885218402,0.917211301505,0.942260922119,0.962917287348,0.979084087682,0.990685946036,0.99766876919};
static double w45[45] = {0.000318053951168,0.00126629106134,0.00282704746729,0.00497124923024,0.00765895392833,0.0108400947084,0.0144554129366,0.0184375620748,0.0227123622191,0.027200181931,0.0318174216207,0.0364780708487,0.0410953105383,0.0455831302503,0.0498579303946,0.0538400795328,0.057455397761,0.060636538541,0.0633242432391,0.0654684450021,0.067029201408,0.0679774385182,0.0682954924693,0.0679774385182,0.067029201408,0.0654684450021,0.0633242432391,0.060636538541,0.057455397761,0.0538400795328,0.0498579303946,0.0455831302503,0.0410953105383,0.0364780708487,0.0318174216207,0.027200181931,0.0227123622191,0.0184375620748,0.0144554129366,0.0108400947084,0.00765895392833,0.00497124923024,0.00282704746729,0.00126629106134,0.00031805395116};

static double x46[46] = {-0.997766878623,-0.991077488155,-0.979961705037,-0.964469175054,-0.944669091608,-0.920649886676,-0.89251883586,-0.86040157926,-0.824441560342,-0.784799385279,-0.741652105648,-0.695192427675,-0.645627851559,-0.593179744729,-0.538082353163,-0.480581755187,-0.420934762428,-0.359407772838,-0.296275580886,-0.231820150268,-0.166329354583,-0.100095691624,-0.0334149770077,0.0334149770077,0.100095691624,0.166329354583,0.231820150268,0.296275580886,0.359407772838,0.420934762428,0.480581755187,0.538082353163,0.593179744729,0.645627851559,0.695192427675,0.741652105648,0.784799385279,0.824441560342,0.86040157926,0.89251883586,0.920649886676,0.944669091608,0.964469175054,0.979961705037,0.991077488155,0.99776687862};
static double w46[46] = {0.000298201038984,0.00118748275133,0.00265197588382,0.0046655465218,0.00719226244954,0.0101870343614,0.0135964204818,0.0173595802345,0.0214093599447,0.0256734911974,0.0300758804694,0.03453796702,0.0389801248088,0.0433230834249,0.0474893426689,0.0514045555459,0.0549988549894,0.0582081006406,0.0609750234348,0.0632502475693,0.0649931716155,0.0661726930525,0.0667677632922,0.0667677632922,0.0661726930525,0.0649931716155,0.0632502475693,0.0609750234348,0.0582081006406,0.0549988549894,0.0514045555459,0.0474893426689,0.0433230834249,0.0389801248088,0.03453796702,0.0300758804694,0.0256734911974,0.0214093599447,0.0173595802345,0.0135964204818,0.0101870343614,0.00719226244954,0.0046655465218,0.00265197588382,0.00118748275133,0.00029820103898};

static double x47[47] = {-0.997858923239,-0.991444861374,-0.980785280403,-0.965925826289,-0.946930129495,-0.923879532511,-0.896872741533,-0.866025403784,-0.831469612303,-0.793353340291,-0.751839807479,-0.707106781187,-0.6593458151,-0.608761429009,-0.55557023302,-0.5,-0.442288690219,-0.382683432365,-0.321439465303,-0.258819045103,-0.195090322016,-0.13052619222,-0.0654031292301,-5.47501298203e-17,0.0654031292301,0.13052619222,0.195090322016,0.258819045103,0.321439465303,0.382683432365,0.442288690219,0.5,0.55557023302,0.608761429009,0.6593458151,0.707106781187,0.751839807479,0.793353340291,0.831469612303,0.866025403784,0.896872741533,0.923879532511,0.946930129495,0.965925826289,0.980785280403,0.991444861374,0.99785892323};
static double w47[47] = {0.000279966256859,0.00111507472716,0.00249103647344,0.00438430840873,0.00676249612531,0.00958490817199,0.0128032522961,0.0163624617374,0.0202016374356,0.0242550900301,0.028453463823,0.0327249234749,0.0369963831268,0.0411947569197,0.0452482095142,0.0490873852123,0.0526465946537,0.0558649387778,0.0586873508245,0.0610655385411,0.0629588104763,0.0643347722226,0.0651698806929,0.0654498469498,0.0651698806929,0.0643347722226,0.0629588104763,0.0610655385411,0.0586873508245,0.0558649387778,0.0526465946537,0.0490873852123,0.0452482095142,0.0411947569197,0.0369963831268,0.0327249234749,0.028453463823,0.0242550900301,0.0202016374356,0.0163624617374,0.0128032522961,0.00958490817199,0.00676249612531,0.00438430840873,0.00249103647344,0.00111507472716,0.00027996625685};

static double x48[48] = {-0.99794539275,-0.991790013823,-0.981559156991,-0.967294863039,-0.949055747011,-0.926916757346,-0.900968867902,-0.871318704123,-0.838088104892,-0.801413621868,-0.761445958369,-0.718349350098,-0.672300890261,-0.623489801859,-0.572116660122,-0.518392568311,-0.462538290241,-0.404783343122,-0.345365054421,-0.284527586631,-0.222520933956,-0.159599895033,-0.0960230259077,-0.0320515775717,0.0320515775717,0.0960230259077,0.159599895033,0.222520933956,0.284527586631,0.345365054421,0.404783343122,0.462538290241,0.518392568311,0.572116660122,0.623489801859,0.672300890261,0.718349350098,0.761445958369,0.801413621868,0.838088104892,0.871318704123,0.900968867902,0.926916757346,0.949055747011,0.967294863039,0.981559156991,0.991790013823,0.9979453927};
static double w48[48] = {0.000263188084275,0.00104843079603,0.00234283447166,0.00412514503857,0.00636609700656,0.00902889400624,0.0120698129845,0.0154389221358,0.019080900781,0.0229359477315,0.0269407632228,0.0310295882955,0.0351352845547,0.0391904365814,0.0431284588915,0.0468846892675,0.0503974505105,0.0536090631779,0.0564667926787,0.0589237151733,0.0609394880623,0.0624810124107,0.0635229764312,0.0640482711034,0.0640482711034,0.0635229764312,0.0624810124107,0.0609394880623,0.0589237151733,0.0564667926787,0.0536090631779,0.0503974505105,0.0468846892675,0.0431284588915,0.0391904365814,0.0351352845547,0.0310295882955,0.0269407632228,0.0229359477315,0.019080900781,0.0154389221358,0.0120698129845,0.00902889400624,0.00636609700656,0.00412514503858,0.00234283447166,0.00104843079603,0.00026318808427};

static double x49[49] = {-0.998026728428,-0.992114701314,-0.982287250729,-0.968583161129,-0.951056516295,-0.929776485888,-0.904827052466,-0.876306680044,-0.844327925502,-0.809016994375,-0.770513242776,-0.728968627421,-0.684547105929,-0.637423989749,-0.587785252292,-0.535826794979,-0.481753674102,-0.425779291565,-0.368124552685,-0.309016994375,-0.248689887165,-0.187381314586,-0.125333233564,-0.0627905195293,1.27975868703e-16,0.0627905195293,0.125333233564,0.187381314586,0.248689887165,0.309016994375,0.368124552685,0.425779291565,0.481753674102,0.535826794979,0.587785252292,0.637423989749,0.684547105929,0.728968627421,0.770513242776,0.809016994375,0.844327925502,0.876306680044,0.904827052466,0.929776485888,0.951056516295,0.968583161129,0.982287250729,0.992114701314,0.99802672842};
static double w49[49] = {0.000247723964218,0.000986989101974,0.00220613676043,0.00388594025272,0.00599990807432,0.00851470168985,0.0113906613017,0.0145824313089,0.0180396755916,0.0217078713423,0.0255291689227,0.0294433041872,0.0333885488846,0.0373026841491,0.0411239817295,0.0447921774802,0.0482494217629,0.0514411917701,0.0543171513819,0.0568319449975,0.0589459128191,0.0606257163114,0.0618448639698,0.0625841291076,0.0628318530718,0.0625841291076,0.0618448639698,0.0606257163114,0.0589459128191,0.0568319449975,0.0543171513819,0.0514411917701,0.0482494217629,0.0447921774802,0.0411239817295,0.0373026841491,0.0333885488846,0.0294433041872,0.0255291689227,0.0217078713423,0.0180396755916,0.0145824313089,0.0113906613017,0.00851470168985,0.00599990807432,0.00388594025272,0.00220613676043,0.000986989101973,0.00024772396421};

static double x50[50] = {-0.998103328737,-0.992420509672,-0.982973099684,-0.969796936035,-0.952942000427,-0.932472229404,-0.90846527182,-0.881012194286,-0.85021713573,-0.816196912356,-0.779080574526,-0.739008917221,-0.696133945963,-0.650618300204,-0.602634636379,-0.552364972961,-0.5,-0.445738355777,-0.389785873293,-0.33235479948,-0.273662990072,-0.213933083206,-0.153391654879,-0.0922683594633,-0.0307950585562,0.0307950585562,0.0922683594633,0.153391654879,0.213933083206,0.273662990072,0.33235479948,0.389785873293,0.445738355777,0.5,0.552364972961,0.602634636379,0.650618300204,0.696133945963,0.739008917221,0.779080574526,0.816196912356,0.85021713573,0.881012194286,0.90846527182,0.932472229404,0.952942000427,0.969796936035,0.982973099684,0.992420509672,0.99810332873};
static double w50[50] = {0.000233447756202,0.000930252194787,0.00207985047075,0.00366481584606,0.00566112186126,0.00803850655208,0.01076093119,0.0137871265925,0.0170712187222,0.0205634240898,0.0242108044218,0.0279580691504,0.0317484135619,0.0355243798988,0.0392287283604,0.0428053048,0.0461998919646,0.0493610313729,0.0522408033739,0.0547955535595,0.0569865545211,0.0587805929174,0.0601504729552,0.0610754286493,0.0615414386144,0.0615414386144,0.0610754286493,0.0601504729552,0.0587805929174,0.0569865545211,0.0547955535595,0.0522408033739,0.0493610313729,0.0461998919646,0.0428053048,0.0392287283604,0.0355243798988,0.0317484135619,0.0279580691504,0.0242108044218,0.0205634240898,0.0170712187221,0.0137871265925,0.01076093119,0.00803850655208,0.00566112186126,0.00366481584606,0.00207985047075,0.000930252194788,0.00023344775620};

static double x51[51] = {-0.998175554223,-0.992708874098,-0.983619906947,-0.970941817426,-0.954720866509,-0.935016242685,-0.911899845992,-0.885456025653,-0.855781272301,-0.822983865894,-0.787183480609,-0.748510748171,-0.707106781187,-0.663122658241,-0.616718872629,-0.568064746731,-0.517337814178,-0.464723172044,-0.410412805453,-0.354604887043,-0.297503053855,-0.239315664288,-0.180255037814,-0.120536680255,-0.0603784974223,3.4492824295e-17,0.0603784974223,0.120536680255,0.180255037814,0.239315664288,0.297503053855,0.354604887043,0.410412805453,0.464723172044,0.517337814178,0.568064746731,0.616718872629,0.663122658241,0.707106781187,0.748510748171,0.787183480609,0.822983865894,0.855781272301,0.885456025653,0.911899845992,0.935016242685,0.954720866509,0.970941817426,0.983619906947,0.992708874098,0.99817555422};
static double w51[51] = {0.000220247572788,0.000877778585586,0.0019630047556,0.00346010104155,0.00534723640842,0.0075968921731,0.0101762632888,0.0130477367163,0.0161694399072,0.0194958513993,0.0229784646228,0.0265664952347,0.0302076216691,0.0338487481035,0.0374367787154,0.0409193919389,0.0442458034311,0.047367506622,0.0502389800495,0.0528183511652,0.0550680069298,0.0569551422967,0.0584522385827,0.0595374647527,0.0601949957655,0.0604152433383,0.0601949957655,0.0595374647527,0.0584522385827,0.0569551422967,0.0550680069298,0.0528183511652,0.0502389800495,0.047367506622,0.0442458034311,0.0409193919389,0.0374367787154,0.0338487481035,0.0302076216691,0.0265664952347,0.0229784646228,0.0194958513993,0.0161694399072,0.0130477367163,0.0101762632888,0.0075968921731,0.00534723640842,0.00346010104155,0.0019630047556,0.000877778585586,0.00022024757278};

static double x52[52] = {-0.998243731764,-0.992981096014,-0.984230577948,-0.97202291408,-0.956400984277,-0.937419661134,-0.915145617243,-0.889657090995,-0.861043611767,-0.82940568545,-0.794854441413,-0.757511242162,-0.717507257044,-0.674983001518,-0.630087843582,-0.582979479114,-0.533823377965,-0.482792202731,-0.430065202277,-0.375827582114,-0.320269853863,-0.263587166069,-0.205978618741,-0.147646564002,-0.0887958953229,-0.0296333278226,0.0296333278226,0.0887958953229,0.147646564002,0.205978618741,0.263587166069,0.320269853863,0.375827582114,0.430065202277,0.482792202731,0.533823377965,0.582979479114,0.630087843582,0.674983001518,0.717507257044,0.757511242162,0.794854441413,0.82940568545,0.861043611767,0.889657090995,0.915145617243,0.937419661134,0.956400984277,0.97202291408,0.984230577948,0.992981096014,0.99824373176};
static double w52[52] = {0.000208023935851,0.000829175543338,0.00185473521547,0.00327030634252,0.00505601740881,0.00718680094531,0.00963274542191,0.0123595151397,0.0153288322291,0.0184990139868,0.0218255580103,0.0252617669131,0.0287594038547,0.0322693696793,0.0357423921606,0.039129717676,0.0423837956002,0.0454589458124,0.0483119999444,0.05090290737,0.0531952974284,0.0551569899881,0.0567604471857,0.057983159997,0.0588079642142,0.0592232813943,0.0592232813943,0.0588079642142,0.057983159997,0.0567604471857,0.0551569899881,0.0531952974284,0.05090290737,0.0483119999444,0.0454589458124,0.0423837956002,0.039129717676,0.0357423921606,0.0322693696793,0.0287594038547,0.0252617669131,0.0218255580103,0.0184990139868,0.0153288322291,0.0123595151397,0.00963274542191,0.00718680094531,0.00505601740881,0.00327030634252,0.00185473521547,0.000829175543338,0.00020802393585};

static double x53[53] = {-0.998308158271,-0.993238357742,-0.984807753012,-0.97304487058,-0.957989512315,-0.939692620786,-0.91821610688,-0.893632640323,-0.866025403784,-0.835487811413,-0.802123192755,-0.766044443119,-0.727373641573,-0.686241637869,-0.642787609687,-0.597158591703,-0.549508978071,-0.5,-0.4487991802,-0.396079766039,-0.342020143326,-0.286803232711,-0.230615870742,-0.173648177667,-0.116092914125,-0.0581448289105,-1.72585223549e-16,0.0581448289105,0.116092914125,0.173648177667,0.230615870742,0.286803232711,0.342020143326,0.396079766039,0.4487991802,0.5,0.549508978071,0.597158591703,0.642787609687,0.686241637869,0.727373641573,0.766044443119,0.802123192755,0.835487811413,0.866025403784,0.893632640323,0.91821610688,0.939692620786,0.957989512315,0.97304487058,0.984807753012,0.993238357742,0.99830815827};
static double w53[53] = {0.000196688200408,0.000784092931139,0.00175427055089,0.00309410107168,0.00478546558418,0.00680549128485,0.00912686079143,0.0117181815636,0.0145444104333,0.0175673275034,0.0207460530063,0.0240376001326,0.0273974563541,0.0307801853791,0.0341400416005,0.0374315887269,0.0406103142298,0.0436332312999,0.0464594601695,0.0490507809417,0.0513721504483,0.053392176149,0.0550835406615,0.0564233711823,0.057393548802,0.0579809535327,0.0581776417331,0.0579809535327,0.057393548802,0.0564233711823,0.0550835406615,0.053392176149,0.0513721504483,0.0490507809417,0.0464594601695,0.0436332312999,0.0406103142298,0.0374315887269,0.0341400416005,0.0307801853791,0.0273974563541,0.0240376001326,0.0207460530063,0.0175673275034,0.0145444104333,0.0117181815636,0.00912686079143,0.00680549128485,0.00478546558418,0.00309410107168,0.00175427055089,0.000784092931139,0.00019668820040};

static double x54[54] = {-0.998369103926,-0.993481735349,-0.985353835848,-0.974011916942,-0.959492973614,-0.94184436364,-0.921123653115,-0.897398428691,-0.87074607712,-0.841253532831,-0.809016994375,-0.774141610639,-0.736741137876,-0.696937568655,-0.654860733945,-0.610647879635,-0.564443218867,-0.516397461639,-0.466667323226,-0.415415013002,-0.362807705351,-0.309016994375,-0.254218334193,-0.198590466646,-0.142314838273,-0.0855750084788,-0.0285560507937,0.0285560507937,0.0855750084788,0.142314838273,0.198590466646,0.254218334193,0.309016994375,0.362807705351,0.415415013002,0.466667323226,0.516397461639,0.564443218867,0.610647879635,0.654860733945,0.696937568655,0.736741137876,0.774141610639,0.809016994375,0.841253532831,0.87074607712,0.897398428691,0.921123653115,0.94184436364,0.959492973614,0.974011916942,0.985353835848,0.993481735349,0.99836910392};
static double w54[54] = {0.000186161203119,0.000742217916498,0.0016609210905,0.00293029402427,0.00453378850037,0.00645050051607,0.00865544279902,0.0111198705545,0.0138116561979,0.0166957081868,0.019734428493,0.02288820275,0.0261159166875,0.029375492118,0.032624435491,0.0358203918609,0.038921697049,0.0418879207991,0.0446803938486,0.0472627120407,0.0496012109085,0.0516654045432,0.0534283830237,0.0548671632297,0.0559629884606,0.0567015729589,0.057073288146,0.057073288146,0.0567015729589,0.0559629884606,0.0548671632297,0.0534283830237,0.0516654045432,0.0496012109085,0.0472627120407,0.0446803938486,0.0418879207991,0.038921697049,0.0358203918609,0.032624435491,0.029375492118,0.0261159166875,0.02288820275,0.019734428493,0.0166957081868,0.0138116561979,0.0111198705545,0.00865544279901,0.00645050051607,0.00453378850037,0.00293029402427,0.0016609210905,0.000742217916499,0.00018616120311};

static double x55[55] = {-0.998426815018,-0.993712209893,-0.985871018518,-0.974927912182,-0.960917321945,-0.943883330308,-0.923879532511,-0.900968867902,-0.875223421909,-0.846724199228,-0.815560868959,-0.781831482468,-0.745642164883,-0.707106781187,-0.666346577952,-0.623489801859,-0.57867129618,-0.532032076515,-0.483718887105,-0.433883739118,-0.382683432365,-0.330279061955,-0.276835511425,-0.222520933956,-0.167506223305,-0.111964476103,-0.0560704472372,3.98576515313e-17,0.0560704472372,0.111964476103,0.167506223305,0.222520933956,0.276835511425,0.330279061955,0.382683432365,0.433883739118,0.483718887105,0.532032076515,0.57867129618,0.623489801859,0.666346577952,0.707106781187,0.745642164883,0.781831482468,0.815560868959,0.846724199228,0.875223421909,0.900968867902,0.923879532511,0.943883330308,0.960917321945,0.974927912182,0.985871018518,0.993712209893,0.99842681501};
static double w55[55] = {0.00017637210006,0.000703270418748,0.00157406890399,0.00277781675959,0.00429937615783,0.00611961260646,0.00821563557599,0.0105610863614,0.0131264695583,0.0158795239845,0.0187856283832,0.0218082368054,0.0249093381964,0.0280499344071,0.0311905306177,0.0342916320087,0.0373142404309,0.0402203448296,0.0429733992558,0.0455387824527,0.0478842332381,0.0499802562076,0.0518004926563,0.0533220520545,0.0545257999101,0.0553965983954,0.055923496714,0.0560998688141,0.055923496714,0.0553965983954,0.0545257999101,0.0533220520545,0.0518004926563,0.0499802562076,0.0478842332381,0.0455387824527,0.0429733992558,0.0402203448296,0.0373142404309,0.0342916320087,0.0311905306177,0.0280499344071,0.0249093381964,0.0218082368054,0.0187856283832,0.0158795239845,0.0131264695583,0.0105610863614,0.00821563557599,0.00611961260646,0.00429937615783,0.00277781675959,0.00157406890399,0.000703270418748,0.0001763721000};

static double x56[56] = {-0.998481516433,-0.993930677318,-0.986361303403,-0.975796382627,-0.962268000309,-0.945817241701,-0.926494067215,-0.904357160698,-0.879473751206,-0.851919408838,-0.821777815225,-0.789140509396,-0.754106609777,-0.716782513168,-0.677281571626,-0.63572374821,-0.592235252665,-0.546948158122,-0.5,-0.451533358311,-0.401695424653,-0.350637555193,-0.298514811002,-0.245485487141,-0.191710631924,-0.137353557818,-0.0825793454723,-0.0275543423682,0.0275543423682,0.0825793454723,0.137353557818,0.191710631924,0.245485487141,0.298514811002,0.350637555193,0.401695424653,0.451533358311,0.5,0.546948158122,0.592235252665,0.63572374821,0.677281571626,0.716782513168,0.754106609777,0.789140509396,0.821777815225,0.851919408838,0.879473751206,0.904357160698,0.926494067215,0.945817241701,0.962268000309,0.975796382627,0.986361303403,0.993930677318,0.99848151643};
static double w56[56] = {0.000167257364475,0.00066699918007,0.00149315925811,0.0026357091344,0.00408077980116,0.00581083005807,0.00780485943858,0.0100386631272,0.0124851257731,0.0151145506339,0.0178950200537,0.0207927829002,0.0237726642579,0.0267984924038,0.029833537883,0.0328409593549,0.0357842507967,0.0386276846374,0.041336745442,0.0438785488821,0.0462222409072,0.048339372271,0.0502042438665,0.051794218679,0.053089996568,0.0540758485451,0.054739807703,0.0550738144769,0.0550738144769,0.054739807703,0.0540758485451,0.053089996568,0.051794218679,0.0502042438665,0.048339372271,0.0462222409072,0.0438785488821,0.041336745442,0.0386276846374,0.0357842507967,0.0328409593549,0.029833537883,0.0267984924038,0.0237726642579,0.0207927829002,0.0178950200537,0.0151145506339,0.0124851257731,0.0100386631272,0.00780485943858,0.00581083005807,0.00408077980116,0.00263570913439,0.00149315925811,0.000666999180069,0.00016725736447};

static double x57[57] = {-0.998533413851,-0.994137957154,-0.986826522542,-0.97662055571,-0.963549992519,-0.947653171183,-0.928976719817,-0.907575419671,-0.883512044446,-0.856857176168,-0.827688998157,-0.796093065706,-0.762162055128,-0.725995491923,-0.687699458853,-0.647386284782,-0.605174215194,-0.561187065362,-0.515553857177,-0.4684084407,-0.41988910156,-0.37013815534,-0.319301530136,-0.267528338529,-0.214970440211,-0.161781996553,-0.108119018424,-0.0541389085854,-1.52506240408e-16,0.0541389085854,0.108119018424,0.161781996553,0.214970440211,0.267528338529,0.319301530136,0.37013815534,0.41988910156,0.4684084407,0.515553857177,0.561187065362,0.605174215194,0.647386284782,0.687699458853,0.725995491923,0.762162055128,0.796093065706,0.827688998157,0.856857176168,0.883512044446,0.907575419671,0.928976719817,0.947653171183,0.963549992519,0.97662055571,0.986826522542,0.994137957154,0.99853341385};
static double w57[57] = {0.000158759920163,0.000633178365744,0.00141769321423,0.00250310674632,0.00387669348074,0.00552234936892,0.00742078060021,0.00954972980418,0.0118842369979,0.014396932219,0.0170583564135,0.0198373068159,0.0227012027736,0.025616467725,0.0285489228541,0.0314641878055,0.0343280837633,0.0371070341657,0.0397684583601,0.0422811535812,0.044615660775,0.0467446099789,0.0486430412102,0.0502886970984,0.0516622838328,0.0527476973649,0.0535322122134,0.054006630659,0.0541653905791,0.054006630659,0.0535322122134,0.0527476973649,0.0516622838328,0.0502886970984,0.0486430412102,0.0467446099789,0.044615660775,0.0422811535812,0.0397684583601,0.0371070341657,0.0343280837633,0.0314641878055,0.0285489228541,0.025616467725,0.0227012027736,0.0198373068159,0.0170583564135,0.014396932219,0.0118842369979,0.00954972980418,0.00742078060021,0.00552234936892,0.00387669348074,0.00250310674632,0.00141769321423,0.000633178365743,0.00015875992016};

static double x58[58] = {-0.998582695677,-0.99433480021,-0.987268354721,-0.977403389818,-0.964767868815,-0.949397608468,-0.931336177452,-0.910634772855,-0.887352075057,-0.861554081394,-0.833313919083,-0.802711637931,-0.76983398343,-0.734774150863,-0.697631521135,-0.658511379065,-0.617524614946,-0.574787410214,-0.53042090812,-0.484550870333,-0.437307320459,-0.388824175473,-0.339238866118,-0.28869194734,-0.237326699871,-0.185288724087,-0.132725527284,-0.0797861055531,-0.0266205214378,0.0266205214378,0.0797861055531,0.132725527284,0.185288724087,0.237326699871,0.28869194734,0.339238866118,0.388824175473,0.437307320459,0.484550870333,0.53042090812,0.574787410214,0.617524614946,0.658511379065,0.697631521135,0.734774150863,0.76983398343,0.802711637931,0.833313919083,0.861554081394,0.887352075057,0.910634772855,0.931336177452,0.949397608468,0.964767868815,0.977403389818,0.987268354721,0.99433480021,0.99858269567};
static double w58[58] = {0.000150828390178,0.000601604614781,0.00134722119907,0.0023792300092,0.00368593797299,0.00525253956707,0.00706128456941,0.00909167917639,0.0113207182058,0.0137231457548,0.0162717413592,0.0189376284125,0.0216906013492,0.0244994678858,0.0273324024421,0.0301573067377,0.032942173478,0.0356554490102,0.0382663908382,0.0407454159479,0.0430644359942,0.0451971755534,0.047119469834,0.0488095384738,0.0502482323198,0.0514192503957,0.052309324599,0.0529083700331,0.053209599274,0.053209599274,0.0529083700331,0.052309324599,0.0514192503957,0.0502482323198,0.0488095384738,0.047119469834,0.0451971755534,0.0430644359942,0.0407454159479,0.0382663908382,0.0356554490102,0.032942173478,0.0301573067377,0.0273324024421,0.0244994678858,0.0216906013492,0.0189376284125,0.0162717413592,0.0137231457548,0.0113207182058,0.00909167917639,0.00706128456941,0.00525253956708,0.00368593797299,0.0023792300092,0.00134722119907,0.000601604614782,0.00015082839017};

static double x59[59] = {-0.998629534755,-0.994521895368,-0.987688340595,-0.978147600734,-0.965925826289,-0.951056516295,-0.933580426497,-0.913545457643,-0.891006524188,-0.866025403784,-0.838670567945,-0.809016994375,-0.777145961457,-0.743144825477,-0.707106781187,-0.669130606359,-0.62932039105,-0.587785252292,-0.544639035015,-0.5,-0.45399049974,-0.406736643076,-0.358367949545,-0.309016994375,-0.258819045103,-0.207911690818,-0.15643446504,-0.104528463268,-0.0523359562429,1.37611190397e-16,0.0523359562429,0.104528463268,0.15643446504,0.207911690818,0.258819045103,0.309016994375,0.358367949545,0.406736643076,0.45399049974,0.5,0.544639035015,0.587785252292,0.62932039105,0.669130606359,0.707106781187,0.743144825477,0.777145961457,0.809016994375,0.838670567945,0.866025403784,0.891006524188,0.913545457643,0.933580426497,0.951056516295,0.965925826289,0.978147600734,0.987688340595,0.994521895368,0.99862953475};
static double w59[59] = {0.000143416443889,0.000572094474983,0.00128133740707,0.00226337462616,0.00350744672699,0.00499992339527,0.00672445274431,0.00866214046967,0.0107917568592,0.01308996939,0.0155315983646,0.0180898927852,0.0207368234427,0.0234433900108,0.0261799387799,0.028916487549,0.0316230541172,0.0342699847746,0.0368282791952,0.0392699081699,0.0415681207007,0.0436977370902,0.0456354248155,0.0473599541646,0.0488524308328,0.0500965029337,0.0510785401528,0.0517877830848,0.0522164611159,0.0523598775598,0.0522164611159,0.0517877830848,0.0510785401528,0.0500965029337,0.0488524308328,0.0473599541646,0.0456354248155,0.0436977370902,0.0415681207007,0.0392699081699,0.0368282791952,0.0342699847746,0.0316230541172,0.028916487549,0.0261799387799,0.0234433900108,0.0207368234427,0.0180898927852,0.0155315983646,0.01308996939,0.0107917568592,0.00866214046967,0.00672445274431,0.00499992339527,0.00350744672699,0.00226337462616,0.00128133740707,0.000572094474984,0.00014341644388};

static double x60[60] = {-0.998674089885,-0.994699875615,-0.988087896091,-0.978855685095,-0.967027724791,-0.952635380803,-0.93571681904,-0.916316904487,-0.894487082229,-0.87028524103,-0.843775559823,-0.815028337517,-0.784119806577,-0.751131930871,-0.716152188314,-0.679273338897,-0.640593178698,-0.600214280548,-0.558243722027,-0.51479280151,-0.469976743027,-0.42391439071,-0.376727893635,-0.328542381911,-0.279485634852,-0.229687742132,-0.179280758811,-0.128398355147,-0.0771754621266,-0.025747913655,0.025747913655,0.0771754621266,0.128398355147,0.179280758811,0.229687742132,0.279485634852,0.328542381911,0.376727893635,0.42391439071,0.469976743027,0.51479280151,0.558243722027,0.600214280548,0.640593178698,0.679273338897,0.716152188314,0.751131930871,0.784119806577,0.815028337517,0.843775559823,0.87028524103,0.894487082229,0.916316904487,0.93571681904,0.952635380803,0.967027724791,0.978855685095,0.988087896091,0.994699875615,0.99867408988};
static double w60[60] = {0.000136482228134,0.000544482166964,0.00121967491564,0.00215490326306,0.00334025355608,0.00476316078672,0.00640854178435,0.00825895510107,0.0102947858954,0.0124944538545,0.0148346419507,0.0172905436081,0.0198361256581,0.0224444042978,0.0250877311246,0.0277380862168,0.0303673751508,0.03294772681,0.0354517888249,0.0378530175151,0.0401259592592,0.0422465203092,0.0441922221906,0.0459424399792,0.0474786209312,0.0487844811463,0.0498461781814,0.0506524577837,0.0511947731889,0.0514673757189,0.0514673757189,0.0511947731889,0.0506524577837,0.0498461781814,0.0487844811463,0.0474786209312,0.0459424399792,0.0441922221906,0.0422465203092,0.0401259592592,0.0378530175151,0.0354517888249,0.03294772681,0.0303673751508,0.0277380862168,0.0250877311246,0.0224444042978,0.0198361256581,0.0172905436081,0.0148346419507,0.0124944538545,0.0102947858954,0.00825895510107,0.00640854178435,0.00476316078672,0.00334025355608,0.00215490326306,0.00121967491564,0.000544482166964,0.00013648222813};

static double x61[61] = {-0.998716507171,-0.994869323392,-0.988468324328,-0.979529941252,-0.968077118866,-0.9541392564,-0.937752132147,-0.91895781162,-0.897804539571,-0.874346616145,-0.848644257495,-0.820763441207,-0.790775736938,-0.758758122693,-0.724792787229,-0.688966919076,-0.651372482722,-0.612105982548,-0.571268215095,-0.528964010327,-0.485301962531,-0.440394151558,-0.394355855113,-0.347305252845,-0.299363122973,-0.250652532259,-0.201298520089,-0.151427777505,-0.101168321987,-0.0506491688387,2.915871905e-16,0.0506491688387,0.101168321987,0.151427777505,0.201298520089,0.250652532259,0.299363122973,0.347305252845,0.394355855113,0.440394151558,0.485301962531,0.528964010327,0.571268215095,0.612105982548,0.651372482722,0.688966919076,0.724792787229,0.758758122693,0.790775736938,0.820763441207,0.848644257495,0.874346616145,0.897804539571,0.91895781162,0.937752132147,0.9541392564,0.968077118866,0.979529941252,0.988468324328,0.994869323392,0.99871650717};
static double w61[61] = {0.000129987870484,0.000518617630482,0.00116190141276,0.0020532382552,0.00318348183564,0.00454103432547,0.00611196539909,0.00788015517786,0.00982745964193,0.0119338968124,0.0141778517933,0.0165362985702,0.0189850362874,0.0214989375825,0.0240522064263,0.0266186428252,0.0291719116689,0.031685812964,0.0341345506813,0.0364929974581,0.0387369524391,0.0408433896095,0.0427906940736,0.0445588838524,0.046129814926,0.0474873674158,0.0486176109962,0.0495089478387,0.050152231621,0.050540861381,0.0506708492514,0.050540861381,0.050152231621,0.0495089478387,0.0486176109962,0.0474873674158,0.046129814926,0.0445588838524,0.0427906940736,0.0408433896095,0.0387369524391,0.0364929974581,0.0341345506813,0.031685812964,0.0291719116689,0.0266186428252,0.0240522064263,0.0214989375825,0.0189850362874,0.0165362985702,0.0141778517933,0.0119338968124,0.00982745964193,0.00788015517787,0.00611196539908,0.00454103432547,0.00318348183564,0.0020532382552,0.00116190141276,0.000518617630481,0.00012998787048};

static double x62[62] = {-0.998756921219,-0.995030775365,-0.988830826225,-0.980172487849,-0.969077286229,-0.955572805786,-0.939692620786,-0.92147621187,-0.900968867902,-0.87822157337,-0.853290881632,-0.826238774316,-0.797132507223,-0.766044443119,-0.73305187183,-0.698236818086,-0.661685837597,-0.623489801859,-0.583743672235,-0.542546263866,-0.5,-0.456210657353,-0.411287103131,-0.365341024366,-0.318486650252,-0.270840468143,-0.222520933956,-0.173648177667,-0.124343704647,-0.0747300935864,-0.0249306917381,0.0249306917381,0.0747300935864,0.124343704647,0.173648177667,0.222520933956,0.270840468143,0.318486650252,0.365341024366,0.411287103131,0.456210657353,0.5,0.542546263866,0.583743672235,0.623489801859,0.661685837597,0.698236818086,0.73305187183,0.766044443119,0.797132507223,0.826238774316,0.853290881632,0.87822157337,0.900968867902,0.92147621187,0.939692620786,0.955572805786,0.969077286229,0.980172487849,0.988830826225,0.995030775365,0.99875692121};
static double w62[62] = {0.000123899044493,0.000494364813603,0.00110771545208,0.00195785520571,0.0030363350037,0.00433243642927,0.00583327824416,0.00752394440813,0.00938763232129,0.0114058198158,0.0135584492378,0.0158241267888,0.0181803351474,0.0206036572565,0.0230700090522,0.0255548788222,0.0280335708145,0.0304814506744,0.0328741902721,0.0351880094865,0.0373999125427,0.0394879165545,0.0414312699997,0.043210658959,0.0448083990652,0.0462086112595,0.047397379604,0.0483628895848,0.0490955455299,0.0495880659754,0.0498355560319,0.0498355560319,0.0495880659754,0.0490955455299,0.0483628895848,0.047397379604,0.0462086112595,0.0448083990652,0.043210658959,0.0414312699997,0.0394879165545,0.0373999125427,0.0351880094865,0.0328741902721,0.0304814506744,0.0280335708145,0.0255548788222,0.0230700090522,0.0206036572565,0.0181803351474,0.0158241267888,0.0135584492378,0.0114058198158,0.00938763232129,0.00752394440813,0.00583327824416,0.00433243642927,0.0030363350037,0.00195785520571,0.00110771545208,0.000494364813603,0.00012389904449};

static double x63[63] = {-0.998795456205,-0.995184726672,-0.989176509965,-0.980785280403,-0.970031253195,-0.956940335732,-0.941544065183,-0.923879532511,-0.903989293123,-0.881921264348,-0.85772861,-0.831469612303,-0.803207531481,-0.773010453363,-0.740951125355,-0.707106781187,-0.671558954847,-0.634393284164,-0.595699304492,-0.55557023302,-0.514102744193,-0.471396736826,-0.42755509343,-0.382683432365,-0.336889853392,-0.290284677254,-0.242980179903,-0.195090322016,-0.146730474455,-0.0980171403296,-0.0490676743274,6.33778141401e-17,0.0490676743274,0.0980171403296,0.146730474455,0.195090322016,0.242980179903,0.290284677254,0.336889853392,0.382683432365,0.42755509343,0.471396736826,0.514102744193,0.55557023302,0.595699304492,0.634393284164,0.671558954847,0.707106781187,0.740951125355,0.773010453363,0.803207531481,0.831469612303,0.85772861,0.881921264348,0.903989293123,0.923879532511,0.941544065183,0.956940335732,0.970031253195,0.980785280403,0.989176509965,0.995184726672,0.99879545620};
static double w63[63] = {0.000118184588372,0.000471600171297,0.00105684316351,0.00186827735508,0.00289808819116,0.00413635803045,0.00557116165748,0.00718868112899,0.00897333884824,0.0109079475858,0.012973876002,0.0151512280767,0.0174190347194,0.0197554557122,0.0221379900438,0.0245436926062,0.0269493951686,0.0293319295002,0.031668350493,0.0339361571356,0.0361135092104,0.0381794376265,0.0401140463641,0.0418987040834,0.0435162235549,0.0449510271819,0.0461892970212,0.0472191078573,0.0480305420488,0.048615785041,0.048969200624,0.0490873852123,0.048969200624,0.048615785041,0.0480305420488,0.0472191078573,0.0461892970212,0.0449510271819,0.0435162235549,0.0418987040834,0.0401140463641,0.0381794376265,0.0361135092104,0.0339361571356,0.031668350493,0.0293319295002,0.0269493951686,0.0245436926062,0.0221379900438,0.0197554557122,0.0174190347194,0.0151512280767,0.012973876002,0.0109079475858,0.00897333884824,0.00718868112899,0.00557116165748,0.00413635803044,0.00289808819116,0.00186827735508,0.00105684316351,0.000471600171297,0.00011818458837};

static double x64[64] = {-0.998832226832,-0.995331634718,-0.989506399451,-0.981370126139,-0.970941817426,-0.958245829109,-0.943311813258,-0.926174648958,-0.906874360851,-0.885456025653,-0.86196966688,-0.83647013801,-0.809016994375,-0.779674354063,-0.748510748171,-0.715598960744,-0.681015858787,-0.644842212736,-0.607162507819,-0.568064746731,-0.527640244106,-0.485983413243,-0.443191545599,-0.399364583566,-0.354604887043,-0.309016994375,-0.262707378199,-0.215784196768,-0.168357041347,-0.120536680255,-0.0724348001618,-0.0241637452361,0.0241637452361,0.0724348001618,0.120536680255,0.168357041347,0.215784196768,0.262707378199,0.309016994375,0.354604887043,0.399364583566,0.443191545599,0.485983413243,0.527640244106,0.568064746731,0.607162507819,0.644842212736,0.681015858787,0.715598960744,0.748510748171,0.779674354063,0.809016994375,0.83647013801,0.86196966688,0.885456025653,0.906874360851,0.926174648958,0.943311813258,0.958245829109,0.970941817426,0.981370126139,0.989506399451,0.995331634718,0.99883222683};
static double w64[64] = {0.00011281616981,0.000450211345059,0.0010090353579,0.0017840706191,0.00276808083324,0.00395187856207,0.00532441100517,0.00687286319692,0.00858277765641,0.010438189373,0.0124217748675,0.0145150139366,0.016698362571,0.0189514354328,0.0212531961878,0.0235821539159,0.0259165637665,0.0282346299836,0.0305147094076,0.0327355135512,0.0348763073644,0.0369171028324,0.0388388455976,0.0406235928656,0.0422546809321,0.0437168807673,0.0449965402052,0.0460817114105,0.046962262432,0.0476299718021,0.0480786052983,0.0483039741506,0.0483039741506,0.0480786052983,0.0476299718021,0.046962262432,0.0460817114105,0.0449965402052,0.0437168807673,0.0422546809321,0.0406235928656,0.0388388455976,0.0369171028324,0.0348763073644,0.0327355135512,0.0305147094076,0.0282346299836,0.0259165637665,0.0235821539159,0.0212531961878,0.0189514354328,0.016698362571,0.0145150139366,0.0124217748675,0.010438189373,0.00858277765641,0.00687286319692,0.00532441100517,0.00395187856207,0.00276808083324,0.0017840706191,0.0010090353579,0.00045021134506,0.0001128161698};

static double x65[65] = {-0.998867339183,-0.995471922573,-0.989821441881,-0.981928697263,-0.971811568324,-0.959492973614,-0.945000818715,-0.928367933016,-0.909631995355,-0.888835448655,-0.866025403784,-0.841253532831,-0.81457595205,-0.786053094743,-0.755749574354,-0.723734038105,-0.690079011482,-0.654860733945,-0.618158986221,-0.580056909571,-0.540640817456,-0.5,-0.458226521727,-0.415415013002,-0.37166245566,-0.327067963317,-0.281732556841,-0.235758935509,-0.18925124436,-0.142314838273,-0.0950560433042,-0.0475819158237,-2.79270426599e-16,0.0475819158237,0.0950560433042,0.142314838273,0.18925124436,0.235758935509,0.281732556841,0.327067963317,0.37166245566,0.415415013002,0.458226521727,0.5,0.540640817456,0.580056909571,0.618158986221,0.654860733945,0.690079011482,0.723734038105,0.755749574354,0.786053094743,0.81457595205,0.841253532831,0.866025403784,0.888835448655,0.909631995355,0.928367933016,0.945000818715,0.959492973614,0.971811568324,0.981928697263,0.989821441881,0.995471922573,0.99886733918};
static double w65[65] = {0.000107767990752,0.000430095999396,0.000964064973571,0.00170483920756,0.00264571013519,0.00377815708364,0.00509192443799,0.00657511451762,0.00821429532351,0.00999462218043,0.0118999721727,0.0139130901557,0.0160157450213,0.0181888948013,0.020412859115,0.0226674973969,0.0249323912938,0.0271870295758,0.0294109938894,0.0315841436695,0.0336867985351,0.0356999165181,0.0376052665103,0.0393855933672,0.0410247741731,0.0425079642528,0.0438217316071,0.0449541785556,0.0458950494832,0.0466358237172,0.0471697926914,0.0474921207,0.0475998886908,0.0474921207,0.0471697926914,0.0466358237172,0.0458950494832,0.0449541785556,0.0438217316071,0.0425079642528,0.0410247741731,0.0393855933672,0.0376052665103,0.0356999165181,0.0336867985351,0.0315841436695,0.0294109938894,0.0271870295758,0.0249323912938,0.0226674973969,0.020412859115,0.0181888948013,0.0160157450213,0.0139130901557,0.0118999721727,0.00999462218043,0.00821429532351,0.00657511451762,0.00509192443799,0.00377815708364,0.00264571013519,0.00170483920756,0.000964064973572,0.000430095999396,0.00010776799075};

static double x66[66] = {-0.998900891486,-0.995605982022,-0.990122514535,-0.982462542876,-0.972642905325,-0.960685187577,-0.94661567529,-0.930465296307,-0.912269552665,-0.892068442557,-0.869906372409,-0.845832059259,-0.819898423673,-0.792162473411,-0.76268517811,-0.731531335264,-0.698769427779,-0.664471473439,-0.628712866591,-0.591572212414,-0.553131154125,-0.513474193515,-0.472688505189,-0.430863744941,-0.388091852672,-0.344466850284,-0.300084635,-0.255042768562,-0.209440262766,-0.163377361819,-0.116955321972,-0.0702761889453,-0.0234425736033,0.0234425736033,0.0702761889453,0.116955321972,0.163377361819,0.209440262766,0.255042768562,0.300084635,0.344466850284,0.388091852672,0.430863744941,0.472688505189,0.513474193515,0.553131154125,0.591572212414,0.628712866591,0.664471473439,0.698769427779,0.731531335264,0.76268517811,0.792162473411,0.819898423673,0.845832059259,0.869906372409,0.892068442557,0.912269552665,0.930465296307,0.94661567529,0.960685187577,0.972642905325,0.982462542876,0.990122514535,0.995605982022,0.99890089148};
static double w66[66] = {0.000103016526864,0.000411160794513,0.000921724820044,0.00163022174844,0.00253042528322,0.00361442440336,0.00487269288561,0.0062941730213,0.0078663727919,0.00957547564928,0.0114064619361,0.013343240879,0.015368791995,0.0174653146681,0.0196143845816,0.0217971156319,0.0239943259,0.0261867062231,0.028354989884,0.0304801219281,0.0325434266184,0.0345267715592,0.0364127270437,0.0381847192275,0.0398271757795,0.0413256627324,0.042667011329,0.0438394337497,0.044832626704,0.0456378619765,0.0462480631308,0.0466578676971,0.0468636742981,0.0468636742981,0.0466578676971,0.0462480631308,0.0456378619765,0.044832626704,0.0438394337497,0.042667011329,0.0413256627324,0.0398271757795,0.0381847192275,0.0364127270437,0.0345267715592,0.0325434266184,0.0304801219281,0.028354989884,0.0261867062231,0.0239943259,0.0217971156319,0.0196143845816,0.0174653146681,0.015368791995,0.013343240879,0.0114064619361,0.00957547564928,0.0078663727919,0.0062941730213,0.00487269288561,0.00361442440336,0.00253042528323,0.00163022174844,0.000921724820044,0.000411160794513,0.00010301652686};

static double x67[67] = {-0.998932974802,-0.995734176295,-0.990410430875,-0.982973099684,-0.973438054361,-0.961825643173,-0.948160647591,-0.932472229404,-0.914793868488,-0.895163291355,-0.873622390646,-0.85021713573,-0.824997474598,-0.79801722728,-0.769333970983,-0.739008917221,-0.707106781187,-0.673695643647,-0.638846805652,-0.602634636379,-0.565136414423,-0.526432162877,-0.486604478567,-0.445738355777,-0.403921004872,-0.361241666187,-0.317791419582,-0.273662990072,-0.22895054995,-0.183749517817,-0.138156354952,-0.0922683594633,-0.0461834586457,-2.06534662697e-16,0.0461834586457,0.0922683594633,0.138156354952,0.183749517817,0.22895054995,0.273662990072,0.317791419582,0.361241666187,0.403921004872,0.445738355777,0.486604478567,0.526432162877,0.565136414423,0.602634636379,0.638846805652,0.673695643647,0.707106781187,0.739008917221,0.769333970983,0.79801722728,0.824997474598,0.85021713573,0.873622390646,0.895163291355,0.914793868488,0.932472229404,0.948160647591,0.961825643173,0.973438054361,0.982973099684,0.990410430875,0.995734176295,0.99893297480};
static double w67[67] = {9.85402971546e-05,0.000393320477547,0.000881825580616,0.00155988785306,0.00242172230666,0.00345997607372,0.00466579113918,0.00602887991406,0.00753761300555,0.00917911843487,0.0109393914565,0.0128034140416,0.0147552830068,0.0167783456943,0.0188553420464,0.0209685518628,0.0230999459823,0.0252313401018,0.0273445499181,0.0294215462703,0.0314446089577,0.0333964779229,0.0352605005081,0.0370207735297,0.038662278959,0.0401710120505,0.0415341008254,0.0427399158908,0.0437781696579,0.0446400041115,0.0453180663839,0.045806571487,0.0461013516674,0.0461998919646,0.0461013516674,0.045806571487,0.0453180663839,0.0446400041115,0.0437781696579,0.0427399158908,0.0415341008254,0.0401710120505,0.038662278959,0.0370207735297,0.0352605005081,0.0333964779229,0.0314446089577,0.0294215462703,0.0273445499181,0.0252313401018,0.0230999459823,0.0209685518628,0.0188553420464,0.0167783456943,0.0147552830068,0.0128034140416,0.0109393914565,0.00917911843487,0.00753761300555,0.00602887991406,0.00466579113918,0.00345997607372,0.00242172230666,0.00155988785306,0.000881825580616,0.000393320477548,9.85402971549e-0};

static double x68[68] = {-0.998963673647,-0.995856842532,-0.990685946036,-0.983461701634,-0.974199082673,-0.962917287348,-0.9496396989,-0.934393837161,-0.917211301505,-0.898127705364,-0.877182602403,-0.854419404546,-0.829885291999,-0.803631115455,-0.775711290704,-0.746183685848,-0.715109501355,-0.682553143219,-0.648582089463,-0.613266750284,-0.576680322115,-0.538898635916,-0.5,-0.460065037731,-0.419176520417,-0.377419195753,-0.334879612171,-0.291645939455,-0.247807785993,-0.203456013053,-0.158682546456,-0.11358018605,-0.0682424133647,-0.0227631978561,0.0227631978561,0.0682424133647,0.11358018605,0.158682546456,0.203456013053,0.247807785993,0.291645939455,0.334879612171,0.377419195753,0.419176520417,0.460065037731,0.5,0.538898635916,0.576680322115,0.613266750284,0.648582089463,0.682553143219,0.715109501355,0.746183685848,0.775711290704,0.803631115455,0.829885291999,0.854419404546,0.877182602403,0.898127705364,0.917211301505,0.934393837161,0.9496396989,0.962917287348,0.974199082673,0.983461701634,0.990685946036,0.995856842532,0.99896367364};
static double w68[68] = {9.43196598955e-05,0.000376497077177,0.000844194040894,0.00149353506671,0.00231913951039,0.00331416615349,0.00447036989189,0.00577817005726,0.00722672980558,0.00880404591455,0.0104970482461,0.0122917080499,0.0141731542093,0.0161257964692,0.0181334546207,0.0201794925761,0.0222469562205,0.0243187138991,0.0263775983753,0.0284065490838,0.0303887535002,0.0323077864543,0.0341477462347,0.0358933863552,0.037530241892,0.0390447493446,0.0404243590273,0.0416576390598,0.0427343700953,0.0436456300014,0.0443838677914,0.0449429661946,0.0453182923454,0.0455067361733,0.0455067361733,0.0453182923455,0.0449429661946,0.0443838677914,0.0436456300014,0.0427343700953,0.0416576390598,0.0404243590273,0.0390447493446,0.037530241892,0.0358933863552,0.0341477462347,0.0323077864543,0.0303887535002,0.0284065490838,0.0263775983753,0.0243187138991,0.0222469562205,0.0201794925761,0.0181334546207,0.0161257964692,0.0141731542093,0.0122917080499,0.0104970482461,0.00880404591455,0.00722672980558,0.00577817005726,0.00447036989189,0.00331416615349,0.00231913951039,0.00149353506671,0.000844194040893,0.000376497077177,9.43196598958e-0};

static double x69[69] = {-0.998993066541,-0.995974293995,-0.990949761768,-0.983929588599,-0.974927912182,-0.963962860696,-0.951056516295,-0.93623487064,-0.919527772551,-0.900968867902,-0.880595531857,-0.858448793602,-0.834573253721,-0.809016994375,-0.781831482468,-0.753071466004,-0.722794863827,-0.691062648987,-0.65793872594,-0.623489801859,-0.587785252292,-0.550896981452,-0.512899277406,-0.473868662473,-0.433883739118,-0.393025031654,-0.351374824081,-0.309016994375,-0.266036845567,-0.222520933956,-0.178556894799,-0.134233265818,-0.0896393089034,-0.0448648303505,-2.30799998472e-16,0.0448648303505,0.0896393089034,0.134233265818,0.178556894799,0.222520933956,0.266036845567,0.309016994375,0.351374824081,0.393025031654,0.433883739118,0.473868662473,0.512899277406,0.550896981452,0.587785252292,0.623489801859,0.65793872594,0.691062648987,0.722794863827,0.753071466004,0.781831482468,0.809016994375,0.834573253721,0.858448793602,0.880595531857,0.900968867902,0.919527772551,0.93623487064,0.951056516295,0.963962860696,0.974927912182,0.983929588599,0.990949761768,0.995974293995,0.99899306654};
static double w69[69] = {9.03366315004e-05,0.000360619188562,0.000808671514959,0.00143088615681,0.00222225340768,0.00317640164377,0.00428564862451,0.00554106334546,0.00693253794545,0.00844886908916,0.0100778481698,0.0118063596057,0.0136204864391,0.0155056223873,0.0174465894443,0.0194277600845,0.0214331830868,0.0234467119645,0.0254521349668,0.027433305607,0.0293742726639,0.0312594086122,0.0330735354456,0.0348020468815,0.0364310259621,0.0379473571058,0.0393388317058,0.0405942464268,0.0417034934075,0.0426576416436,0.0434490088945,0.0440712235363,0.0445192758627,0.0447895584198,0.0448798950513,0.0447895584198,0.0445192758627,0.0440712235363,0.0434490088945,0.0426576416436,0.0417034934075,0.0405942464268,0.0393388317058,0.0379473571058,0.0364310259621,0.0348020468815,0.0330735354456,0.0312594086122,0.0293742726639,0.027433305607,0.0254521349668,0.0234467119645,0.0214331830868,0.0194277600845,0.0174465894443,0.0155056223873,0.0136204864391,0.0118063596057,0.0100778481698,0.00844886908916,0.00693253794544,0.00554106334546,0.00428564862452,0.00317640164377,0.00222225340767,0.00143088615681,0.000808671514959,0.000360619188562,9.03366315005e-0};

static double x70[70] = {-0.99902122652,-0.996086822075,-0.991202530899,-0.984377914223,-0.975626331553,-0.964964914523,-0.952414533358,-0.937999756019,-0.921748800109,-0.903693477637,-0.883869132746,-0.86231457252,-0.839071991024,-0.814186886704,-0.787707973318,-0.759687084583,-0.730179072706,-0.699241701004,-0.666935530837,-0.633323803048,-0.598472314174,-0.562449287641,-0.525325240214,-0.487172843961,-0.448066783988,-0.408083612243,-0.367301597665,-0.32580057296,-0.283661778334,-0.240967702457,-0.197801920986,-0.154248932965,-0.110393995415,-0.0663229564351,-0.0221220871532,0.0221220871532,0.0663229564351,0.110393995415,0.154248932965,0.197801920986,0.240967702457,0.283661778334,0.32580057296,0.367301597665,0.408083612243,0.448066783988,0.487172843961,0.525325240214,0.562449287641,0.598472314174,0.633323803048,0.666935530837,0.699241701004,0.730179072706,0.759687084583,0.787707973318,0.814186886704,0.839071991024,0.86231457252,0.883869132746,0.903693477637,0.921748800109,0.937999756019,0.952414533358,0.964964914523,0.975626331553,0.984377914223,0.991202530899,0.996086822075,0.9990212265};
static double w70[70] = {8.65747255038e-05,0.000345621337406,0.000775112444739,0.00137168669726,0.00213067509259,0.00304613751745,0.00411090923713,0.00531665696927,0.00665394410304,0.00811230455345,0.00968032467268,0.0113457325773,0.0130954941924,0.0149159152609,0.0167927485197,0.018711305204,0.0206565700063,0.0226133185921,0.0245662367506,0.0265000402495,0.0283995944543,0.0302500327779,0.0320368730316,0.0337461307675,0.0353644287266,0.036879101533,0.0382782948184,0.0395510579982,0.0406874299748,0.0416785170969,0.0425165627639,0.0431950081321,0.0437085434468,0.0440531495978,0.0442261295747,0.0442261295747,0.0440531495978,0.0437085434468,0.0431950081321,0.0425165627639,0.0416785170969,0.0406874299748,0.0395510579982,0.0382782948184,0.036879101533,0.0353644287266,0.0337461307676,0.0320368730316,0.0302500327779,0.0283995944543,0.0265000402495,0.0245662367506,0.0226133185921,0.0206565700063,0.018711305204,0.0167927485197,0.0149159152609,0.0130954941924,0.0113457325773,0.00968032467268,0.00811230455345,0.00665394410304,0.00531665696927,0.00411090923713,0.00304613751745,0.00213067509259,0.00137168669726,0.000775112444739,0.000345621337406,8.65747255038e-0};

static double x71[71] = {-0.999048221582,-0.996194698092,-0.991444861374,-0.984807753012,-0.97629600712,-0.965925826289,-0.953716950748,-0.939692620786,-0.923879532511,-0.906307787037,-0.887010833178,-0.866025403784,-0.843391445813,-0.819152044289,-0.793353340291,-0.766044443119,-0.73727733681,-0.707106781187,-0.675590207616,-0.642787609687,-0.608761429009,-0.573576436351,-0.537299608347,-0.5,-0.461748613235,-0.422618261741,-0.382683432365,-0.342020143326,-0.300705799504,-0.258819045103,-0.216439613938,-0.173648177667,-0.13052619222,-0.0871557427477,-0.0436193873653,1.89003900184e-16,0.0436193873653,0.0871557427477,0.13052619222,0.173648177667,0.216439613938,0.258819045103,0.300705799504,0.342020143326,0.382683432365,0.422618261741,0.461748613235,0.5,0.537299608347,0.573576436351,0.608761429009,0.642787609687,0.675590207616,0.707106781187,0.73727733681,0.766044443119,0.793353340291,0.819152044289,0.843391445813,0.866025403784,0.887010833178,0.906307787037,0.923879532511,0.939692620786,0.953716950748,0.965925826289,0.97629600712,0.984807753012,0.991444861374,0.996194698092,0.99904822158};
static double w71[71] = {8.30188091641e-05,0.000331443413391,0.00074338315144,0.00131570291317,0.00204404699961,0.00292287227249,0.00394549034082,0.00510411846364,0.00638993878132,0.00779316542486,0.0093031189922,0.010908307825,0.0125965154669,0.0143548936385,0.01617006002,0.0180282000995,0.0199151723087,0.0218166156499,0.0237180589911,0.0256050312004,0.0274631712798,0.0292783376614,0.031036715833,0.0327249234749,0.0343301123077,0.035840065875,0.0372432925185,0.0385291128362,0.039687740959,0.0407103590274,0.0415891843002,0.0423175283867,0.0428898481484,0.0433017878865,0.0435502124907,0.0436332312999,0.0435502124907,0.0433017878865,0.0428898481484,0.0423175283867,0.0415891843002,0.0407103590274,0.039687740959,0.0385291128362,0.0372432925185,0.035840065875,0.0343301123077,0.0327249234749,0.031036715833,0.0292783376614,0.0274631712798,0.0256050312004,0.0237180589911,0.0218166156499,0.0199151723087,0.0180282000995,0.01617006002,0.0143548936385,0.0125965154669,0.010908307825,0.0093031189922,0.00779316542486,0.00638993878132,0.00510411846364,0.00394549034082,0.00292287227249,0.00204404699961,0.00131570291317,0.00074338315144,0.000331443413391,8.30188091644e-0};

static double x72[72] = {-0.999074115102,-0.996298174935,-0.991677319899,-0.985220106756,-0.976938492777,-0.966847813605,-0.954966754855,-0.941317317513,-0.925924777194,-0.90881763734,-0.890027576435,-0.869589389347,-0.847540922893,-0.823923005758,-0.798779372886,-0.772156584499,-0.744103939871,-0.714673386043,-0.683919421625,-0.651898995879,-0.618671403263,-0.584298173628,-0.548842958285,-0.512371412128,-0.474951072067,-0.436651231956,-0.397542814283,-0.357698238833,-0.317191288589,-0.276096973097,-0.23449138957,-0.192451581971,-0.150055398345,-0.107381346664,-0.0645084494493,-0.0215160974362,0.0215160974362,0.0645084494493,0.107381346664,0.150055398345,0.192451581971,0.23449138957,0.276096973097,0.317191288589,0.357698238833,0.397542814283,0.436651231956,0.474951072067,0.512371412128,0.548842958285,0.584298173628,0.618671403263,0.651898995879,0.683919421625,0.714673386043,0.744103939871,0.772156584499,0.798779372886,0.823923005758,0.847540922893,0.869589389347,0.890027576435,0.90881763734,0.925924777194,0.941317317513,0.954966754855,0.966847813605,0.976938492777,0.985220106756,0.991677319899,0.996298174935,0.99907411510};
static double w72[72] = {7.965497555e-05,0.00031803016463,0.00071336072074,0.00126271975476,0.0019620400046,0.0028061439478,0.0037887821341,0.00490267945415,0.00613958900193,0.00749035313188,0.00894497125899,0.0104926738996,0.0121220024048,0.0138208937964,0.0155767700769,0.0173766313527,0.0192071520807,0.0210547797257,0.0229058350991,0.0247466136347,0.026563486852,0.0283430032576,0.0300719879344,0.031737640085,0.0333276278035,0.0348301793772,0.0362341704398,0.0375292063329,0.0387056990636,0.0397549382916,0.0406691558165,0.0414415830918,0.0420665013361,0.0425392838733,0.0428564303871,0.0430155928355,0.0430155928355,0.0428564303871,0.0425392838733,0.0420665013361,0.0414415830918,0.0406691558165,0.0397549382916,0.0387056990636,0.0375292063329,0.0362341704398,0.0348301793772,0.0333276278035,0.031737640085,0.0300719879344,0.0283430032576,0.026563486852,0.0247466136347,0.0229058350991,0.0210547797257,0.0192071520807,0.0173766313527,0.0155767700769,0.0138208937964,0.0121220024048,0.0104926738996,0.00894497125899,0.00749035313188,0.00613958900192,0.00490267945415,0.0037887821341,0.0028061439478,0.0019620400046,0.00126271975476,0.00071336072074,0.00031803016463,7.96549755498e-0};

static double x73[73] = {-0.999098966205,-0.996397488543,-0.991900435259,-0.985615910348,-0.977555238948,-0.967732946933,-0.956166734739,-0.942877445461,-0.927889027297,-0.911228490388,-0.89292585815,-0.873014113161,-0.851529137733,-0.828509649244,-0.803997130367,-0.778035754318,-0.750672305253,-0.721956093955,-0.691938868978,-0.66067472339,-0.628219997296,-0.594633176304,-0.559974786138,-0.524307283557,-0.487694943814,-0.450203744818,-0.411901248244,-0.37285647778,-0.333139794742,-0.292822771277,-0.251978061385,-0.210679269996,-0.169000820322,-0.127017819747,-0.0848059244755,-0.0424412031961,1.70962264874e-17,0.0424412031961,0.0848059244755,0.127017819747,0.169000820322,0.210679269996,0.251978061385,0.292822771277,0.333139794742,0.37285647778,0.411901248244,0.450203744818,0.487694943814,0.524307283557,0.559974786138,0.594633176304,0.628219997296,0.66067472339,0.691938868978,0.721956093955,0.750672305253,0.778035754318,0.803997130367,0.828509649244,0.851529137733,0.873014113161,0.89292585815,0.911228490388,0.927889027297,0.942877445461,0.956166734739,0.967732946933,0.977555238948,0.985615910348,0.991900435259,0.996397488543,0.99909896620};
static double w73[73] = {7.64704292521e-05,0.000305330745813,0.000684932005856,0.00121253917361,0.00188435082733,0.00269552654867,0.00364022179795,0.00471163002428,0.00590203170681,0.00720284997415,0.00860471240089,0.0100975185361,0.0116705126774,0.0133123613659,0.0150112350442,0.0167548932886,0.0185307730013,0.0203260789285,0.0221278758497,0.0239231817769,0.0256990614897,0.027442719734,0.0291415934123,0.0307834421009,0.0323564362421,0.0338492423774,0.0352511048041,0.0365519230714,0.037742324754,0.0388137329803,0.0397584282296,0.0405696039509,0.0412414156046,0.0417690227724,0.0421486240324,0.042377484349,0.0424539547782,0.042377484349,0.0421486240324,0.0417690227724,0.0412414156046,0.0405696039509,0.0397584282296,0.0388137329803,0.037742324754,0.0365519230714,0.0352511048041,0.0338492423774,0.0323564362421,0.0307834421009,0.0291415934123,0.027442719734,0.0256990614897,0.0239231817769,0.0221278758497,0.0203260789285,0.0185307730013,0.0167548932886,0.0150112350442,0.0133123613659,0.0116705126774,0.0100975185361,0.00860471240089,0.00720284997415,0.00590203170681,0.00471163002428,0.00364022179795,0.00269552654866,0.00188435082733,0.00121253917361,0.000684932005856,0.000305330745812,7.64704292521e-0};

static double x74[74] = {-0.999122830099,-0.99649285925,-0.992114701314,-0.985996037071,-0.978147600734,-0.968583161129,-0.957319497532,-0.944376370237,-0.929776485888,-0.913545457643,-0.895711760239,-0.876306680044,-0.855364260161,-0.83292124071,-0.809016994375,-0.783693457326,-0.756995055652,-0.728968627421,-0.699663340513,-0.669130606359,-0.637423989749,-0.604599114862,-0.570713567684,-0.535826794979,-0.5,-0.46329603512,-0.425779291565,-0.387515586452,-0.348572047322,-0.309016994375,-0.268919820615,-0.228350870111,-0.187381314586,-0.146083028562,-0.104528463268,-0.0627905195293,-0.0209424198834,0.0209424198834,0.0627905195293,0.104528463268,0.146083028562,0.187381314586,0.228350870111,0.268919820615,0.309016994375,0.348572047322,0.387515586452,0.425779291565,0.46329603512,0.5,0.535826794979,0.570713567684,0.604599114862,0.637423989749,0.669130606359,0.699663340513,0.728968627421,0.756995055652,0.783693457326,0.809016994375,0.83292124071,0.855364260161,0.876306680044,0.895711760239,0.913545457643,0.929776485888,0.944376370237,0.957319497532,0.968583161129,0.978147600734,0.985996037071,0.992114701314,0.99649285925,0.99912283009};
static double w74[74] = {7.34533841125e-05,0.000293298313736,0.000657992734649,0.00116497857752,0.00181069970093,0.00259062683515,0.00349928935171,0.00453031363592,0.00567646779323,0.00692971237574,0.00828125677314,0.00972162087258,0.0112407015548,0.0128278435603,0.0144719142282,0.0161613815841,0.0178843952283,0.0196288694581,0.0213825680403,0.0231331900392,0.0248684560994,0.0265761945763,0.0282444269114,0.0298614516535,0.0314159265359,0.0328969480342,0.0342941278467,0.0355976657609,0.0367984183949,0.0378879633316,0.0388586581964,0.0397036942619,0.0404171442076,0.0409940036945,0.0414302264679,0.0417227527384,0.0418695306444,0.0418695306444,0.0417227527384,0.0414302264679,0.0409940036945,0.0404171442076,0.0397036942619,0.0388586581964,0.0378879633317,0.0367984183949,0.0355976657609,0.0342941278467,0.0328969480342,0.0314159265359,0.0298614516535,0.0282444269114,0.0265761945763,0.0248684560994,0.0231331900392,0.0213825680403,0.0196288694581,0.0178843952283,0.0161613815841,0.0144719142282,0.0128278435603,0.0112407015548,0.00972162087258,0.00828125677314,0.00692971237574,0.00567646779324,0.00453031363592,0.00349928935171,0.00259062683515,0.00181069970093,0.00116497857752,0.000657992734649,0.000293298313736,7.34533841121e-0};

static double x75[75] = {-0.999145758387,-0.996584493007,-0.992320579737,-0.986361303403,-0.978716845327,-0.969400265939,-0.958427482458,-0.945817241701,-0.931591088051,-0.915773326655,-0.898390981892,-0.879473751206,-0.85905395437,-0.837166478263,-0.81384871727,-0.789140509396,-0.7630840682,-0.735723910673,-0.707106781187,-0.677281571626,-0.646299237861,-0.61421271269,-0.581076815402,-0.546948158122,-0.51188504909,-0.475947393037,-0.439196588847,-0.401695424653,-0.363507970564,-0.324699469205,-0.285336224249,-0.245485487141,-0.205215342196,-0.164594590281,-0.123692631269,-0.0825793454723,-0.0413249742488,-1.61979254412e-16,0.0413249742488,0.0825793454723,0.123692631269,0.164594590281,0.205215342196,0.245485487141,0.285336224249,0.324699469205,0.363507970564,0.401695424653,0.439196588847,0.475947393037,0.51188504909,0.546948158122,0.581076815402,0.61421271269,0.646299237861,0.677281571626,0.707106781187,0.735723910673,0.7630840682,0.789140509396,0.81384871727,0.837166478263,0.85905395437,0.879473751206,0.898390981892,0.915773326655,0.931591088051,0.945817241701,0.958427482458,0.969400265939,0.978716845327,0.986361303403,0.992320579737,0.996584493007,0.99914575838};
static double w75[75] = {7.05929715692e-05,0.000281889664701,0.000632446708729,0.00111986944358,0.00174082827774,0.00249108143273,0.00336550391874,0.00435812254355,0.00546215671545,0.00667006476157,0.00797359544515,0.00936384432985,0.0108313146061,0.0123659819639,0.0139573630692,0.0155945871752,0.0172664703812,0.0189615920297,0.020668372721,0.0223751534123,0.0240702750608,0.0257421582668,0.0273793823728,0.028970763478,0.0305054308359,0.0319729011121,0.0333631499968,0.0346666806804,0.0358745887265,0.0369786228984,0.0379712415232,0.0388456640092,0.0395959171642,0.0402168759984,0.0407042987332,0.0410548557773,0.0412661524704,0.041336745442,0.0412661524704,0.0410548557773,0.0407042987332,0.0402168759984,0.0395959171642,0.0388456640092,0.0379712415232,0.0369786228984,0.0358745887265,0.0346666806804,0.0333631499968,0.0319729011121,0.0305054308359,0.028970763478,0.0273793823728,0.0257421582668,0.0240702750608,0.0223751534123,0.020668372721,0.0189615920297,0.0172664703812,0.0155945871752,0.0139573630692,0.0123659819639,0.0108313146061,0.00936384432985,0.00797359544515,0.00667006476157,0.00546215671545,0.00435812254355,0.00336550391874,0.00249108143273,0.00174082827774,0.00111986944358,0.000632446708729,0.000281889664701,7.05929715694e-0};

static double x76[76] = {-0.999167799345,-0.996672582494,-0.992518502491,-0.986712473391,-0.979264158757,-0.970185955574,-0.959492973614,-0.947203010292,-0.933336521037,-0.917916585254,-0.900968867902,-0.882521576786,-0.862605415601,-0.841253532831,-0.818501466579,-0.794387085412,-0.768950525339,-0.742234123004,-0.714282345222,-0.685141714968,-0.654860733945,-0.623489801859,-0.591081132529,-0.557688666987,-0.523367983697,-0.488176206048,-0.452171907283,-0.415415013002,-0.377966701429,-0.339889301583,-0.301246189537,-0.262101682939,-0.222520933956,-0.182569820839,-0.142314838273,-0.101822986704,-0.0611616608218,-0.0203985373914,0.0203985373914,0.0611616608218,0.101822986704,0.142314838273,0.182569820839,0.222520933956,0.262101682939,0.301246189537,0.339889301583,0.377966701429,0.415415013002,0.452171907283,0.488176206048,0.523367983697,0.557688666987,0.591081132529,0.623489801859,0.654860733945,0.685141714968,0.714282345222,0.742234123004,0.768950525339,0.794387085412,0.818501466579,0.841253532831,0.862605415601,0.882521576786,0.900968867902,0.917916585254,0.933336521037,0.947203010292,0.959492973614,0.970185955574,0.979264158757,0.986712473391,0.992518502491,0.996672582494,0.99916779934};
static double w76[76] = {6.78791583875e-05,0.00027106490895,0.000608205084041,0.00107705607142,0.00167449774512,0.00239655422937,0.00323842035741,0.00419449364904,0.00525841159426,0.00642309399467,0.00768079008105,0.00902313009347,0.0104411809806,0.0119255058477,0.0134662267578,0.0150530904674,0.0166755366602,0.0183227682246,0.0199838231063,0.0216476472591,0.0233031682078,0.0249393687336,0.026545360192,0.0281104549747,0.0296242376342,0.0310766341967,0.0324579792027,0.0337590800291,0.0349712780645,0.036086506331,0.0370973431685,0.0379970616246,0.0387796742215,0.0394399728013,0.0399735631862,0.0403768944199,0.0406472823998,0.0407829277384,0.0407829277384,0.0406472823998,0.0403768944199,0.0399735631862,0.0394399728014,0.0387796742215,0.0379970616246,0.0370973431685,0.036086506331,0.0349712780645,0.0337590800291,0.0324579792027,0.0310766341967,0.0296242376342,0.0281104549747,0.026545360192,0.0249393687336,0.0233031682078,0.0216476472591,0.0199838231063,0.0183227682246,0.0166755366602,0.0150530904674,0.0134662267578,0.0119255058477,0.0104411809806,0.00902313009347,0.00768079008105,0.00642309399467,0.00525841159426,0.00419449364904,0.00323842035741,0.00239655422937,0.00167449774512,0.00107705607142,0.000608205084041,0.00027106490895,6.78791583875e-0};

static double x77[77] = {-0.999188998172,-0.996757308134,-0.992708874098,-0.987050262638,-0.979790652042,-0.970941817426,-0.960518111631,-0.948536441947,-0.935016242685,-0.919979443659,-0.90345043461,-0.885456025653,-0.866025403784,-0.845190085544,-0.822983865894,-0.799442763404,-0.774604961828,-0.748510748171,-0.721202447344,-0.69272435351,-0.663122658241,-0.632445375595,-0.600742264238,-0.568064746731,-0.534465826128,-0.5,-0.464723172044,-0.428692561403,-0.39196660986,-0.354604887043,-0.316667993801,-0.278217463916,-0.239315664288,-0.200025693776,-0.160411280858,-0.120536680255,-0.0804665687167,-0.0402659401094,-5.7036300434e-17,0.0402659401094,0.0804665687167,0.120536680255,0.160411280858,0.200025693776,0.239315664288,0.278217463916,0.316667993801,0.354604887043,0.39196660986,0.428692561403,0.464723172044,0.5,0.534465826128,0.568064746731,0.600742264238,0.632445375595,0.663122658241,0.69272435351,0.721202447344,0.748510748171,0.774604961828,0.799442763404,0.822983865894,0.845190085544,0.866025403784,0.885456025653,0.90345043461,0.919979443659,0.935016242685,0.948536441947,0.960518111631,0.970941817426,0.979790652042,0.987050262638,0.992708874098,0.996757308134,0.99918899817};
static double w77[77] = {6.53026727143e-05,0.000260787177966,0.000585185723725,0.00103639446094,0.00161148712781,0.0023067340277,0.00311762621768,0.00403890475074,0.00506459478207,0.00618804431821,0.00740196735784,0.0086984911442,0.010069207223,0.0115052259746,0.0129972342662,0.0145355558516,0.016110214125,0.0177109968232,0.0193275222561,0.0209493066361,0.022565832069,0.0241666147672,0.0257412730406,0.027279594626,0.0287716029176,0.0302076216691,0.031578337748,0.0328748615343,0.034088784574,0.0352122341101,0.0362379241414,0.0371592026745,0.0379700948645,0.0386653417644,0.0392404344312,0.0396916431685,0.0400160417142,0.0402115262195,0.0402768288922,0.0402115262195,0.0400160417142,0.0396916431685,0.0392404344312,0.0386653417644,0.0379700948645,0.0371592026745,0.0362379241414,0.0352122341101,0.034088784574,0.0328748615343,0.031578337748,0.0302076216691,0.0287716029176,0.027279594626,0.0257412730406,0.0241666147672,0.022565832069,0.0209493066361,0.0193275222561,0.0177109968232,0.016110214125,0.0145355558516,0.0129972342662,0.0115052259746,0.010069207223,0.0086984911442,0.00740196735784,0.00618804431821,0.00506459478207,0.00403890475074,0.00311762621768,0.0023067340277,0.00161148712781,0.00103639446094,0.000585185723724,0.000260787177966,6.53026727142e-0};

