
/*
 * =====================================================================================
 *
 *       Filename:  GaussWeights.h
 *
 *    Description:  This file was generated by GaussWeights.py
 *
 *        Version:  1.0
 *        Created:  12/13/2010 11:51:34 AM
 *       Revision:  none
 *       Compiler:  gcc
 *
 *         Author:  Paul P. Hilscher (2010) 
 *        Company:  
 *   
 * =====================================================================================
 */


#ifndef __GAUSSWEIGHTS_H_

/* Merge all together */
// using from GSL glfixed
struct GaussWeights 
{
    int     n;
    double *points;
    double *weights;
};

static double x1[1] = {0.};
static double w1[1] = {2.};

static double x2[2] = {-0.57735026919,0.5773502691};
static double w2[2] = {1.0,1.};

static double x3[3] = {-0.774596669241,-4.78946309695e-17,0.77459666924};
static double w3[3] = {0.555555555556,0.888888888889,0.55555555555};

static double x4[4] = {-0.861136311594,-0.339981043585,0.339981043585,0.86113631159};
static double w4[4] = {0.347854845137,0.652145154863,0.652145154863,0.34785484513};

static double x5[5] = {-0.906179845939,-0.538469310106,3.24607628916e-17,0.538469310106,0.90617984593};
static double w5[5] = {0.236926885056,0.478628670499,0.568888888889,0.478628670499,0.23692688505};

static double x6[6] = {-0.932469514203,-0.661209386466,-0.238619186083,0.238619186083,0.661209386466,0.93246951420};
static double w6[6] = {0.171324492379,0.360761573048,0.467913934573,0.467913934573,0.360761573048,0.17132449237};

static double x7[7] = {-0.949107912343,-0.741531185599,-0.405845151377,6.97980421714e-18,0.405845151377,0.741531185599,0.94910791234};
static double w7[7] = {0.129484966169,0.279705391489,0.381830050505,0.417959183673,0.381830050505,0.279705391489,0.12948496616};

static double x8[8] = {-0.960289856498,-0.796666477414,-0.525532409916,-0.183434642496,0.183434642496,0.525532409916,0.796666477414,0.96028985649};
static double w8[8] = {0.10122853629,0.222381034453,0.313706645878,0.362683783378,0.362683783378,0.313706645878,0.222381034453,0.1012285362};

static double x9[9] = {-0.968160239508,-0.836031107327,-0.613371432701,-0.324253423404,-9.19095577995e-17,0.324253423404,0.613371432701,0.836031107327,0.96816023950};
static double w9[9] = {0.0812743883616,0.180648160695,0.260610696403,0.31234707704,0.330239355001,0.31234707704,0.260610696403,0.180648160695,0.081274388361};

static double x10[10] = {-0.973906528517,-0.865063366689,-0.679409568299,-0.433395394129,-0.148874338982,0.148874338982,0.433395394129,0.679409568299,0.865063366689,0.97390652851};
static double w10[10] = {0.0666713443087,0.149451349151,0.219086362516,0.26926671931,0.295524224715,0.295524224715,0.26926671931,0.219086362516,0.149451349151,0.066671344308};

static double x11[11] = {-0.978228658146,-0.887062599768,-0.730152005574,-0.519096129207,-0.269543155952,-3.83561534465e-17,0.269543155952,0.519096129207,0.730152005574,0.887062599768,0.97822865814};
static double w11[11] = {0.0556685671162,0.125580369465,0.186290210928,0.233193764592,0.26280454451,0.272925086778,0.26280454451,0.233193764592,0.186290210928,0.125580369465,0.055668567116};

static double x12[12] = {-0.981560634247,-0.90411725637,-0.769902674194,-0.587317954287,-0.367831498998,-0.125233408511,0.125233408511,0.367831498998,0.587317954287,0.769902674194,0.90411725637,0.98156063424};
static double w12[12] = {0.0471753363865,0.106939325995,0.160078328543,0.203167426723,0.233492536538,0.249147045813,0.249147045813,0.233492536538,0.203167426723,0.160078328543,0.106939325995,0.047175336386};

static double x13[13] = {-0.984183054719,-0.917598399223,-0.801578090733,-0.64234933944,-0.448492751036,-0.230458315955,-1.51761034776e-16,0.230458315955,0.448492751036,0.64234933944,0.801578090733,0.917598399223,0.98418305471};
static double w13[13] = {0.0404840047653,0.0921214998377,0.13887351022,0.178145980762,0.207816047537,0.226283180263,0.232551553231,0.226283180263,0.207816047537,0.178145980762,0.13887351022,0.0921214998377,0.040484004765};

static double x14[14] = {-0.986283808697,-0.928434883664,-0.82720131507,-0.687292904812,-0.515248636358,-0.319112368928,-0.108054948707,0.108054948707,0.319112368928,0.515248636358,0.687292904812,0.82720131507,0.928434883664,0.98628380869};
static double w14[14] = {0.0351194603318,0.0801580871598,0.121518570688,0.157203167158,0.185538397478,0.205198463721,0.215263853463,0.215263853463,0.205198463721,0.185538397478,0.157203167158,0.121518570688,0.0801580871598,0.035119460331};

static double x15[15] = {-0.98799251802,-0.937273392401,-0.84820658341,-0.72441773136,-0.570972172609,-0.394151347078,-0.201194093997,1.04087434035e-16,0.201194093997,0.394151347078,0.570972172609,0.72441773136,0.84820658341,0.937273392401,0.9879925180};
static double w15[15] = {0.0307532419961,0.0703660474881,0.107159220467,0.139570677926,0.166269205817,0.186161000016,0.198431485327,0.202578241926,0.198431485327,0.186161000016,0.166269205817,0.139570677926,0.107159220467,0.0703660474881,0.030753241996};

static double x16[16] = {-0.989400934992,-0.944575023073,-0.865631202388,-0.755404408355,-0.617876244403,-0.458016777657,-0.281603550779,-0.0950125098376,0.0950125098376,0.281603550779,0.458016777657,0.617876244403,0.755404408355,0.865631202388,0.944575023073,0.98940093499};
static double w16[16] = {0.0271524594118,0.0622535239386,0.0951585116825,0.124628971256,0.149595988817,0.169156519395,0.182603415045,0.189450610455,0.189450610455,0.182603415045,0.169156519395,0.149595988817,0.124628971256,0.0951585116825,0.0622535239386,0.027152459411};

static double x17[17] = {-0.990575475314,-0.950675521769,-0.880239153727,-0.781514003897,-0.657671159217,-0.512690537086,-0.351231763454,-0.178484181496,-9.38877660585e-17,0.178484181496,0.351231763454,0.512690537086,0.657671159217,0.781514003897,0.880239153727,0.950675521769,0.99057547531};
static double w17[17] = {0.0241483028686,0.055459529374,0.0850361483172,0.111883847193,0.135136368469,0.154045761077,0.168004102156,0.176562705367,0.179446470356,0.176562705367,0.168004102156,0.154045761077,0.135136368469,0.111883847193,0.0850361483172,0.055459529374,0.024148302868};

static double x18[18] = {-0.991565168421,-0.955823949571,-0.892602466498,-0.803704958973,-0.69168704306,-0.559770831074,-0.411751161463,-0.251886225692,-0.0847750130417,0.0847750130417,0.251886225692,0.411751161463,0.559770831074,0.69168704306,0.803704958973,0.892602466498,0.955823949571,0.99156516842};
static double w18[18] = {0.0216160135265,0.049714548895,0.0764257302549,0.100942044106,0.122555206711,0.140642914671,0.154684675126,0.164276483746,0.169142382963,0.169142382963,0.164276483746,0.154684675126,0.140642914671,0.122555206711,0.100942044106,0.0764257302549,0.049714548895,0.021616013526};

static double x19[19] = {-0.992406843844,-0.960208152135,-0.903155903615,-0.822714656537,-0.720966177335,-0.600545304662,-0.464570741376,-0.316564099964,-0.16035864564,-5.97831864022e-18,0.16035864564,0.316564099964,0.464570741376,0.600545304662,0.720966177335,0.822714656537,0.903155903615,0.960208152135,0.99240684384};
static double w19[19] = {0.0194617882297,0.0448142267657,0.0690445427376,0.0914900216225,0.111566645547,0.128753962539,0.142606702174,0.152766042066,0.158968843394,0.161054449849,0.158968843394,0.152766042066,0.142606702174,0.128753962539,0.111566645547,0.0914900216225,0.0690445427376,0.0448142267657,0.019461788229};

static double x20[20] = {-0.993128599185,-0.963971927278,-0.912234428251,-0.839116971822,-0.74633190646,-0.636053680727,-0.510867001951,-0.373706088715,-0.227785851142,-0.0765265211335,0.0765265211335,0.227785851142,0.373706088715,0.510867001951,0.636053680727,0.74633190646,0.839116971822,0.912234428251,0.963971927278,0.99312859918};
static double w20[20] = {0.0176140071392,0.0406014298004,0.0626720483341,0.0832767415767,0.101930119817,0.118194531962,0.131688638449,0.142096109318,0.149172986473,0.152753387131,0.152753387131,0.149172986473,0.142096109318,0.131688638449,0.118194531962,0.101930119817,0.0832767415767,0.0626720483341,0.0406014298004,0.017614007139};

static double x21[21] = {-0.99375217062,-0.967226838566,-0.92009933415,-0.853363364583,-0.768439963476,-0.667138804197,-0.551618835887,-0.424342120207,-0.288021316802,-0.145561854161,-1.37702406348e-16,0.145561854161,0.288021316802,0.424342120207,0.551618835887,0.667138804197,0.768439963476,0.853363364583,0.92009933415,0.967226838566,0.9937521706};
static double w21[21] = {0.0160172282578,0.0369537897709,0.0571344254269,0.0761001136284,0.093444423456,0.108797299167,0.121831416054,0.132268938633,0.139887394791,0.14452440399,0.14608113365,0.14452440399,0.139887394791,0.132268938633,0.121831416054,0.108797299167,0.093444423456,0.0761001136284,0.0571344254269,0.0369537897709,0.016017228257};

static double x22[22] = {-0.994294585482,-0.970060497835,-0.926956772187,-0.86581257772,-0.787816805979,-0.694487263187,-0.587640403507,-0.469355837987,-0.341935820892,-0.207860426688,-0.0697392733197,0.0697392733197,0.207860426688,0.341935820892,0.469355837987,0.587640403507,0.694487263187,0.787816805979,0.86581257772,0.926956772187,0.970060497835,0.99429458548};
static double w22[22] = {0.0146279952983,0.0337749015848,0.0522933351527,0.0697964684245,0.0859416062171,0.100414144443,0.112932296081,0.123252376811,0.131173504787,0.136541498346,0.139251872856,0.139251872856,0.136541498346,0.131173504787,0.123252376811,0.112932296081,0.100414144443,0.0859416062171,0.0697964684245,0.0522933351527,0.0337749015848,0.014627995298};

static double x23[23] = {-0.994769334998,-0.972542471218,-0.932971086826,-0.87675235827,-0.804888401619,-0.718661363132,-0.619609875764,-0.509501477846,-0.39030103803,-0.26413568097,-0.133256824298,-2.77612132331e-16,0.133256824298,0.26413568097,0.39030103803,0.509501477846,0.619609875764,0.718661363132,0.804888401619,0.87675235827,0.932971086826,0.972542471218,0.99476933499};
static double w23[23] = {0.0134118594871,0.030988005857,0.0480376717311,0.0642324214085,0.0792814117767,0.09291576606,0.104892091465,0.114996640222,0.123049084307,0.128905722188,0.132462039405,0.133654572186,0.132462039405,0.128905722188,0.123049084307,0.114996640222,0.104892091465,0.09291576606,0.0792814117767,0.0642324214085,0.0480376717311,0.030988005857,0.013411859487};

static double x24[24] = {-0.995187219997,-0.974728555971,-0.938274552003,-0.886415527004,-0.820001985974,-0.740124191579,-0.648093651937,-0.545421471389,-0.433793507626,-0.315042679696,-0.191118867474,-0.0640568928626,0.0640568928626,0.191118867474,0.315042679696,0.433793507626,0.545421471389,0.648093651937,0.740124191579,0.820001985974,0.886415527004,0.938274552003,0.974728555971,0.99518721999};
static double w24[24] = {0.0123412298,0.0285313886289,0.0442774388174,0.0592985849154,0.0733464814111,0.086190161532,0.0976186521041,0.107444270116,0.115505668054,0.121670472928,0.125837456347,0.127938195347,0.127938195347,0.125837456347,0.121670472928,0.115505668054,0.107444270116,0.0976186521041,0.086190161532,0.0733464814111,0.0592985849154,0.0442774388174,0.0285313886289,0.012341229};

static double x25[25] = {-0.99555696979,-0.97666392146,-0.942974571229,-0.894991997878,-0.833442628761,-0.759259263037,-0.673566368473,-0.577662930241,-0.473002731446,-0.361172305809,-0.243866883721,-0.122864692611,3.83474770484e-17,0.122864692611,0.243866883721,0.361172305809,0.473002731446,0.577662930241,0.673566368473,0.759259263037,0.833442628761,0.894991997878,0.942974571229,0.97666392146,0.9955569697};
static double w25[25] = {0.011393798501,0.026354986615,0.0409391567013,0.0549046959758,0.0680383338124,0.080140700335,0.091028261983,0.100535949067,0.108519624474,0.114858259146,0.119455763536,0.12224244299,0.123176053727,0.12224244299,0.119455763536,0.114858259146,0.108519624474,0.100535949067,0.091028261983,0.080140700335,0.0680383338124,0.0549046959758,0.0409391567013,0.026354986615,0.01139379850};

static double x26[26] = {-0.995885701146,-0.978385445956,-0.947159066662,-0.902637861984,-0.845445942788,-0.776385948821,-0.69642726042,-0.606692293018,-0.508440714825,-0.403051755123,-0.292004839486,-0.176858820357,-0.0592300934293,0.0592300934293,0.176858820357,0.292004839486,0.403051755123,0.508440714825,0.606692293018,0.69642726042,0.776385948821,0.845445942788,0.902637861984,0.947159066662,0.978385445956,0.99588570114};
static double w26[26] = {0.0105513726173,0.0244178510926,0.0379623832944,0.0509758252971,0.0632740463296,0.0746841497657,0.0850458943135,0.0942138003559,0.102059161094,0.108471840529,0.113361816546,0.116660443485,0.118321415279,0.118321415279,0.116660443485,0.113361816546,0.108471840529,0.102059161094,0.0942138003559,0.0850458943135,0.0746841497657,0.0632740463296,0.0509758252971,0.0379623832944,0.0244178510926,0.010551372617};

static double x27[27] = {-0.996179262889,-0.979923475962,-0.950900557815,-0.909482320677,-0.856207908018,-0.791771639071,-0.717013473739,-0.632907971946,-0.540551564579,-0.44114825175,-0.335993903639,-0.22645936544,-0.11397258561,-7.07825899074e-17,0.11397258561,0.22645936544,0.335993903639,0.44114825175,0.540551564579,0.632907971946,0.717013473739,0.791771639071,0.856207908018,0.909482320677,0.950900557815,0.979923475961,0.99617926288};
static double w27[27] = {0.00979899605129,0.0226862315962,0.0352970537574,0.0474494125206,0.0589835368598,0.0697488237662,0.0796048677731,0.0884231585438,0.09608872737,0.102501637818,0.107578285789,0.111252488357,0.113476346109,0.114220867379,0.113476346109,0.111252488357,0.107578285789,0.102501637818,0.09608872737,0.0884231585438,0.0796048677731,0.0697488237662,0.0589835368598,0.0474494125206,0.0352970537574,0.0226862315962,0.0097989960512};

static double x28[28] = {-0.996442497574,-0.981303165371,-0.954259280629,-0.915633026392,-0.865892522574,-0.805641370917,-0.735610878014,-0.656651094039,-0.569720471811,-0.475874224955,-0.376251516089,-0.272061627635,-0.164569282133,-0.055079289884,0.055079289884,0.164569282133,0.272061627635,0.376251516089,0.475874224955,0.569720471811,0.656651094039,0.735610878014,0.805641370917,0.865892522574,0.915633026392,0.954259280629,0.981303165371,0.99644249757};
static double w28[28] = {0.00912428259309,0.0211321125928,0.0329014277823,0.044272934759,0.0551073456757,0.065272923967,0.0746462142346,0.0831134172289,0.090571744393,0.0969306579979,0.102112967578,0.106055765923,0.108711192258,0.110047013016,0.110047013016,0.108711192258,0.106055765923,0.102112967578,0.0969306579979,0.090571744393,0.0831134172289,0.0746462142346,0.065272923967,0.0551073456757,0.044272934759,0.0329014277823,0.0211321125928,0.0091242825930};

static double x29[29] = {-0.996679442261,-0.982545505261,-0.957285595778,-0.921180232953,-0.87463780492,-0.818185487615,-0.752462851734,-0.678214537603,-0.596281797138,-0.507592955124,-0.413152888174,-0.314031637868,-0.211352286166,-0.106278230133,9.99755354162e-17,0.106278230133,0.211352286166,0.314031637868,0.413152888174,0.507592955124,0.596281797138,0.678214537603,0.752462851734,0.818185487615,0.87463780492,0.921180232953,0.957285595778,0.982545505261,0.99667944226};
static double w29[29] = {0.00851690387875,0.0197320850561,0.0307404922021,0.0414020625187,0.0515948269025,0.0612030906571,0.0701179332551,0.0782383271358,0.0854722573662,0.0917377571393,0.0969638340944,0.10109127376,0.104073310078,0.105876155097,0.106479381718,0.105876155097,0.104073310078,0.10109127376,0.0969638340944,0.0917377571393,0.0854722573662,0.0782383271358,0.0701179332551,0.0612030906571,0.0515948269025,0.0414020625187,0.0307404922021,0.0197320850561,0.0085169038787};

static double x30[30] = {-0.996893484075,-0.98366812328,-0.960021864968,-0.926200047429,-0.882560535792,-0.829565762383,-0.767777432105,-0.697850494793,-0.620526182989,-0.536624148142,-0.447033769538,-0.352704725531,-0.254636926168,-0.153869913609,-0.0514718425553,0.0514718425553,0.153869913609,0.254636926168,0.352704725531,0.447033769538,0.536624148142,0.620526182989,0.697850494793,0.767777432105,0.829565762383,0.882560535792,0.926200047429,0.960021864968,0.98366812328,0.99689348407};
static double w30[30] = {0.00796819249617,0.0184664683111,0.0287847078833,0.0387991925696,0.0484026728306,0.0574931562176,0.0659742298822,0.0737559747377,0.0807558952294,0.0868997872011,0.0921225222378,0.0963687371746,0.0995934205868,0.101762389748,0.102852652894,0.102852652894,0.101762389748,0.0995934205868,0.0963687371746,0.0921225222378,0.0868997872011,0.0807558952294,0.0737559747377,0.0659742298822,0.0574931562176,0.0484026728306,0.0387991925696,0.0287847078833,0.0184664683111,0.0079681924961};

static double x31[31] = {-0.997087481819,-0.984685909665,-0.962503925093,-0.930756997897,-0.889760029948,-0.839920320146,-0.781733148417,-0.715776784587,-0.642706722924,-0.563249161407,-0.478193782045,-0.388385901608,-0.294718069982,-0.198121199336,-0.0995553121523,-5.12942798032e-17,0.0995553121523,0.198121199336,0.294718069982,0.388385901608,0.478193782045,0.563249161407,0.642706722924,0.715776784587,0.781733148417,0.839920320146,0.889760029948,0.930756997897,0.962503925093,0.984685909665,0.99708748181};
static double w31[31] = {0.00747083157925,0.0173186207903,0.027009019185,0.0364322739124,0.0454937075272,0.0541030824249,0.062174786561,0.0696285832354,0.0763903865988,0.0823929917616,0.0875767406085,0.0918901138936,0.0952902429123,0.0977433353863,0.0992250112267,0.0997205447934,0.0992250112267,0.0977433353863,0.0952902429123,0.0918901138936,0.0875767406085,0.0823929917616,0.0763903865988,0.0696285832354,0.062174786561,0.0541030824249,0.0454937075272,0.0364322739124,0.027009019185,0.0173186207903,0.0074708315792};

static double x32[32] = {-0.997263861849,-0.985611511545,-0.964762255588,-0.934906075938,-0.896321155766,-0.849367613733,-0.794483795968,-0.73218211874,-0.66304426693,-0.587715757241,-0.506899908932,-0.421351276131,-0.331868602282,-0.239287362252,-0.144471961583,-0.0483076656877,0.0483076656877,0.144471961583,0.239287362252,0.331868602282,0.421351276131,0.506899908932,0.587715757241,0.66304426693,0.73218211874,0.794483795968,0.849367613733,0.896321155766,0.934906075938,0.964762255588,0.985611511545,0.99726386184};
static double w32[32] = {0.00701861000947,0.0162743947309,0.0253920653093,0.034273862913,0.0428358980222,0.0509980592624,0.0586840934785,0.0658222227764,0.0723457941088,0.0781938957871,0.0833119242269,0.0876520930044,0.0911738786958,0.0938443990808,0.0956387200793,0.0965400885147,0.0965400885147,0.0956387200793,0.0938443990808,0.0911738786958,0.0876520930044,0.0833119242269,0.0781938957871,0.0723457941088,0.0658222227764,0.0586840934785,0.0509980592624,0.0428358980222,0.034273862913,0.0253920653093,0.0162743947309,0.0070186100094};

static double x33[33] = {-0.997424694246,-0.986455726231,-0.96682290969,-0.938694372611,-0.902316767743,-0.858009652677,-0.806162356274,-0.74723049645,-0.68173195997,-0.610242345836,-0.533389904786,-0.451850017272,-0.366339257748,-0.277609097152,-0.186439298828,-0.0936310658547,7.77728663084e-18,0.0936310658547,0.186439298828,0.277609097152,0.366339257748,0.451850017272,0.533389904786,0.610242345836,0.68173195997,0.74723049645,0.806162356274,0.858009652677,0.902316767743,0.938694372611,0.96682290969,0.986455726231,0.99742469424};
static double w33[33] = {0.00660622784759,0.0153217015129,0.0239155481017,0.0323003586323,0.0404015413317,0.0481477428187,0.0554708466317,0.0623064825303,0.0685945728187,0.074279854844,0.0793123647949,0.083647876067,0.0872482876188,0.0900819586606,0.0921239866433,0.0933564260656,0.0937684461602,0.0933564260656,0.0921239866433,0.0900819586606,0.0872482876188,0.083647876067,0.0793123647949,0.074279854844,0.0685945728187,0.0623064825303,0.0554708466317,0.0481477428187,0.0404015413317,0.0323003586323,0.0239155481017,0.0153217015129,0.0066062278475};

static double x34[34] = {-0.997571753791,-0.987227816406,-0.968708262533,-0.942162397405,-0.907809677718,-0.865934638335,-0.816884227901,-0.76106487663,-0.698939113216,-0.631021727081,-0.55787550067,-0.48010654519,-0.398359277759,-0.313311081339,-0.225666691616,-0.136152357259,-0.0455098219531,0.0455098219531,0.136152357259,0.225666691616,0.313311081339,0.398359277759,0.48010654519,0.55787550067,0.631021727081,0.698939113216,0.76106487663,0.816884227901,0.865934638335,0.907809677718,0.942162397405,0.968708262533,0.987227816406,0.99757175379};
static double w34[34] = {0.00622914055591,0.0144501627486,0.0225637219855,0.0304913806384,0.0381665937964,0.0455256115234,0.0525074145727,0.0590541358275,0.0651115215541,0.0706293758143,0.07556197466,0.0798684443398,0.0835130996998,0.086465739747,0.0887018978357,0.0902030443706,0.0909567403303,0.0909567403303,0.0902030443706,0.0887018978357,0.086465739747,0.0835130996998,0.0798684443398,0.07556197466,0.0706293758143,0.0651115215541,0.0590541358275,0.0525074145727,0.0455256115234,0.0381665937964,0.0304913806384,0.0225637219855,0.0144501627486,0.0062291405559};

static double x35[35] = {-0.9977065691,-0.987935764444,-0.970437616039,-0.945345148208,-0.912854261359,-0.873219125025,-0.826749899092,-0.773810252287,-0.714814501557,-0.650224364666,-0.58054534475,-0.506322773241,-0.428137541518,-0.346601554431,-0.262352941209,-0.176051061166,-0.0883713432757,5.10269876698e-17,0.0883713432757,0.176051061166,0.262352941209,0.346601554431,0.428137541518,0.506322773241,0.58054534475,0.650224364666,0.714814501557,0.773810252287,0.826749899092,0.873219125025,0.912854261359,0.945345148208,0.970437616039,0.987935764444,0.997706569};
static double w35[35] = {0.00588343342044,0.0136508283484,0.0213229799115,0.0288292601089,0.0361101158635,0.0431084223262,0.0497693704014,0.0560408162124,0.0618736719661,0.0672222852691,0.0720447947726,0.0763034571554,0.0799649422423,0.0830005937289,0.0853866533921,0.0871044469972,0.0881405304303,0.0884867949071,0.0881405304303,0.0871044469972,0.0853866533921,0.0830005937289,0.0799649422423,0.0763034571554,0.0720447947726,0.0672222852691,0.0618736719661,0.0560408162124,0.0497693704014,0.0431084223262,0.0361101158635,0.0288292601089,0.0213229799115,0.0136508283484,0.0058834334204};

static double x36[36] = {-0.997830462484,-0.988586478902,-0.97202769105,-0.9482729844,-0.917497774516,-0.87992980089,-0.835847166992,-0.785576230132,-0.729489171594,-0.668001236586,-0.601567658136,-0.530680285926,-0.455863944433,-0.37767254712,-0.296684995344,-0.213500892317,-0.128736103809,-0.0430181984737,0.0430181984737,0.128736103809,0.213500892317,0.296684995344,0.37767254712,0.455863944433,0.530680285926,0.601567658136,0.668001236586,0.729489171594,0.785576230132,0.835847166992,0.87992980089,0.917497774516,0.9482729844,0.97202769105,0.988586478902,0.99783046248};
static double w36[36] = {0.00556571966425,0.0129159472841,0.0201815152977,0.0272986214986,0.0342138107703,0.0408757509236,0.0472350834903,0.0532447139778,0.0588601442453,0.064039797355,0.0687453238357,0.0729418850057,0.0765984106459,0.0796878289121,0.0821872667043,0.0840782189797,0.0853466857393,0.0859832756704,0.0859832756704,0.0853466857393,0.0840782189797,0.0821872667043,0.0796878289121,0.0765984106459,0.0729418850057,0.0687453238357,0.064039797355,0.0588601442453,0.0532447139778,0.0472350834903,0.0408757509236,0.0342138107703,0.0272986214986,0.0201815152977,0.0129159472841,0.0055657196642};

static double x37[37] = {-0.997944582478,-0.989185963214,-0.973493030056,-0.950972343262,-0.921781437412,-0.886124962155,-0.844252987341,-0.79645920051,-0.743078833982,-0.684486309131,-0.621092608409,-0.553342391862,-0.481710877803,-0.406700509318,-0.328837429884,-0.248667792791,-0.16675393024,-0.0836704089548,9.46264661214e-17,0.0836704089548,0.16675393024,0.248667792791,0.328837429884,0.406700509318,0.481710877803,0.553342391862,0.621092608409,0.684486309131,0.743078833982,0.79645920051,0.844252987341,0.886124962155,0.921781437412,0.950972343262,0.973493030056,0.989185963214,0.99794458247};
static double w37[37] = {0.0052730572795,0.0122387801003,0.0191290444891,0.0258860369906,0.0324616398475,0.0388096025019,0.0448853646624,0.0506462976548,0.0560519879983,0.0610645165232,0.0656487228728,0.0697724515557,0.0734067772485,0.0765262075705,0.0791088618375,0.0811366245085,0.0825952722364,0.0834745736259,0.0837683609931,0.0834745736259,0.0825952722364,0.0811366245085,0.0791088618375,0.0765262075705,0.0734067772485,0.0697724515557,0.0656487228728,0.0610645165232,0.0560519879983,0.0506462976548,0.0448853646624,0.0388096025019,0.0324616398475,0.0258860369906,0.0191290444891,0.0122387801003,0.005273057279};

static double x38[38] = {-0.998049930536,-0.989739454266,-0.97484632859,-0.953466330934,-0.925741332049,-0.891855739005,-0.852035021932,-0.806544167605,-0.755685903754,-0.699798680379,-0.63925441583,-0.574456021048,-0.505834717928,-0.433847169432,-0.358972440479,-0.28170880979,-0.202570453892,-0.122084025338,-0.0407851479046,0.0407851479046,0.122084025338,0.202570453892,0.28170880979,0.358972440479,0.433847169432,0.505834717928,0.574456021048,0.63925441583,0.699798680379,0.755685903754,0.806544167605,0.852035021932,0.891855739005,0.925741332049,0.953466330934,0.97484632859,0.989739454266,0.99804993053};
static double w38[38] = {0.00500288074964,0.0116134447165,0.0181565777096,0.0245797397382,0.0308395005452,0.036894081594,0.0427031585047,0.0482280618608,0.0534320199103,0.058280399147,0.0627409333921,0.0667839379791,0.0703825070669,0.0735126925847,0.0761536635484,0.0782878446582,0.0799010332435,0.0809824937706,0.0815250292804,0.0815250292804,0.0809824937706,0.0799010332435,0.0782878446582,0.0761536635484,0.0735126925847,0.0703825070669,0.0667839379791,0.0627409333921,0.058280399147,0.0534320199103,0.0482280618608,0.0427031585047,0.036894081594,0.0308395005452,0.0245797397382,0.0181565777096,0.0116134447165,0.0050028807496};

static double x39[39] = {-0.998147383066,-0.990251536855,-0.976098709333,-0.955775212325,-0.929409148487,-0.897167119293,-0.859252938,-0.81590629743,-0.767401242931,-0.714044435895,-0.656173213432,-0.594153454957,-0.52837726866,-0.459260512309,-0.387240163972,-0.312771559248,-0.236325512462,-0.158385339998,-0.0794438046088,-3.87160584075e-17,0.0794438046088,0.158385339998,0.236325512462,0.312771559248,0.387240163972,0.459260512309,0.52837726866,0.594153454957,0.656173213432,0.714044435895,0.767401242931,0.81590629743,0.859252938,0.897167119293,0.929409148487,0.955775212325,0.976098709333,0.990251536855,0.99814738306};
static double w39[39] = {0.00475294469164,0.0110347889392,0.0172562290937,0.0233693848322,0.0293349559839,0.0351151114981,0.0406732768479,0.0459743011089,0.0509846652921,0.0556726903409,0.0600087360886,0.0639653881387,0.0675176309662,0.0706430059706,0.0733217534143,0.0755369373228,0.0772745525447,0.0785236132874,0.0792762225684,0.0795276221394,0.0792762225684,0.0785236132874,0.0772745525447,0.0755369373228,0.0733217534143,0.0706430059706,0.0675176309662,0.0639653881387,0.0600087360886,0.0556726903409,0.0509846652921,0.0459743011089,0.0406732768479,0.0351151114981,0.0293349559839,0.0233693848322,0.0172562290937,0.0110347889392,0.0047529446916};

static double x40[40] = {-0.998237709711,-0.990726238699,-0.977259949984,-0.957916819214,-0.932812808279,-0.902098806969,-0.865959503212,-0.824612230833,-0.778305651427,-0.72731825519,-0.671956684614,-0.612553889668,-0.549467125095,-0.483075801686,-0.413779204372,-0.341994090826,-0.268152185007,-0.192697580701,-0.116084070675,-0.0387724175061,0.0387724175061,0.116084070675,0.192697580701,0.268152185007,0.341994090826,0.413779204372,0.483075801686,0.549467125095,0.612553889668,0.671956684614,0.72731825519,0.778305651427,0.824612230833,0.865959503212,0.902098806969,0.932812808279,0.957916819214,0.977259949984,0.990726238699,0.99823770971};
static double w40[40] = {0.00452127709853,0.0104982845312,0.0164210583819,0.0222458491942,0.02793700698,0.0334601952825,0.0387821679745,0.0438709081857,0.0486958076351,0.0532278469839,0.0574397690994,0.0613062424929,0.0648040134566,0.0679120458152,0.0706116473913,0.0728865823958,0.074723169058,0.0761103619006,0.0770398181642,0.0775059479784,0.0775059479784,0.0770398181642,0.0761103619006,0.074723169058,0.0728865823958,0.0706116473913,0.0679120458152,0.0648040134566,0.0613062424929,0.0574397690994,0.0532278469839,0.0486958076351,0.0438709081857,0.0387821679745,0.0334601952825,0.02793700698,0.0222458491942,0.0164210583819,0.0104982845312,0.0045212770985};

static double x41[41] = {-0.998321588575,-0.991167109699,-0.978338673561,-0.95990689173,-0.935976987498,-0.906685944758,-0.872201511692,-0.832721200401,-0.788471145047,-0.73970480307,-0.686701502035,-0.629764839072,-0.56922094161,-0.505416599199,-0.438717277051,-0.36950502264,-0.298176277342,-0.225139605633,-0.150813354864,-0.0756232589892,-4.11675695166e-17,0.0756232589892,0.150813354864,0.225139605633,0.298176277342,0.36950502264,0.438717277051,0.505416599199,0.56922094161,0.629764839072,0.686701502035,0.73970480307,0.788471145047,0.832721200401,0.872201511692,0.906685944758,0.935976987498,0.95990689173,0.978338673561,0.991167109699,0.99832158857};
static double w41[41] = {0.00430614035817,0.0099999387739,0.0156449384078,0.0212010633688,0.0266358992071,0.0319182117317,0.0370177167035,0.0419051951959,0.046552648369,0.0509334542946,0.0550225192426,0.0587964209499,0.062233542581,0.0653141964535,0.0680207367609,0.0703376606208,0.072251696861,0.0737518820272,0.0748296231762,0.0754787470927,0.0756955356473,0.0754787470927,0.0748296231762,0.0737518820272,0.072251696861,0.0703376606208,0.0680207367609,0.0653141964535,0.062233542581,0.0587964209499,0.0550225192426,0.0509334542946,0.046552648369,0.0419051951959,0.0370177167035,0.0319182117317,0.0266358992071,0.0212010633688,0.0156449384078,0.00999993877391,0.0043061403581};

static double x42[42] = {-0.99839961899,-0.991577288341,-0.979342508064,-0.961759365338,-0.938923557355,-0.910959724904,-0.878020569812,-0.840285983262,-0.797962053255,-0.751279935689,-0.700494590556,-0.645883388869,-0.587744597485,-0.526395749931,-0.46217191207,-0.395423852043,-0.326516124465,-0.255825079343,-0.183736806565,-0.110645027209,-0.0369489431654,0.0369489431654,0.110645027209,0.183736806565,0.255825079343,0.326516124465,0.395423852043,0.46217191207,0.526395749931,0.587744597485,0.645883388869,0.700494590556,0.751279935689,0.797962053255,0.840285983262,0.878020569812,0.910959724904,0.938923557355,0.961759365338,0.979342508064,0.991577288341,0.9983996189};
static double w42[42] = {0.00410599860465,0.00953622030175,0.0149224436974,0.0202278695691,0.0254229595261,0.0304792406996,0.0353690710976,0.0400657351807,0.044543577772,0.0487781407928,0.0527462956992,0.056426369358,0.0597982622276,0.062843558045,0.0655456243649,0.0678897033765,0.0698629924926,0.0714547142652,0.0726561752438,0.0734608134535,0.0738642342322,0.0738642342322,0.0734608134535,0.0726561752438,0.0714547142652,0.0698629924926,0.0678897033765,0.0655456243649,0.062843558045,0.0597982622276,0.056426369358,0.0527462956992,0.0487781407928,0.044543577772,0.0400657351807,0.0353690710976,0.0304792406996,0.0254229595261,0.020227869569,0.0149224436974,0.00953622030175,0.0041059986046};

static double x43[43] = {-0.998472332243,-0.991959557593,-0.98027822098,-0.963486613014,-0.941671956848,-0.914947907206,-0.883453765219,-0.847353716209,-0.806835964137,-0.762111747195,-0.713414235269,-0.660997313751,-0.60513425964,-0.54611631666,-0.484251176786,-0.419861376029,-0.353282612864,-0.284861998033,-0.214956244861,-0.143929809511,-0.0721529908746,1.98248094219e-16,0.0721529908746,0.143929809511,0.214956244861,0.284861998033,0.353282612864,0.419861376029,0.484251176786,0.54611631666,0.60513425964,0.660997313751,0.713414235269,0.762111747195,0.806835964137,0.847353716209,0.883453765219,0.914947907206,0.941671956848,0.963486613014,0.98027822098,0.991959557593,0.99847233224};
static double w43[43] = {0.00391949025384,0.0091039966374,0.0142487564316,0.0193199014237,0.0242904566138,0.0291344132615,0.0338264920869,0.0383422221941,0.042658057198,0.0467514947543,0.0506011927844,0.0541870803189,0.0574904619569,0.06049411525,0.0631823804494,0.0655412421263,0.0675584022294,0.0692233441937,0.0705273877651,0.0714637342525,0.0720275019714,0.0722157516938,0.0720275019714,0.0714637342525,0.0705273877651,0.0692233441937,0.0675584022294,0.0655412421263,0.0631823804494,0.06049411525,0.0574904619569,0.0541870803189,0.0506011927844,0.0467514947543,0.042658057198,0.0383422221941,0.0338264920869,0.0291344132615,0.0242904566138,0.0193199014237,0.0142487564316,0.0091039966374,0.0039194902538};

static double x44[44] = {-0.998540200637,-0.992316392139,-0.981151833078,-0.965099650422,-0.944239509118,-0.918675259984,-0.888534238286,-0.853966595005,-0.815144539645,-0.772261479249,-0.725531053661,-0.675186070666,-0.621477345904,-0.564672453185,-0.505054391388,-0.442920174525,-0.378579352015,-0.312352466503,-0.244569456928,-0.175568014776,-0.105691901709,-0.0352892369641,0.0352892369641,0.105691901709,0.175568014776,0.244569456928,0.312352466503,0.378579352015,0.442920174525,0.505054391388,0.564672453185,0.621477345904,0.675186070666,0.725531053661,0.772261479249,0.815144539645,0.853966595005,0.888534238286,0.918675259984,0.944239509118,0.965099650422,0.981151833078,0.992316392139,0.99854020063};
static double w44[44] = {0.00374540480311,0.00870048136753,0.0136195867556,0.0184714817368,0.023231481902,0.0278757828213,0.0323812228121,0.0367253478138,0.0408865123103,0.044843984082,0.0485780464484,0.0520700960917,0.0553027355637,0.0582598598776,0.0609267367016,0.0632900797332,0.0653381148792,0.0670606389063,0.0684490702694,0.0694964918616,0.0701976854736,0.0705491577894,0.0705491577894,0.0701976854736,0.0694964918616,0.0684490702694,0.0670606389063,0.0653381148792,0.0632900797332,0.0609267367016,0.0582598598776,0.0553027355637,0.0520700960917,0.0485780464484,0.044843984082,0.0408865123103,0.0367253478138,0.0323812228121,0.0278757828213,0.023231481902,0.0184714817368,0.0136195867556,0.00870048136753,0.0037454048031};

static double x45[45] = {-0.998603645182,-0.992649998447,-0.981968715035,-0.966608310397,-0.946641690996,-0.922163936719,-0.893291671753,-0.860162475961,-0.822934220502,-0.781784312594,-0.736908848945,-0.688521680771,-0.636853394453,-0.582150212569,-0.524672820463,-0.46469512392,-0.402502943859,-0.338392654251,-0.272669769752,-0.205647489783,-0.137645205983,-0.0689869801631,4.76808999467e-18,0.0689869801631,0.137645205983,0.205647489783,0.272669769752,0.338392654251,0.402502943859,0.46469512392,0.524672820463,0.582150212569,0.636853394453,0.688521680771,0.736908848945,0.781784312594,0.822934220502,0.860162475961,0.893291671753,0.922163936719,0.946641690996,0.966608310397,0.981968715035,0.992649998447,0.99860364518};
static double w45[45] = {0.00358266315528,0.00832318929622,0.0130311049916,0.0176775352579,0.0222398475506,0.0266962139676,0.0310253749345,0.0352066922016,0.0392202367293,0.0430468807092,0.0466683877184,0.050067499238,0.0532280167313,0.0561348787598,0.0587742327188,0.0611335008311,0.0632014400738,0.0649681957507,0.0664253484498,0.0675659541636,0.0683845773787,0.0688773169777,0.0690418248292,0.0688773169777,0.0683845773787,0.0675659541636,0.0664253484498,0.0649681957507,0.0632014400738,0.0611335008311,0.0587742327188,0.0561348787598,0.0532280167313,0.050067499238,0.0466683877184,0.0430468807092,0.0392202367293,0.0352066922016,0.0310253749345,0.0266962139676,0.0222398475506,0.0176775352579,0.0130311049916,0.00832318929622,0.0035826631552};

static double x46[46] = {-0.998663042134,-0.992962348906,-0.982733669804,-0.968021391854,-0.948892363446,-0.925433798807,-0.897752711534,-0.865975394867,-0.830246837066,-0.790730057075,-0.747605359616,-0.70106951202,-0.651334846202,-0.598628289713,-0.543190330262,-0.485273918388,-0.425143313283,-0.363072877021,-0.299345822702,-0.234252922206,-0.168091179467,-0.101162475306,-0.0337721900161,0.0337721900161,0.101162475306,0.168091179467,0.234252922206,0.299345822702,0.363072877021,0.425143313283,0.485273918388,0.543190330262,0.598628289713,0.651334846202,0.70106951202,0.747605359616,0.790730057075,0.830246837066,0.865975394867,0.897752711534,0.925433798807,0.948892363446,0.968021391854,0.982733669804,0.992962348906,0.99866304213};
static double w46[46] = {0.00343030086811,0.00796989822972,0.012479883771,0.0169335140078,0.0213099987541,0.0255892863971,0.0297518295522,0.0337786279991,0.0376513053574,0.0413521901097,0.0448643952773,0.0481718951017,0.0512595980071,0.0541134153859,0.056720325844,0.0590684345955,0.0611470277247,0.0629466210644,0.0644590034671,0.0656772742678,0.0665958747685,0.0672106136007,0.067518685849,0.067518685849,0.0672106136007,0.0665958747685,0.0656772742678,0.0644590034671,0.0629466210644,0.0611470277247,0.0590684345955,0.056720325844,0.0541134153859,0.0512595980071,0.0481718951017,0.0448643952773,0.0413521901097,0.0376513053574,0.0337786279991,0.0297518295522,0.0255892863971,0.0213099987541,0.0169335140078,0.012479883771,0.00796989822972,0.0034303008681};

static double x47[47] = {-0.998718728584,-0.993255210988,-0.983451003072,-0.969346787327,-0.951003969258,-0.928502693012,-0.901941329439,-0.871436015797,-0.8371201399,-0.799143754168,-0.757672918445,-0.712888973409,-0.66498774739,-0.614178699956,-0.560684005935,-0.504737583864,-0.446584073105,-0.386477764085,-0.324681486338,-0.261465459215,-0.197106110279,-0.131884866555,-0.0660869239164,-6.47061228166e-17,0.0660869239164,0.131884866555,0.197106110279,0.261465459215,0.324681486338,0.386477764085,0.446584073105,0.504737583864,0.560684005935,0.614178699956,0.66498774739,0.712888973409,0.757672918445,0.799143754168,0.8371201399,0.871436015797,0.901941329439,0.928502693012,0.951003969258,0.969346787327,0.983451003072,0.993255210988,0.99871872858};
static double w47[47] = {0.00328745384253,0.00763861629585,0.0119628484643,0.0162353331464,0.0204369381477,0.0245492116597,0.0285541507006,0.0324342355152,0.0361724965842,0.0397525861225,0.0431588486485,0.0463763890865,0.0493911377474,0.0521899117801,0.0547604727815,0.0570915802932,0.0591730409423,0.0609957530087,0.0625517462209,0.0638342166057,0.0648375562389,0.0655573777665,0.0659905335888,0.0661351296237,0.0659905335888,0.0655573777666,0.0648375562389,0.0638342166057,0.0625517462209,0.0609957530087,0.0591730409423,0.0570915802932,0.0547604727815,0.0521899117801,0.0493911377474,0.0463763890865,0.0431588486485,0.0397525861225,0.0361724965842,0.0324342355152,0.0285541507006,0.0245492116597,0.0204369381477,0.0162353331464,0.0119628484643,0.00763861629585,0.0032874538425};

static double x48[48] = {-0.998771007252,-0.993530172266,-0.984124583723,-0.970591592546,-0.95298770316,-0.931386690707,-0.905879136716,-0.876572020274,-0.843588261624,-0.807066204029,-0.767159032516,-0.724034130924,-0.677872379633,-0.628867396777,-0.577224726084,-0.523160974722,-0.466902904751,-0.408686481991,-0.348755886292,-0.287362487355,-0.224763790395,-0.161222356069,-0.0970046992095,-0.0323801709629,0.0323801709629,0.0970046992095,0.161222356069,0.224763790395,0.287362487355,0.348755886292,0.408686481991,0.466902904751,0.523160974722,0.577224726084,0.628867396777,0.677872379633,0.724034130924,0.767159032516,0.807066204029,0.843588261624,0.876572020274,0.905879136716,0.931386690707,0.95298770316,0.970591592546,0.984124583723,0.993530172266,0.99877100725};
static double w48[48] = {0.00315334605231,0.00732755390128,0.0114772345792,0.0155793157229,0.0196161604574,0.0235707608393,0.0274265097084,0.0311672278328,0.0347772225648,0.0382413510658,0.0415450829435,0.0446745608567,0.0476166584925,0.0503590355539,0.0528901894852,0.0551995037,0.0572772921004,0.0591148396984,0.0607044391659,0.0620394231599,0.0631141922863,0.0639242385846,0.064466164436,0.0647376968127,0.0647376968127,0.0644661644359,0.0639242385846,0.0631141922863,0.0620394231599,0.0607044391659,0.0591148396984,0.0572772921004,0.0551995037,0.0528901894852,0.0503590355539,0.0476166584925,0.0446745608567,0.0415450829435,0.0382413510658,0.0347772225648,0.0311672278328,0.0274265097084,0.0235707608393,0.0196161604574,0.0155793157229,0.0114772345792,0.00732755390128,0.0031533460523};

static double x49[49] = {-0.998820150607,-0.993788661944,-0.984757895914,-0.971762200902,-0.954853658674,-0.934100294756,-0.909585655828,-0.881408445573,-0.849682119844,-0.81453442736,-0.776106894345,-0.734554254237,-0.690043824425,-0.642754832419,-0.592877694109,-0.540613246992,-0.486171941452,-0.429772993342,-0.371643501262,-0.31201753212,-0.251135178613,-0.189241592462,-0.12658599727,-0.0634206849827,-2.73138031802e-16,0.0634206849827,0.12658599727,0.189241592462,0.251135178613,0.31201753212,0.371643501262,0.429772993342,0.486171941452,0.540613246992,0.592877694109,0.642754832419,0.690043824425,0.734554254237,0.776106894345,0.81453442736,0.849682119844,0.881408445573,0.909585655828,0.934100294756,0.954853658674,0.971762200902,0.984757895914,0.993788661944,0.99882015060};
static double w49[49] = {0.00302727898893,0.00703509959009,0.0110205510316,0.0149621449356,0.0188435958531,0.0226492015874,0.0263636189271,0.0299718846206,0.0334594667916,0.036812320963,0.0400169457664,0.0430604369813,0.0459305393556,0.0486156958878,0.0511050943301,0.0533887107083,0.0554573496748,0.0573026815302,0.05891727576,0.0602946309532,0.0614292009792,0.0623164173201,0.0629527074652,0.0633355092965,0.0634632814048,0.0633355092965,0.0629527074652,0.0623164173201,0.0614292009792,0.0602946309532,0.05891727576,0.0573026815302,0.0554573496748,0.0533887107083,0.0511050943301,0.0486156958878,0.0459305393556,0.0430604369813,0.0400169457664,0.036812320963,0.0334594667916,0.0299718846206,0.0263636189271,0.0226492015874,0.0188435958531,0.0149621449356,0.0110205510316,0.00703509959009,0.0030272789889};

static double x50[50] = {-0.99886640442,-0.994031969432,-0.985354084048,-0.972864385107,-0.956610955243,-0.936656618945,-0.913078556656,-0.885967979524,-0.85542976943,-0.821582070859,-0.7845558329,-0.744494302226,-0.701552468707,-0.655896465685,-0.607702927185,-0.557158304515,-0.504458144907,-0.449806334974,-0.393414311898,-0.335500245419,-0.27628819378,-0.216007236876,-0.154890589998,-0.0931747015601,-0.0310983383272,0.0310983383272,0.0931747015601,0.154890589998,0.216007236876,0.27628819378,0.335500245419,0.393414311898,0.449806334974,0.504458144907,0.557158304515,0.607702927185,0.655896465685,0.701552468707,0.744494302226,0.7845558329,0.821582070859,0.85542976943,0.885967979524,0.913078556656,0.936656618945,0.956610955243,0.972864385107,0.985354084048,0.994031969432,0.9988664044};
static double w50[50] = {0.00290862255316,0.00675979919575,0.0105905483836,0.0143808227615,0.0181155607135,0.0217802431701,0.02536067357,0.0288429935805,0.0322137282236,0.0354598356151,0.0385687566126,0.0415284630902,0.0443275043388,0.0469550513039,0.0494009384495,0.0516557030696,0.053710621889,0.0555577448062,0.0571899256477,0.0586008498132,0.0597850587043,0.0607379708418,0.0614558995903,0.0619360674207,0.0621766166553,0.0621766166553,0.0619360674207,0.0614558995903,0.0607379708418,0.0597850587043,0.0586008498132,0.0571899256477,0.0555577448062,0.053710621889,0.0516557030696,0.0494009384495,0.0469550513039,0.0443275043388,0.0415284630901,0.0385687566126,0.0354598356151,0.0322137282236,0.0288429935805,0.02536067357,0.0217802431701,0.0181155607135,0.0143808227615,0.0105905483837,0.00675979919574,0.0029086225531};

static double x51[51] = {-0.998909990849,-0.994261260437,-0.985915991736,-0.973903368019,-0.958267848614,-0.939067544003,-0.91637386231,-0.89027121803,-0.860856711182,-0.828239763823,-0.792541712099,-0.753895354485,-0.712444457577,-0.668343221175,-0.621755704601,-0.572855216351,-0.521823669366,-0.468850904286,-0.414133983226,-0.357876456688,-0.300287606335,-0.241581666448,-0.181977026957,-0.121695421019,-0.0609611001506,-2.43359182067e-16,0.0609611001506,0.121695421019,0.181977026957,0.241581666448,0.300287606335,0.357876456688,0.414133983226,0.468850904286,0.521823669366,0.572855216351,0.621755704601,0.668343221175,0.712444457577,0.753895354485,0.792541712099,0.828239763823,0.860856711182,0.89027121803,0.91637386231,0.939067544003,0.958267848614,0.973903368019,0.985915991736,0.994261260437,0.99890999084};
static double w51[51] = {0.00279680717109,0.00650033778325,0.0101851912978,0.0138326340065,0.0174287147234,0.0209599884017,0.0244133005738,0.0277757985942,0.0310349712902,0.0341786932042,0.0371952689233,0.0400734762855,0.0428026079979,0.0453725114076,0.0477736262406,0.0499970201501,0.0520344219367,0.053878252313,0.0555216520957,0.0569585077203,0.0581834739826,0.059191993923,0.0599803157775,0.0605455069347,0.0608854648449,0.0609989248412,0.0608854648449,0.0605455069347,0.0599803157775,0.059191993923,0.0581834739826,0.0569585077203,0.0555216520957,0.053878252313,0.0520344219367,0.0499970201501,0.0477736262406,0.0453725114076,0.0428026079979,0.0400734762855,0.0371952689233,0.0341786932042,0.0310349712902,0.0277757985942,0.0244133005738,0.0209599884017,0.0174287147234,0.0138326340065,0.0101851912978,0.00650033778326,0.0027968071710};

static double x52[52] = {-0.998951111104,-0.994477590929,-0.986446195652,-0.974883884222,-0.959831826933,-0.941343853641,-0.919486128916,-0.894336890534,-0.865986162846,-0.834535432327,-0.80009728343,-0.762794995194,-0.72276209975,-0.680141904227,-0.635086977695,-0.58775860498,-0.538326209286,-0.486966745698,-0.433864067719,-0.379208269116,-0.323195003435,-0.266024783605,-0.207902264156,-0.149035508607,-0.0896352446489,-0.0299141097973,0.0299141097973,0.0896352446489,0.149035508607,0.207902264156,0.266024783605,0.323195003435,0.379208269116,0.433864067719,0.486966745698,0.538326209286,0.58775860498,0.635086977695,0.680141904227,0.72276209975,0.762794995194,0.80009728343,0.834535432327,0.865986162846,0.894336890534,0.919486128916,0.941343853641,0.959831826933,0.974883884222,0.986446195652,0.994477590929,0.99895111110};
static double w52[52] = {0.00269131695005,0.00625552396297,0.00980263457946,0.0133151149823,0.0167800233963,0.020184891508,0.023517513554,0.0267659537465,0.0299185811471,0.0329641090897,0.0358916348351,0.0386906783104,0.0413512195006,0.043863734259,0.0462192283728,0.0484092697441,0.0504260185663,0.0522622553839,0.0539114069328,0.0553675696693,0.0566255309024,0.0576807874525,0.0585295617718,0.059168815466,0.0595962601712,0.0598103657453,0.0598103657453,0.0595962601712,0.059168815466,0.0585295617718,0.0576807874525,0.0566255309024,0.0553675696693,0.0539114069328,0.0522622553839,0.0504260185663,0.0484092697441,0.0462192283728,0.043863734259,0.0413512195006,0.0386906783104,0.0358916348351,0.0329641090897,0.0299185811471,0.0267659537465,0.023517513554,0.020184891508,0.0167800233963,0.0133151149823,0.00980263457946,0.00625552396297,0.0026913169500};

static double x53[53] = {-0.998989947776,-0.994681919308,-0.986947035023,-0.975810233715,-0.961309694623,-0.943495353464,-0.922428603043,-0.898182057875,-0.870839297558,-0.840494576546,-0.807252498417,-0.771227654926,-0.732544230808,-0.691335575601,-0.647743743917,-0.601919005714,-0.554019328277,-0.504209831657,-0.452662219462,-0.399554186954,-0.345068808496,-0.289393906452,-0.232721403724,-0.175246662155,-0.117167809072,-0.0586850543003,5.41825565703e-17,0.0586850543003,0.117167809072,0.175246662155,0.232721403724,0.289393906452,0.345068808496,0.399554186954,0.452662219462,0.504209831657,0.554019328277,0.601919005714,0.647743743917,0.691335575601,0.732544230808,0.771227654926,0.807252498417,0.840494576546,0.870839297558,0.898182057875,0.922428603043,0.943495353464,0.961309694623,0.975810233715,0.986947035023,0.994681919308,0.99898994777};
static double w53[53] = {0.00259168372056,0.00602427622695,0.00944120228494,0.0128260261442,0.0161667252567,0.0194517211076,0.0226696730571,0.0258094825108,0.0288603236178,0.031811678459,0.0346533725835,0.0373756098035,0.0399690058435,0.0424246206345,0.0447339891037,0.0468891503408,0.0488826750327,0.0507076910693,0.0523579072299,0.0538276348687,0.0551118075239,0.0562059983817,0.0571064355363,0.0578100149917,0.0583143113623,0.0586175862327,0.0587187941512,0.0586175862327,0.0583143113623,0.0578100149917,0.0571064355363,0.0562059983817,0.0551118075239,0.0538276348687,0.0523579072299,0.0507076910693,0.0488826750327,0.0468891503407,0.0447339891037,0.0424246206345,0.0399690058435,0.0373756098035,0.0346533725835,0.031811678459,0.0288603236178,0.0258094825108,0.0226696730571,0.0194517211076,0.0161667252567,0.0128260261442,0.00944120228494,0.00602427622695,0.0025916837205};

static double x54[54] = {-0.999026666867,-0.994875117018,-0.987420637397,-0.976686328858,-0.962707645786,-0.945530975165,-0.925213359867,-0.901822286285,-0.875435454066,-0.846140515971,-0.814034785914,-0.779224915346,-0.741826538809,-0.701963889719,-0.659769387632,-0.615383198331,-0.568952768195,-0.520632334386,-0.470582412481,-0.418969263255,-0.365964340372,-0.311743720834,-0.25648752007,-0.200379293606,-0.143605427316,-0.0863545182632,-0.0288167481993,0.0288167481993,0.0863545182632,0.143605427316,0.200379293606,0.25648752007,0.311743720834,0.365964340372,0.418969263255,0.470582412481,0.520632334386,0.568952768195,0.615383198331,0.659769387632,0.701963889719,0.741826538809,0.779224915346,0.814034785914,0.846140515971,0.875435454066,0.901822286285,0.925213359867,0.945530975165,0.962707645786,0.976686328858,0.987420637397,0.994875117018,0.99902666686};
static double w54[54] = {0.00249748183576,0.00580561101524,0.00909936945551,0.0123633281289,0.0155863030359,0.0187575276215,0.0218664514228,0.0249027414672,0.0278563093106,0.0307173424979,0.0334763364644,0.0361241258404,0.0386519147821,0.0410513061366,0.0433143293096,0.0454334667283,0.0474016788064,0.0492124273245,0.0508596971462,0.0523380161983,0.0536424736476,0.0547687362131,0.0557130625606,0.0564723157306,0.0570439735588,0.0574261370541,0.0576175367071,0.0576175367071,0.0574261370541,0.0570439735588,0.0564723157306,0.0557130625606,0.0547687362131,0.0536424736476,0.0523380161983,0.0508596971462,0.0492124273245,0.0474016788064,0.0454334667283,0.0433143293096,0.0410513061366,0.0386519147821,0.0361241258404,0.0334763364644,0.0307173424979,0.0278563093106,0.0249027414672,0.0218664514229,0.0187575276215,0.0155863030359,0.0123633281288,0.00909936945551,0.00580561101524,0.0024974818357};

static double x55[55] = {-0.999061419565,-0.995057977847,-0.987868941199,-0.977515735504,-0.964031328593,-0.947458868041,-0.927851424721,-0.905271800744,-0.87979232242,-0.851494606617,-0.820469298559,-0.786815781128,-0.750641856348,-0.712063399987,-0.67120399032,-0.62819451225,-0.583172738026,-0.536282885908,-0.487675158187,-0.437505260037,-0.385933900741,-0.33312627889,-0.279251553201,-0.224482300648,-0.168993963647,-0.112964288059,-0.0565727538183,-1.19004600068e-16,0.0565727538183,0.112964288059,0.168993963647,0.224482300648,0.279251553201,0.33312627889,0.385933900741,0.437505260037,0.487675158187,0.536282885908,0.583172738026,0.62819451225,0.67120399032,0.712063399987,0.750641856348,0.786815781128,0.820469298559,0.851494606617,0.87979232242,0.905271800744,0.927851424721,0.947458868041,0.964031328593,0.977515735504,0.987868941199,0.995057977847,0.99906141956};
static double w55[55] = {0.00240832361998,0.00559863226656,0.00877574610706,0.0119251607199,0.0150364583335,0.0180996145207,0.021104801668,0.0240423880097,0.0269029614564,0.0296773577652,0.0323566892262,0.0349323728736,0.037396157868,0.0397401518743,0.0419568463177,0.0440391404216,0.0459803639463,0.0477742985512,0.0494151977116,0.0508978051245,0.0522173715456,0.0533696700016,0.0543510093299,0.0551582460025,0.0557887941953,0.0562406340711,0.0565123182498,0.0566029764446,0.0565123182498,0.0562406340711,0.0557887941953,0.0551582460025,0.0543510093299,0.0533696700016,0.0522173715456,0.0508978051245,0.0494151977116,0.0477742985512,0.0459803639463,0.0440391404216,0.0419568463177,0.0397401518743,0.037396157868,0.0349323728736,0.0323566892262,0.0296773577652,0.0269029614564,0.0240423880097,0.021104801668,0.0180996145207,0.0150364583335,0.0119251607198,0.00877574610706,0.00559863226656,0.0024083236199};

static double x56[56] = {-0.999094343801,-0.995231226081,-0.98829371554,-0.97830170914,-0.965285901905,-0.949286479562,-0.930352880247,-0.908543620421,-0.883926108328,-0.856576433763,-0.826579132143,-0.794026922894,-0.759020422705,-0.72166783445,-0.682084612694,-0.640393106807,-0.596722182771,-0.551206824856,-0.503987718384,-0.455210814878,-0.405026880927,-0.353591032175,-0.301062253867,-0.247602909434,-0.193378238635,-0.13855584681,-0.0833051868224,-0.0277970352873,0.0277970352873,0.0833051868224,0.13855584681,0.193378238635,0.247602909434,0.301062253867,0.353591032175,0.405026880927,0.455210814878,0.503987718384,0.551206824856,0.596722182771,0.640393106807,0.682084612694,0.72166783445,0.759020422705,0.794026922894,0.826579132143,0.856576433763,0.883926108328,0.908543620421,0.930352880247,0.949286479562,0.965285901905,0.97830170914,0.98829371554,0.995231226081,0.99909434380};
static double w56[56] = {0.00232385537577,0.00540252224602,0.00846906316331,0.0115098243404,0.014515089278,0.0174755129114,0.0203819298824,0.0232253515626,0.0259969870584,0.0286882684738,0.0312908767473,0.0337967671156,0.0361981938723,0.0384877342592,0.0406583113847,0.0427032160847,0.0446161276527,0.046391133373,0.0480227467936,0.049505924683,0.0508360826178,0.0520091091517,0.053021378524,0.0538697618657,0.0545516368709,0.0550648959018,0.0554079525032,0.0555797463065,0.0555797463065,0.0554079525032,0.0550648959018,0.0545516368709,0.0538697618657,0.053021378524,0.0520091091517,0.0508360826178,0.049505924683,0.0480227467936,0.046391133373,0.0446161276527,0.0427032160847,0.0406583113847,0.0384877342592,0.0361981938723,0.0337967671156,0.0312908767473,0.0286882684738,0.0259969870584,0.0232253515626,0.0203819298824,0.0174755129114,0.014515089278,0.0115098243404,0.00846906316331,0.00540252224601,0.0023238553757};

static double x57[57] = {-0.999125565625,-0.995395523678,-0.98869657765,-0.979047226709,-0.966476085172,-0.951020626448,-0.932726961067,-0.911649678521,-0.887851678882,-0.861403983262,-0.83238552115,-0.800882894547,-0.766990119359,-0.730808344745,-0.6924455512,-0.652016228281,-0.609641032909,-0.565446429269,-0.519564311391,-0.472131609518,-0.423289881452,-0.373184890087,-0.321966168395,-0.269786573162,-0.216801828796,-0.163170062591,-0.109051332809,-0.0546071510016,1.36416929041e-16,0.0546071510016,0.109051332809,0.163170062591,0.216801828796,0.269786573162,0.321966168395,0.373184890087,0.423289881452,0.472131609518,0.519564311391,0.565446429269,0.609641032909,0.652016228281,0.6924455512,0.730808344745,0.766990119359,0.800882894547,0.83238552115,0.861403983262,0.887851678882,0.911649678521,0.932726961067,0.951020626448,0.966476085172,0.979047226709,0.98869657765,0.995395523678,0.99912556562};
static double w57[57] = {0.00224375387225,0.00521653347472,0.00817816006782,0.0111157637323,0.0140202707908,0.0168829590234,0.0196952706995,0.0224488078908,0.0251353509909,0.0277468814022,0.0302756048427,0.0327139743664,0.0350547127823,0.0372908343244,0.0394156654755,0.0414228648708,0.0433064422162,0.0450607761614,0.0466806310736,0.0481611726617,0.049497982402,0.0506870707249,0.0517248889205,0.0526083397292,0.0533347865848,0.0539020614833,0.0543084714525,0.0545528036048,0.0546343287566,0.0545528036048,0.0543084714525,0.0539020614833,0.0533347865848,0.0526083397292,0.0517248889205,0.0506870707249,0.049497982402,0.0481611726617,0.0466806310736,0.0450607761614,0.0433064422162,0.0414228648708,0.0394156654755,0.0372908343244,0.0350547127823,0.0327139743664,0.0302756048427,0.0277468814022,0.0251353509909,0.0224488078908,0.0196952706995,0.0168829590234,0.0140202707908,0.0111157637323,0.00817816006782,0.00521653347472,0.0022437538722};

static double x58[58] = {-0.999155200407,-0.995551476597,-0.989079008248,-0.979755014694,-0.967606202503,-0.952667557519,-0.934982137588,-0.914600928564,-0.891582692022,-0.865993794075,-0.837908013339,-0.807406327913,-0.77457668175,-0.73951373102,-0.702318571154,-0.663098445332,-0.621966435263,-0.57904113513,-0.534446309649,-0.488310537217,-0.440766839187,-0.391952296331,-0.342007653598,-0.291076914311,-0.239306924966,-0.186846951836,-0.133848250595,-0.0804636302141,-0.0268470123659,0.0268470123659,0.0804636302141,0.133848250595,0.186846951836,0.239306924966,0.291076914311,0.342007653598,0.391952296331,0.440766839187,0.488310537217,0.534446309649,0.57904113513,0.621966435263,0.663098445332,0.702318571154,0.73951373102,0.77457668175,0.807406327913,0.837908013339,0.865993794075,0.891582692022,0.914600928564,0.934982137588,0.952667557519,0.967606202503,0.979755014694,0.989079008248,0.995551476597,0.99915520040};
static double w58[58] = {0.00216772324963,0.00503998161265,0.00790197385,0.0107415535329,0.013550237113,0.016319874235,0.0190424654619,0.0217101561401,0.024315252725,0.026850243182,0.0293078180442,0.0316808912538,0.0339626204934,0.0361464268671,0.0382260138459,0.0401953854099,0.0420488633296,0.0437811035336,0.0453871115148,0.046862256729,0.0482022859454,0.049403335509,0.05046194248,0.0513750546183,0.0521400391837,0.0527546905264,0.0532172364466,0.0535263433041,0.0536811198633,0.0536811198633,0.0535263433041,0.0532172364466,0.0527546905264,0.0521400391837,0.0513750546183,0.05046194248,0.049403335509,0.0482022859454,0.046862256729,0.0453871115148,0.0437811035336,0.0420488633296,0.0401953854099,0.0382260138459,0.0361464268671,0.0339626204934,0.0316808912538,0.0293078180442,0.026850243182,0.024315252725,0.0217101561401,0.0190424654619,0.016319874235,0.013550237113,0.0107415535329,0.00790197385,0.00503998161265,0.0021677232496};

static double x59[59] = {-0.999183353909,-0.995699640383,-0.989442365134,-0.980427573957,-0.968680221682,-0.954233009377,-0.937126190353,-0.917407438788,-0.895131711743,-0.870361094293,-0.843164625817,-0.813618107288,-0.781803889862,-0.747810645279,-0.711733118677,-0.673671864505,-0.633732966239,-0.592027740704,-0.548672427808,-0.503787866558,-0.457499158253,-0.40993531781,-0.36122891417,-0.311515700803,-0.260934237343,-0.209625503392,-0.157732505588,-0.105399879016,-0.0527734840883,9.3133137144e-17,0.0527734840883,0.105399879016,0.157732505588,0.209625503392,0.260934237343,0.311515700803,0.36122891417,0.40993531781,0.457499158253,0.503787866558,0.548672427808,0.592027740704,0.633732966239,0.673671864505,0.711733118677,0.747810645279,0.781803889862,0.813618107288,0.843164625817,0.870361094293,0.895131711743,0.917407438788,0.937126190353,0.954233009377,0.968680221682,0.980427573957,0.989442365134,0.995699640383,0.99918335390};
static double w59[59] = {0.00209549228454,0.00487223916826,0.00763952945349,0.010385885501,0.0131033663063,0.0157843473131,0.0184213427536,0.0210069982884,0.0235341053937,0.0259956197313,0.0283846802005,0.0306946278361,0.032919024271,0.0350516696364,0.0370866198189,0.0390182030162,0.0408410355387,0.0425500368111,0.0441404435303,0.0456078229405,0.046948085187,0.0481574947146,0.0492326806794,0.050170646343,0.0509687774254,0.0516248493909,0.0521370336484,0.0525039026478,0.0527244338591,0.052798012622,0.0527244338591,0.0525039026478,0.0521370336484,0.0516248493909,0.0509687774254,0.050170646343,0.0492326806794,0.0481574947146,0.046948085187,0.0456078229405,0.0441404435303,0.0425500368111,0.0408410355387,0.0390182030162,0.0370866198189,0.0350516696364,0.032919024271,0.0306946278361,0.0283846802005,0.0259956197313,0.0235341053937,0.0210069982884,0.0184213427536,0.0157843473131,0.0131033663063,0.010385885501,0.00763952945349,0.00487223916826,0.0020954922845};

static double x60[60] = {-0.999210123227,-0.995840525119,-0.989787895222,-0.981067201753,-0.969701788765,-0.95572225584,-0.939166276116,-0.920078476178,-0.89851031081,-0.874519922647,-0.848171984786,-0.819537526162,-0.788693739932,-0.755723775307,-0.720716513356,-0.683766327381,-0.644972828489,-0.604440597049,-0.562278900754,-0.518601400059,-0.473525841762,-0.427173741583,-0.379670056577,-0.331142848268,-0.281722937423,-0.231543551376,-0.180739964873,-0.129449135397,-0.0778093339495,-0.0259597723012,0.0259597723012,0.0778093339495,0.129449135397,0.180739964873,0.231543551376,0.281722937423,0.331142848268,0.379670056577,0.427173741583,0.473525841762,0.518601400059,0.562278900754,0.604440597049,0.644972828489,0.683766327381,0.720716513356,0.755723775307,0.788693739932,0.819537526162,0.848171984786,0.874519922647,0.89851031081,0.920078476178,0.939166276116,0.95572225584,0.969701788765,0.981067201753,0.989787895222,0.995840525119,0.99921012322};
static double w60[60] = {0.00202681196887,0.00471272992695,0.00738993116335,0.0100475571823,0.0126781664768,0.0152746185968,0.0178299010142,0.0203371207295,0.022789516944,0.0251804776215,0.0275035567499,0.0297524915008,0.0319212190193,0.0340038927249,0.0359948980511,0.0378888675692,0.0396806954524,0.0413655512356,0.0429388928359,0.0443964787958,0.0457343797161,0.0469489888489,0.04803703182,0.0489955754558,0.0498220356906,0.0505141845325,0.0510701560699,0.051488451501,0.0517679431749,0.0519078776312,0.0519078776312,0.0517679431749,0.051488451501,0.0510701560699,0.0505141845325,0.0498220356905,0.0489955754558,0.04803703182,0.0469489888489,0.0457343797161,0.0443964787958,0.0429388928359,0.0413655512356,0.0396806954524,0.0378888675692,0.0359948980511,0.0340038927249,0.0319212190193,0.0297524915008,0.0275035567499,0.0251804776215,0.022789516944,0.0203371207295,0.0178299010142,0.0152746185968,0.0126781664768,0.0100475571823,0.00738993116335,0.00471272992695,0.0020268119688};

static double x61[61] = {-0.999235597631,-0.995974599815,-0.990116745233,-0.981676011284,-0.970674258833,-0.957140151913,-0.941108986681,-0.922622581383,-0.901729162474,-0.878483237215,-0.852945450848,-0.825182428109,-0.795266599282,-0.763276011172,-0.729294123449,-0.693409590894,-0.655716032095,-0.616311785198,-0.575299651351,-0.532786626503,-0.488883622262,-0.443705176539,-0.397369154726,-0.349996442204,-0.301710628963,-0.252637687169,-0.202905642518,-0.152644240231,-0.101984606562,-0.051058906708,2.03808435883e-16,0.051058906708,0.101984606562,0.152644240231,0.202905642518,0.252637687169,0.301710628963,0.349996442204,0.397369154726,0.443705176539,0.488883622262,0.532786626503,0.575299651351,0.616311785198,0.655716032095,0.693409590894,0.729294123449,0.763276011172,0.795266599282,0.825182428109,0.852945450848,0.878483237215,0.901729162474,0.922622581383,0.941108986681,0.957140151913,0.970674258833,0.981676011284,0.990116745233,0.995974599815,0.99923559763};
static double w61[61] = {0.00196145336167,0.00456092400601,0.00715235499175,0.00972546183036,0.0122732635078,0.0147890658849,0.0172662929876,0.0196984777461,0.0220792731483,0.0244024671875,0.0266619985242,0.0288519720882,0.0309666743684,0.0330005882759,0.0349484075165,0.0368050504232,0.038565673207,0.040225682591,0.0417807477909,0.0432268118125,0.0445601020351,0.0457771400531,0.0468747507508,0.0478500705851,0.0487005550564,0.0494239853467,0.0500184741082,0.0504824703868,0.0508147636688,0.0510144870387,0.0510811194408,0.0510144870387,0.0508147636688,0.0504824703868,0.0500184741082,0.0494239853467,0.0487005550564,0.0478500705851,0.0468747507508,0.0457771400531,0.0445601020351,0.0432268118125,0.0417807477909,0.040225682591,0.038565673207,0.0368050504232,0.0349484075165,0.0330005882759,0.0309666743684,0.0288519720882,0.0266619985241,0.0244024671875,0.0220792731483,0.0196984777461,0.0172662929876,0.0147890658849,0.0122732635078,0.00972546183036,0.00715235499175,0.00456092400601,0.0019614533616};

static double x62[62] = {-0.999259859309,-0.996102296316,-0.990429971189,-0.982255949097,-0.971600723372,-0.958491172974,-0.942960401392,-0.925047635636,-0.904798122521,-0.882263012832,-0.857499231512,-0.830569333604,-0.801541346104,-0.770488596055,-0.737489525283,-0.702627492222,-0.665990561335,-0.627671280647,-0.587766447953,-0.5463768663,-0.503607089345,-0.45956515724,-0.414362323717,-0.368112775047,-0.320933341594,-0.272943202697,-0.224263585604,-0.175017459249,-0.125329223616,-0.0753243954962,-0.0251292914218,0.0251292914218,0.0753243954962,0.125329223616,0.175017459249,0.224263585604,0.272943202697,0.320933341594,0.368112775047,0.414362323717,0.45956515724,0.503607089345,0.5463768663,0.587766447953,0.627671280647,0.665990561335,0.702627492222,0.737489525283,0.770488596055,0.801541346104,0.830569333604,0.857499231512,0.882263012832,0.904798122521,0.925047635636,0.942960401392,0.958491172974,0.971600723372,0.982255949097,0.990429971189,0.996102296316,0.99925985930};
static double w62[62] = {0.00189920567952,0.00441633345693,0.00692604190183,0.00941857942842,0.011887390117,0.0143261918238,0.0167288117902,0.0190891766586,0.0214013222777,0.0236594072087,0.025857726954,0.0279907281633,0.030053022574,0.0320394005816,0.0339448443794,0.0357645406228,0.0374938925823,0.039128531752,0.0406643288824,0.0420974044104,0.043424138258,0.0446411789771,0.0457454522146,0.0467341684784,0.0476048301841,0.0483552379635,0.0489834962205,0.0494880179197,0.049867528595,0.050121069569,0.0502480003753,0.0502480003753,0.050121069569,0.049867528595,0.0494880179197,0.0489834962205,0.0483552379635,0.0476048301841,0.0467341684784,0.0457454522146,0.0446411789771,0.043424138258,0.0420974044104,0.0406643288824,0.039128531752,0.0374938925823,0.0357645406228,0.0339448443794,0.0320394005816,0.030053022574,0.0279907281633,0.025857726954,0.0236594072087,0.0214013222777,0.0190891766586,0.0167288117902,0.0143261918238,0.011887390117,0.00941857942842,0.00692604190183,0.00441633345693,0.0018992056795};

static double x63[63] = {-0.999282984029,-0.996224012778,-0.990728546892,-0.982808810594,-0.972484034698,-0.959779449759,-0.944726134041,-0.927360920622,-0.907726302779,-0.885870328508,-0.861846482364,-0.83571355432,-0.807535495773,-0.77738126299,-0.745324648318,-0.711444099585,-0.675822528115,-0.638547105821,-0.599709051878,-0.559403409486,-0.51772881329,-0.474787247995,-0.430683798795,-0.385526394212,-0.339425541975,-0.292494058586,-0.244846793246,-0.196600346792,-0.147872786358,-0.0987833564469,-0.0494521871162,-1.7392773567e-16,0.0494521871162,0.0987833564469,0.147872786358,0.196600346792,0.244846793246,0.292494058586,0.339425541975,0.385526394212,0.430683798795,0.474787247995,0.51772881329,0.559403409486,0.599709051878,0.638547105821,0.675822528115,0.711444099585,0.745324648318,0.77738126299,0.807535495773,0.83571355432,0.861846482364,0.885870328508,0.907726302779,0.927360920622,0.944726134041,0.959779449759,0.972484034698,0.982808810594,0.990728546892,0.996224012778,0.99928298402};
static double w63[63] = {0.00183987459558,0.00427850834686,0.00671029176596,0.00912596867633,0.0115193760769,0.0138846126161,0.0162158784103,0.0185074644602,0.020753761258,0.0229492710049,0.0250886205533,0.0271665743591,0.0291780472083,0.0311181166222,0.0329820348838,0.0347652406454,0.0364633700855,0.0380722675844,0.0395879958915,0.0410068457597,0.0423253450208,0.043540267083,0.0446486388259,0.0456477478763,0.0465351492454,0.0473086713123,0.047966421138,0.0485067890979,0.0489284528205,0.0492303804237,0.0494118330399,0.0494723666239,0.0494118330399,0.0492303804237,0.0489284528205,0.0485067890979,0.047966421138,0.0473086713123,0.0465351492454,0.0456477478763,0.0446486388259,0.043540267083,0.0423253450208,0.0410068457597,0.0395879958915,0.0380722675843,0.0364633700855,0.0347652406454,0.0329820348838,0.0311181166222,0.0291780472083,0.0271665743591,0.0250886205533,0.0229492710049,0.020753761258,0.0185074644602,0.0162158784103,0.0138846126161,0.0115193760769,0.00912596867633,0.00671029176596,0.00427850834686,0.0018398745955};

static double x64[64] = {-0.999305041736,-0.996340116772,-0.991013371477,-0.983336253885,-0.97332682779,-0.961008799652,-0.946411374858,-0.929569172132,-0.910522137079,-0.889315445995,-0.865999398154,-0.840629296253,-0.813265315123,-0.783972358943,-0.752819907261,-0.719881850172,-0.685236313054,-0.648965471255,-0.611155355172,-0.571895646203,-0.53127946402,-0.489403145707,-0.446366017253,-0.402270157964,-0.357220158338,-0.31132287199,-0.264687162209,-0.21742364374,-0.169644420424,-0.121462819296,-0.0729931217878,-0.0243502926634,0.0243502926634,0.0729931217878,0.121462819296,0.169644420424,0.21742364374,0.264687162209,0.31132287199,0.357220158338,0.402270157964,0.446366017253,0.489403145707,0.53127946402,0.571895646203,0.611155355172,0.648965471255,0.685236313054,0.719881850172,0.752819907261,0.783972358943,0.813265315123,0.840629296253,0.865999398154,0.889315445995,0.910522137079,0.929569172132,0.946411374858,0.961008799652,0.97332682779,0.983336253885,0.991013371477,0.996340116772,0.99930504173};
static double w64[64] = {0.00178328072169,0.00414703326056,0.00650445796898,0.00884675982636,0.0111681394601,0.0134630478967,0.015726030476,0.0179517157757,0.0201348231535,0.0222701738084,0.0243527025687,0.0263774697151,0.0283396726143,0.0302346570724,0.0320579283549,0.0338051618371,0.0354722132569,0.0370551285402,0.0385501531786,0.0399537411327,0.0412625632426,0.0424735151237,0.0435837245293,0.0445905581638,0.0454916279274,0.0462847965813,0.0469681828162,0.0475401657148,0.0479993885965,0.0483447622348,0.0485754674415,0.0486909570091,0.0486909570091,0.0485754674415,0.0483447622348,0.0479993885965,0.0475401657148,0.0469681828162,0.0462847965813,0.0454916279274,0.0445905581638,0.0435837245293,0.0424735151237,0.0412625632426,0.0399537411327,0.0385501531786,0.0370551285402,0.0354722132569,0.0338051618371,0.0320579283549,0.0302346570724,0.0283396726143,0.0263774697151,0.0243527025687,0.0222701738084,0.0201348231535,0.0179517157757,0.015726030476,0.0134630478967,0.0111681394601,0.00884675982636,0.00650445796898,0.00414703326056,0.001783280721};


static GaussWeights gauss_weights[] =
{

{   0,     x1,    w1},
{   1,     x2,    w2},
{   2,     x3,    w3},
{   3,     x4,    w4},
{   4,     x5,    w5},
{   5,     x6,    w6},
{   6,     x7,    w7},
{   7,     x8,    w8},
{   8,     x9,    w9},
{   9,     x10,    w10},
{   10,     x11,    w11},
{   11,     x12,    w12},
{   12,     x13,    w13},
{   13,     x14,    w14},
{   14,     x15,    w15},
{   15,     x16,    w16},
{   16,     x17,    w17},
{   17,     x18,    w18},
{   18,     x19,    w19},
{   19,     x20,    w20},
{   20,     x21,    w21},
{   21,     x22,    w22},
{   22,     x23,    w23},
{   23,     x24,    w24},
{   24,     x25,    w25},
{   25,     x26,    w26},
{   26,     x27,    w27},
{   27,     x28,    w28},
{   28,     x29,    w29},
{   29,     x30,    w30},
{   30,     x31,    w31},
{   31,     x32,    w32},
{   32,     x33,    w33},
{   33,     x34,    w34},
{   34,     x35,    w35},
{   35,     x36,    w36},
{   36,     x37,    w37},
{   37,     x38,    w38},
{   38,     x39,    w39},
{   39,     x40,    w40},
{   40,     x41,    w41},
{   41,     x42,    w42},
{   42,     x43,    w43},
{   43,     x44,    w44},
{   44,     x45,    w45},
{   45,     x46,    w46},
{   46,     x47,    w47},
{   47,     x48,    w48},
{   48,     x49,    w49},
{   49,     x50,    w50},
{   50,     x51,    w51},
{   51,     x52,    w52},
{   52,     x53,    w53},
{   53,     x54,    w54},
{   54,     x55,    w55},
{   55,     x56,    w56},
{   56,     x57,    w57},
{   57,     x58,    w58},
{   58,     x59,    w59},
{   59,     x60,    w60},
{   60,     x61,    w61},
{   61,     x62,    w62},
{   62,     x63,    w63},
{   63,     x64,    w64}
};
#define GAUSS_WEIGHTS_MAX 64
#endif //__GAUSSWEIGHTS_H_

