
/*
 * =====================================================================================
 *
 *       Filename:  GaussWeights.h
 *
 *    Description:  This file is autogenerated by scripts/GaussWeights.py
 *
 *         Author:  Paul P. Hilscher (2012) 
 *   
 * =====================================================================================
 */


#ifndef GAUSS_HERMITE_WEIGHTS_H_
#define GAUSS_HERMITE_WEIGHTS_H_

#define GAUSS_WEIGHTS_MAX 256


/* Merge all together */
// using from GSL glfixed
struct GaussWeights 
{
    int     n;
    double *points;
    double *weights;
};


static double x1[1] = {0.};
static double w1[1] = {1.7724538509};

static double x2[2] = {-0.707106781187,0.70710678118};
static double w2[2] = {0.886226925453,0.88622692545};

static double x3[3] = {-1.22474487139,2.14672030152e-17,1.2247448713};
static double w3[3] = {0.295408975151,1.1816359006,0.29540897515};

static double x4[4] = {-1.65068012389,-0.524647623275,0.524647623275,1.6506801238};
static double w4[4] = {0.0813128354472,0.804914090006,0.804914090006,0.081312835447};

static double x5[5] = {-2.02018287046,-0.958572464614,1.31853394211e-16,0.958572464614,2.0201828704};
static double w5[5] = {0.019953242059,0.393619323152,0.945308720483,0.393619323152,0.01995324205};

static double x6[6] = {-2.35060497367,-1.33584907401,-0.436077411928,0.436077411928,1.33584907401,2.3506049736};
static double w6[6] = {0.00453000990551,0.157067320323,0.724629595224,0.724629595224,0.157067320323,0.0045300099055};

static double x7[7] = {-2.65196135684,-1.67355162877,-0.816287882859,-1.16458622718e-16,0.816287882859,1.67355162877,2.6519613568};
static double w7[7] = {0.0009717812451,0.0545155828191,0.42560725261,0.810264617557,0.42560725261,0.0545155828191,0.00097178124509};

static double x8[8] = {-2.93063742026,-1.9816567567,-1.15719371245,-0.381186990207,0.381186990207,1.15719371245,1.9816567567,2.9306374202};
static double w8[8] = {0.000199604072211,0.0170779830074,0.207802325815,0.661147012558,0.661147012558,0.207802325815,0.0170779830074,0.00019960407221};

static double x9[9] = {-3.19099320178,-2.26658058453,-1.46855328922,-0.723551018753,2.61696701127e-16,0.723551018753,1.46855328922,2.26658058453,3.1909932017};
static double w9[9] = {3.96069772633e-05,0.00494362427554,0.0884745273944,0.432651559003,0.720235215606,0.432651559003,0.0884745273944,0.00494362427554,3.96069772633e-0};

static double x10[10] = {-3.43615911884,-2.53273167423,-1.7566836493,-1.03661082979,-0.342901327224,0.342901327224,1.03661082979,1.7566836493,2.53273167423,3.4361591188};
static double w10[10] = {7.64043285523e-06,0.00134364574678,0.0338743944555,0.240138611082,0.610862633735,0.610862633735,0.240138611082,0.0338743944555,0.00134364574678,7.64043285523e-0};

static double x11[11] = {-3.66847084656,-2.78329009978,-2.02594801583,-1.32655708449,-0.656809566882,7.26853319354e-16,0.656809566882,1.32655708449,2.02594801583,2.78329009978,3.6684708465};
static double w11[11] = {1.43956039372e-06,0.000346819466323,0.0119113954449,0.117227875168,0.429359752356,0.654759286915,0.429359752356,0.117227875168,0.0119113954449,0.000346819466323,1.43956039371e-0};

static double x12[12] = {-3.88972489787,-3.02063702512,-2.2795070805,-1.59768263515,-0.94778839124,-0.314240376254,0.314240376254,0.94778839124,1.59768263515,2.2795070805,3.02063702512,3.8897248978};
static double w12[12] = {2.65855168435e-07,8.57368704359e-05,0.00390539058463,0.0516079856159,0.260492310264,0.570135236262,0.570135236262,0.260492310264,0.0516079856159,0.00390539058463,8.57368704359e-05,2.65855168436e-0};

static double x13[13] = {-4.10133759618,-3.24660897837,-2.51973568568,-1.8531076516,-1.22005503659,-0.605763879171,-8.63952879471e-17,0.605763879171,1.22005503659,1.8531076516,2.51973568568,3.24660897837,4.1013375961};
static double w13[13] = {4.82573185007e-08,2.04303604027e-05,0.00120745999272,0.0208627752962,0.140323320687,0.421616296899,0.604393187921,0.421616296899,0.140323320687,0.0208627752962,0.00120745999272,2.04303604027e-05,4.82573185003e-0};

static double x14[14] = {-4.30444857047,-3.4626569336,-2.74847072499,-2.09518325851,-1.47668273114,-0.878713787329,-0.291745510673,0.291745510673,0.878713787329,1.47668273114,2.09518325851,2.74847072499,3.4626569336,4.3044485704};
static double w14[14] = {8.62859116815e-09,4.71648435502e-06,0.000355092613552,0.00785005472646,0.0685055342235,0.273105609064,0.536405909712,0.536405909712,0.273105609064,0.0685055342235,0.00785005472646,0.000355092613552,4.71648435502e-06,8.62859116814e-0};

static double x15[15] = {-4.49999070731,-3.6699503734,-2.96716692791,-2.32573248617,-1.71999257519,-1.13611558521,-0.565069583256,8.2948454756e-16,0.565069583256,1.13611558521,1.71999257519,2.32573248617,2.96716692791,3.6699503734,4.4999907073};
static double w15[15] = {1.52247580429e-09,1.05911554771e-06,0.000100004441232,0.00277806884291,0.0307800338725,0.158488915796,0.412028687499,0.564100308726,0.412028687499,0.158488915796,0.0307800338725,0.00277806884291,0.000100004441232,1.05911554771e-06,1.5224758043e-0};

static double x16[16] = {-4.68873893931,-3.86944790486,-3.17699916198,-2.54620215785,-1.95178799092,-1.3802585392,-0.822951449145,-0.273481046138,0.273481046138,0.822951449145,1.3802585392,1.95178799092,2.54620215785,3.17699916198,3.86944790486,4.6887389393};
static double w16[16] = {2.65480747391e-10,2.32098084486e-07,2.71186009254e-05,0.000932284008624,0.0128803115355,0.083810041399,0.280647458529,0.507929479017,0.507929479017,0.280647458529,0.083810041399,0.0128803115355,0.000932284008624,2.71186009254e-05,2.32098084486e-07,2.65480747379e-1};

static double x17[17] = {-4.87134519367,-4.06194667588,-3.37893209114,-2.7577629157,-2.17350282667,-1.61292431422,-1.06764872574,-0.531633001343,-3.18348518761e-16,0.531633001343,1.06764872574,1.61292431422,2.17350282667,2.7577629157,3.37893209114,4.06194667588,4.8713451936};
static double w17[17] = {4.58057893064e-11,4.97707898166e-08,7.11228914002e-06,0.000298643286698,0.00506734995763,0.0409200341498,0.17264829767,0.40182646947,0.530917937625,0.40182646947,0.17264829767,0.0409200341498,0.00506734995763,0.000298643286698,7.11228914002e-06,4.97707898162e-08,4.58057893072e-1};

static double x18[18] = {-5.04836400887,-4.24811787357,-3.57376906849,-2.96137750553,-2.38629908917,-1.83553160426,-1.30092085839,-0.776682919267,-0.258267750519,0.258267750519,0.776682919267,1.30092085839,1.83553160426,2.38629908917,2.96137750553,3.57376906849,4.24811787357,5.0483640088};
static double w18[18] = {7.82819977323e-12,1.04672057958e-08,1.8106544811e-06,9.18112686793e-05,0.00188852263027,0.0186400423875,0.0973017476413,0.28480728567,0.483495694725,0.483495694725,0.28480728567,0.0973017476413,0.0186400423875,0.00188852263027,9.18112686793e-05,1.81065448109e-06,1.04672057958e-08,7.82819977099e-1};

static double x19[19] = {-5.22027169054,-4.4285328066,-3.76218735196,-3.15784881835,-2.59113378979,-2.04923170985,-1.52417061939,-1.01036838713,-0.503520163424,6.2746698827e-16,0.503520163424,1.01036838713,1.52417061939,2.04923170985,2.59113378979,3.15784881835,3.76218735196,4.4285328066,5.2202716905};
static double w19[19] = {1.32629709369e-12,2.16305100988e-09,4.48824314722e-07,2.72091977632e-05,0.000670877521407,0.00798886677772,0.0508103869091,0.183632701307,0.391608988613,0.502974888276,0.391608988613,0.183632701307,0.0508103869091,0.00798886677772,0.000670877521407,2.72091977632e-05,4.48824314722e-07,2.16305100986e-09,1.32629709433e-1};

static double x20[20] = {-5.38748089001,-4.60368244955,-3.94476404012,-3.34785456738,-2.78880605843,-2.25497400209,-1.73853771212,-1.2340762154,-0.737473728545,-0.245340708301,0.245340708301,0.737473728545,1.2340762154,1.73853771212,2.25497400209,2.78880605843,3.34785456738,3.94476404012,4.60368244955,5.3874808900};
static double w20[20] = {2.22939364485e-13,4.39934099234e-10,1.08606937077e-07,7.80255647853e-06,0.000228338636016,0.00324377334224,0.0248105208875,0.10901720602,0.286675505363,0.462243669601,0.462243669601,0.286675505363,0.10901720602,0.0248105208875,0.00324377334224,0.000228338636016,7.80255647853e-06,1.08606937077e-07,4.39934099223e-10,2.22939364739e-1};

static double x21[21] = {-5.55035187326,-4.77399234341,-4.12199554749,-3.53197287714,-2.9799912077,-2.45355212451,-1.94496294919,-1.44893425065,-0.961499634418,-0.479450707079,5.62452341694e-16,0.479450707079,0.961499634418,1.44893425065,1.94496294919,2.45355212451,2.9799912077,3.53197287714,4.12199554749,4.77399234341,5.5503518732};
static double w21[21] = {3.72036506066e-14,8.818611243e-11,2.57123018008e-08,2.17188489806e-06,7.47839886731e-05,0.00125498204173,0.0114140658374,0.0601796466589,0.192120324067,0.381669073614,0.47902370312,0.381669073614,0.192120324067,0.0601796466589,0.0114140658374,0.00125498204173,7.47839886731e-05,2.17188489806e-06,2.57123018007e-08,8.81861124177e-11,3.72036506131e-1};

static double x22[22] = {-5.70920135321,-4.93983413106,-4.29431248059,-3.71070153288,-3.1652659092,-2.64563744106,-2.1442335928,-1.65587437329,-1.17671395848,-0.70368609717,-0.234179139931,0.234179139931,0.70368609717,1.17671395848,1.65587437329,2.1442335928,2.64563744106,3.1652659092,3.71070153288,4.29431248059,4.93983413106,5.7092013532};
static double w22[22] = {6.16718342443e-15,1.74433900751e-11,5.96699098608e-09,5.88428756331e-07,2.36551285525e-05,0.000464885050884,0.00497839933505,0.0311403708844,0.119102360959,0.286971433247,0.443545226435,0.443545226435,0.286971433247,0.119102360959,0.0311403708844,0.00497839933505,0.000464885050884,2.36551285525e-05,5.8842875633e-07,5.9669909861e-09,1.74433900742e-11,6.16718339756e-1};

static double x23[23] = {-5.86430949898,-5.10153461048,-4.46209117374,-3.88447270811,-3.34512715994,-2.83180378713,-2.33701621147,-1.85567703767,-1.38403958568,-0.919151465443,-0.458538350068,-2.24889223878e-16,0.458538350068,0.919151465443,1.38403958568,1.85567703767,2.33701621147,2.83180378713,3.34512715994,3.88447270811,4.46209117374,5.10153461048,5.8643094989};
static double w23[23] = {1.01603848408e-15,3.40831409951e-12,1.3596296504e-09,1.55533932915e-07,7.249295918e-06,0.000165561699142,0.00206956787496,0.0152070840045,0.0688902894291,0.198644898578,0.372143824878,0.458196585593,0.372143824878,0.198644898578,0.0688902894291,0.0152070840045,0.00206956787496,0.000165561699142,7.249295918e-06,1.55533932915e-07,1.35962965039e-09,3.40831409657e-12,1.01603843978e-1};

static double x24[24] = {-6.01592556143,-5.25938292767,-4.62566275642,-4.05366440245,-3.52000681303,-3.01254613757,-2.52388101701,-2.04900357366,-1.58425001096,-1.12676081761,-0.674171107037,-0.224414547473,0.224414547473,0.674171107037,1.12676081761,1.58425001096,2.04900357366,2.52388101701,3.01254613757,3.52000681303,4.05366440245,4.62566275642,5.25938292767,6.0159255614};
static double w24[24] = {1.66436836576e-16,6.58462023508e-13,3.04625426997e-10,4.01897117494e-08,2.1582457049e-06,5.6886916364e-05,0.000823692482688,0.00704835581007,0.0374454705032,0.127739621785,0.286179535346,0.426931163869,0.426931163869,0.286179535346,0.127739621785,0.0374454705032,0.00704835581007,0.000823692482688,5.6886916364e-05,2.1582457049e-06,4.01897117494e-08,3.04625427005e-10,6.58462024714e-13,1.66436852403e-1};

static double x25[25] = {-6.16427243405,-5.41363635528,-4.78532036735,-4.21860944439,-3.690282877,-3.18829492443,-2.70532023717,-2.23642013027,-1.77800112434,-1.32728070207,-0.881982756214,-0.440147298645,1.43636792935e-15,0.440147298645,0.881982756214,1.32728070207,1.77800112434,2.23642013027,2.70532023717,3.18829492443,3.690282877,4.21860944439,4.78532036735,5.41363635528,6.1642724340};
static double w25[25] = {2.71192388332e-17,1.25881499501e-13,6.71963841803e-11,1.01703825031e-08,6.25703249969e-07,1.89159729573e-05,0.000315083638745,0.00311570872013,0.0192430989654,0.0768889951758,0.203621136678,0.363088989276,0.439868722169,0.363088989276,0.203621136678,0.0768889951758,0.0192430989654,0.00311570872013,0.000315083638745,1.89159729573e-05,6.25703249969e-07,1.0170382503e-08,6.71963841728e-11,1.25881498539e-13,2.71192332232e-1};

static double x26[26] = {-6.30955038563,-5.56452498195,-4.94132495724,-4.37960266298,-3.85628841991,-3.35942718235,-2.88176221954,-2.41841576477,-1.96585478564,-1.52136151665,-1.08273301108,-0.648095213993,-0.215777856243,0.215777856243,0.648095213993,1.08273301108,1.52136151665,1.96585478564,2.41841576477,2.88176221954,3.35942718235,3.85628841991,4.37960266298,4.94132495724,5.56452498195,6.3095503856};
static double w26[26] = {4.3969162542e-18,2.38314865558e-14,1.46099993382e-11,2.52449403447e-09,1.7701063374e-07,6.10329171739e-06,0.000116229701603,0.00131906472232,0.00939790129116,0.0435982272173,0.135113327912,0.284632241177,0.41204365059,0.41204365059,0.284632241177,0.135113327912,0.0435982272173,0.00939790129116,0.00131906472232,0.000116229701603,6.1032917174e-06,1.7701063374e-07,2.5244940345e-09,1.46099993423e-11,2.38314866652e-14,4.39691620638e-1};

static double x27[27] = {-6.45194014075,-5.71225555282,-5.09391000311,-4.53690666337,-4.01831867041,-3.52627534013,-3.05358241982,-2.59541633891,-2.14829664536,-1.70956073926,-1.27706681734,-0.84901134206,-0.423807900544,-1.44825673149e-15,0.423807900544,0.84901134206,1.27706681734,1.70956073926,2.14829664536,2.59541633891,3.05358241982,3.52627534013,4.01831867041,4.53690666337,5.09391000311,5.71225555282,6.4519401407};
static double w27[27] = {7.09578207757e-19,4.47077245638e-15,3.13411761264e-12,6.15503157811e-10,4.89540040969e-08,1.9152809006e-06,4.14675800438e-05,0.000536769615688,0.00438127983579,0.0234159336253,0.0841730810841,0.207370480751,0.3545173041,0.423577288015,0.3545173041,0.207370480751,0.0841730810841,0.0234159336253,0.00438127983579,0.000536769615688,4.14675800438e-05,1.9152809006e-06,4.8954004097e-08,6.15503157828e-10,3.13411761167e-12,4.47077240579e-15,7.09578060562e-1};

static double x28[28] = {-6.59160544237,-5.85701464138,-5.2432853732,-4.69075652394,-4.17663674213,-3.68913423846,-3.22111207656,-2.76779535291,-2.32574984266,-1.89236049684,-1.46553726346,-1.04353527375,-0.624836719505,-0.208067382691,0.208067382691,0.624836719505,1.04353527375,1.46553726346,1.89236049684,2.32574984266,2.76779535291,3.22111207656,3.68913423846,4.17663674213,4.69075652394,5.2432853732,5.85701464138,6.5916054423};
static double w28[28] = {1.14013970289e-19,8.31593777747e-16,6.63943671825e-13,1.47585316828e-10,1.32568250155e-08,5.85771972099e-07,1.43455042297e-05,0.000210618100024,0.00195733129441,0.0119684232144,0.0495148892899,0.141394609787,0.282561391259,0.398604717826,0.398604717826,0.282561391259,0.141394609787,0.0495148892899,0.0119684232144,0.00195733129441,0.000210618100024,1.43455042297e-05,5.85771972099e-07,1.32568250154e-08,1.47585316836e-10,6.63943671932e-13,8.31593802614e-16,1.14013901336e-1};

static double x29[29] = {-6.72869519861,-5.99897128946,-5.38964052197,-4.84136365106,-4.33147829382,-3.84826679221,-3.38464514109,-2.93588250429,-2.49858569102,-2.07018107605,-1.64862291389,-1.23221575508,-0.819498681271,-0.409164636395,-1.36339280726e-15,0.409164636395,0.819498681271,1.23221575508,1.64862291389,2.07018107605,2.49858569102,2.93588250429,3.38464514109,3.84826679221,4.33147829382,4.84136365106,5.38964052197,5.99897128946,6.7286951986};
static double w29[29] = {1.82445495053e-20,1.53450057472e-16,1.39010727274e-13,3.48413016116e-11,3.52031232756e-09,1.74922912996e-07,4.82307349764e-06,7.99092035452e-05,0.00084079250614,0.00584550354527,0.027639655592,0.0907688422156,0.210142694449,0.346418939072,0.408971174635,0.346418939072,0.210142694449,0.0907688422156,0.027639655592,0.00584550354527,0.00084079250614,7.99092035452e-05,4.82307349765e-06,1.74922912995e-07,3.5203123276e-09,3.48413016097e-11,1.39010727052e-13,1.53450059603e-16,1.82447159183e-2};

static double x30[30] = {-6.86334529353,-6.13827922012,-5.53314715157,-4.98891896859,-4.48305535709,-4.00390860386,-3.54444387316,-3.09997052959,-2.66713212454,-2.24339146776,-1.8267411436,-1.4155278002,-1.00833827105,-0.603921058626,-0.201128576549,0.201128576549,0.603921058626,1.00833827105,1.4155278002,1.8267411436,2.24339146776,2.66713212454,3.09997052959,3.54444387316,4.00390860386,4.48305535709,4.98891896859,5.53314715157,6.13827922012,6.8633452935};
static double w30[30] = {2.90825498665e-21,2.81033307453e-17,2.87860707573e-14,8.10618629233e-12,9.1785804245e-10,5.10852245079e-08,1.57909488733e-06,2.93872522892e-05,0.000348310124319,0.00273792247307,0.0147038297048,0.0551441768702,0.146735847541,0.280130930839,0.386394889542,0.386394889542,0.280130930839,0.146735847541,0.0551441768702,0.0147038297048,0.00273792247307,0.000348310124319,2.93872522892e-05,1.57909488732e-06,5.10852245078e-08,9.17858042438e-10,8.10618629962e-12,2.87860708972e-14,2.81033366932e-17,2.90826958402e-2};

static double x31[31] = {-6.99568012372,-6.27507870494,-5.67396144462,-5.13359557711,-4.63155950631,-4.15627175582,-3.70074340323,-3.26032073231,-2.83168045339,-2.41231770548,-2.00025854894,-1.59388586047,-1.19182699835,-0.792876976915,-0.395942736471,-9.27324489597e-16,0.395942736471,0.792876976915,1.19182699835,1.59388586047,2.00025854894,2.41231770548,2.83168045339,3.26032073231,3.70074340323,4.15627175582,4.63155950631,5.13359557711,5.67396144462,6.27507870494,6.9956801237};
static double w31[31] = {4.61927340188e-22,5.11060743726e-18,5.89955649905e-15,1.86037351991e-12,2.35249200327e-10,1.46119883448e-08,5.04371255893e-07,1.04986027577e-05,0.00013952090395,0.00123368330731,0.00748279991403,0.0318472307313,0.0967179481609,0.212132788669,0.338772657894,0.395778556099,0.338772657894,0.212132788669,0.0967179481609,0.0318472307313,0.00748279991404,0.00123368330731,0.00013952090395,1.04986027577e-05,5.04371255894e-07,1.46119883449e-08,2.3524920032e-10,1.86037352216e-12,5.89955636438e-15,5.11060769058e-18,4.61884200748e-2};

static double x32[32] = {-7.12581390983,-6.40949814927,-5.81222594952,-5.27555098652,-4.7771645035,-4.30554795335,-3.85375548547,-3.41716749282,-2.992490825,-2.57724953773,-2.16949918361,-1.76765410946,-1.37037641095,-0.97650046359,-0.584978765436,-0.194840741569,0.194840741569,0.584978765436,0.97650046359,1.37037641095,1.76765410946,2.16949918361,2.57724953773,2.992490825,3.41716749282,3.85375548547,4.30554795335,4.7771645035,5.27555098652,5.81222594952,6.40949814927,7.1258139098};
static double w32[32] = {7.31118199845e-23,9.23173546364e-19,1.19734398761e-15,4.2150102103e-13,5.93329146332e-11,4.09883216473e-09,1.57416779255e-07,3.65058512956e-06,5.41658406182e-05,0.000536268365528,0.00365489032665,0.0175534288316,0.0604581309559,0.151269734077,0.277458142303,0.375238352593,0.375238352593,0.277458142303,0.151269734077,0.0604581309559,0.0175534288316,0.00365489032665,0.000536268365528,5.41658406182e-05,3.65058512956e-06,1.57416779255e-07,4.09883216477e-09,5.93329146342e-11,4.21501021067e-13,1.19734399352e-15,9.23173399499e-19,7.31078839199e-2};

static double x33[33] = {-7.25385182202,-6.54165544574,-5.94807118209,-5.41492900261,-4.9200285206,-4.45191114883,-4.00367160996,-3.57072198023,-3.1497966817,-2.73844582435,-2.33475115153,-1.93715458182,-1.54434826124,-1.15520020413,-0.768701379759,-0.383926014508,-1.91048826176e-15,0.383926014508,0.768701379759,1.15520020413,1.54434826124,1.93715458182,2.33475115153,2.73844582435,3.1497966817,3.57072198023,4.00367160996,4.45191114883,4.9200285206,5.41492900261,5.94807118209,6.54165544574,7.2538518220};
static double w33[33] = {1.1536240891e-23,1.65709601688e-19,2.40778560964e-16,9.4348141601e-14,1.47398093751e-11,1.12892224711e-09,4.80774567633e-08,1.2376933672e-06,2.04236840514e-05,0.000225442770596,0.00171845463776,0.00926568997069,0.0359879823186,0.102069079996,0.21349393115,0.331552000751,0.38378526652,0.331552000751,0.21349393115,0.102069079996,0.0359879823186,0.00926568997069,0.00171845463776,0.000225442770596,2.04236840514e-05,1.2376933672e-06,4.80774567632e-08,1.12892224708e-09,1.47398093724e-11,9.43481416582e-14,2.40778579556e-16,1.65709335308e-19,1.15364185307e-2};

static double x34[34] = {-7.37989095048,-6.67165913607,-6.08161699394,-5.55186133099,-5.06029601861,-4.59551974811,-4.15066560297,-3.72117523248,-3.30380843156,-2.89613894317,-2.49627194082,-2.10267369047,-1.71406255339,-1.32933555188,-0.947516458033,-0.567717268555,-0.189108060527,0.189108060527,0.567717268555,0.947516458033,1.32933555188,1.71406255339,2.10267369047,2.49627194082,2.89613894317,3.30380843156,3.72117523248,4.15066560297,4.59551974811,5.06029601861,5.55186133099,6.08161699394,6.67165913607,7.3798909504};
static double w34[34] = {1.81343727913e-24,2.9567113797e-20,4.79990232454e-17,2.0878403949e-14,3.60988174796e-12,3.05625204191e-10,1.43877329126e-08,4.09797403524e-07,7.4934487833e-06,9.18611898287e-05,0.000779817599623,0.00469846362927,0.020473151727,0.0654451341088,0.155110416623,0.274627715635,0.364992446997,0.364992446997,0.274627715635,0.155110416623,0.0654451341088,0.020473151727,0.00469846362927,0.000779817599623,9.18611898287e-05,7.4934487833e-06,4.09797403522e-07,1.43877329125e-08,3.05625204191e-10,3.60988174645e-12,2.08784038043e-14,4.79990236245e-17,2.95669760527e-20,1.81331980722e-2};

static double x35[35] = {-7.50402114645,-6.79960941328,-6.21297374763,-5.68646894809,-5.1980993462,-4.73651847741,-4.29489581449,-3.86870073097,-3.45471649575,-3.05053842043,-2.6542927812,-2.26446750104,-1.87980398873,-1.49922448861,-1.12178099072,-0.74661763988,-0.37294171705,3.41284851818e-16,0.37294171705,0.74661763988,1.12178099072,1.49922448861,1.87980398873,2.26446750104,2.6542927812,3.05053842043,3.45471649575,3.86870073097,4.29489581449,4.73651847741,5.1980993462,5.68646894809,6.21297374763,6.79960941328,7.5040211464};
static double w35[35] = {2.83912549136e-25,5.24563318651e-21,9.48988711084e-18,4.57044421083e-15,8.72252601775e-13,8.14069568534e-11,4.22397613004e-09,1.3269405173e-07,2.67981565462e-06,3.63527691742e-05,0.0003423400932,0.00229502832958,0.0111668065903,0.0400247751331,0.106872906955,0.214347190596,0.324728721575,0.372819973191,0.324728721575,0.214347190596,0.106872906955,0.0400247751331,0.0111668065903,0.00229502832958,0.0003423400932,3.63527691742e-05,2.67981565461e-06,1.32694051731e-07,4.22397613001e-09,8.14069568667e-11,8.72252601419e-13,4.57044406406e-15,9.48989087701e-18,5.24556063777e-21,2.84064955668e-2};

static double x36[36] = {-7.626325754,-6.92559899026,-6.34224333099,-5.81886327951,-5.33356010711,-4.87503997247,-4.43650697019,-4.01345656775,-3.60269385715,-3.20183394579,-2.80902223513,-2.42276604205,-2.04182718355,-1.66515000184,-1.29181095882,-0.920981801571,-0.55190143329,-0.183853367106,0.183853367106,0.55190143329,0.920981801571,1.29181095882,1.66515000184,2.04182718355,2.42276604205,2.80902223513,3.20183394579,3.60269385715,4.01345656775,4.43650697019,4.87503997247,5.33356010711,5.81886327951,6.34224333099,6.92559899026,7.62632575};
static double w36[36] = {4.44982150115e-26,9.25612764393e-22,1.86159779168e-18,9.902901985e-16,2.08091267309e-13,2.13535418162e-11,1.21786782095e-09,4.20749132309e-08,9.35557008977e-07,1.39970292203e-05,0.000145696159626,0.00108253475669,0.00585642598656,0.0234257675097,0.0701047501052,0.158355453751,0.27170124701,0.355540074274,0.355540074274,0.27170124701,0.158355453751,0.0701047501052,0.0234257675097,0.00585642598656,0.00108253475669,0.000145696159626,1.39970292203e-05,9.35557008977e-07,4.20749132311e-08,1.21786782096e-09,2.13535418179e-11,2.080912674e-13,9.90290166989e-16,1.86159636132e-18,9.25656364494e-22,4.41295592645e-2};

static double x37[37] = {-7.74688224965,-7.04971385578,-6.46952003652,-5.94914721746,-5.46679033597,-5.01120613857,-4.57563174867,-4.15558728113,-3.74789820648,-3.35019789497,-2.9606491813,-2.57777685811,-2.20036093401,-1.82736524876,-1.45788764687,-1.09112376498,-0.726339616605,-0.362849905051,1.99305981356e-15,0.362849905051,0.726339616605,1.09112376498,1.45788764687,1.82736524876,2.20036093401,2.57777685811,2.9606491813,3.35019789497,3.74789820648,4.15558728113,4.57563174867,5.01120613857,5.46679033597,5.94914721746,6.46952003652,7.04971385578,7.7468822496};
static double w37[37] = {6.92393423288e-27,1.62503115238e-22,3.62472911379e-19,2.12488520272e-16,4.90473936308e-14,5.5203972663e-12,3.45190622722e-10,1.30796988218e-08,3.192885481e-07,5.25214357712e-06,6.02269516527e-05,0.000494171501215,0.0029608001846,0.0131601799772,0.0439313622995,0.111179165107,0.214788875965,0.318274679754,0.362743757699,0.318274679754,0.214788875965,0.111179165107,0.0439313622995,0.0131601799772,0.0029608001846,0.000494171501215,6.02269516527e-05,5.25214357712e-06,3.192885481e-07,1.30796988218e-08,3.45190622721e-10,5.52039726463e-12,4.90473935604e-14,2.12488522705e-16,3.62472349994e-19,1.62499595925e-22,6.9877634223e-2};

static double x38[38] = {-7.86576280338,-7.17203393532,-6.59489132727,-6.07741600354,-5.59789351418,-5.14512932074,-4.71239213208,-4.29522541975,-3.89047376096,-3.49578745484,-3.10934531172,-2.72968796289,-2.35561173304,-1.98609777804,-1.62026275563,-1.2573231317,-0.896568346193,-0.537339810871,-0.179013723296,0.179013723296,0.537339810871,0.896568346193,1.2573231317,1.62026275563,1.98609777804,2.35561173304,2.72968796289,3.10934531172,3.49578745484,3.89047376096,4.29522541975,4.71239213208,5.14512932074,5.59789351418,6.07741600354,6.59489132727,7.17203393532,7.8657628033};
static double w38[38] = {1.07375160958e-27,2.83798897222e-23,7.00784193709e-20,4.51737098785e-17,1.14286168573e-14,1.40763334393e-12,9.62702929175e-11,3.99065288565e-09,1.06658657044e-07,1.92346568673e-06,2.42234151209e-05,0.000218757595339,0.00144630712156,0.00711523682613,0.0263805335205,0.0744439833682,0.161087971495,0.268723760029,0.346784117869,0.346784117869,0.268723760029,0.161087971495,0.0744439833682,0.0263805335205,0.00711523682613,0.00144630712156,0.000218757595339,2.42234151209e-05,1.92346568673e-06,1.06658657044e-07,3.99065288569e-09,9.62702929232e-11,1.40763334373e-12,1.14286169432e-14,4.5173720568e-17,7.0078354643e-20,2.83839268408e-23,1.07555251602e-2};

static double x39[39] = {-7.98303477272,-7.29263367087,-6.71843850644,-6.20375799773,-5.72696545178,-5.27691331523,-4.84690056874,-4.43249288259,-4.0305528146,-3.63874642487,-3.25526723599,-2.87867031137,-2.50776669389,-2.14155301199,-1.77916258285,-1.41983015769,-1.06286556728,-0.707633273349,-0.353535846996,2.23742409243e-16,0.353535846996,0.707633273349,1.06286556728,1.41983015769,1.77916258285,2.14155301199,2.50776669389,2.87867031137,3.25526723599,3.63874642487,4.0305528146,4.43249288259,4.84690056874,5.27691331523,5.72696545178,6.20375799773,6.71843850644,7.29263367087,7.9830347727};
static double w39[39] = {1.57943595943e-28,4.93448101845e-24,1.34571862301e-20,9.51931887749e-18,2.63409612805e-15,3.54265079969e-13,2.64400487716e-11,1.19616642376e-09,3.49150884389e-08,6.88442040934e-07,9.49429953614e-06,9.40772794677e-05,0.000684057595219,0.00371123023171,0.0152219808373,0.0476900713316,0.1150350458,0.214896076777,0.312162848867,0.353442635707,0.312162848867,0.214896076777,0.1150350458,0.0476900713316,0.0152219808373,0.00371123023171,0.000684057595219,9.40772794677e-05,9.49429953614e-06,6.88442040934e-07,3.49150884391e-08,1.19616642377e-09,2.64400487699e-11,3.54265080131e-13,2.63409608543e-15,9.51932000984e-18,1.34572139594e-20,4.93798633905e-24,1.66372485178e-2};

static double x40[40] = {-8.09876113925,-7.41158253149,-6.84023730525,-6.32825535122,-5.85409505603,-5.40665424797,-4.97926097855,-4.56750207284,-4.16825706683,-3.77920675344,-3.39855826586,-3.0248798839,-2.65699599844,-2.29391714188,-1.93479147228,-1.57886989493,-1.22548010905,-0.874006612357,-0.523874713832,-0.174537214598,0.174537214598,0.523874713832,0.874006612357,1.22548010905,1.57886989493,1.93479147228,2.29391714188,2.65699599844,3.0248798839,3.39855826586,3.77920675344,4.16825706683,4.56750207284,4.97926097855,5.40665424797,5.85409505603,6.32825535122,6.84023730525,7.41158253149,8.0987611392};
static double w40[40] = {2.27409734481e-29,8.53831274731e-25,2.56756364336e-21,1.98918279675e-18,6.00835858264e-16,8.80570764434e-14,7.15652805057e-12,3.52562079114e-10,1.12123608322e-08,2.41114416367e-07,3.63157615069e-06,3.93693398109e-05,0.000313853594541,0.0018714968296,0.00846088800826,0.0293125655362,0.0784746058654,0.163378732713,0.265728251877,0.338643277426,0.338643277426,0.265728251877,0.163378732713,0.0784746058654,0.0293125655362,0.00846088800826,0.0018714968296,0.000313853594541,3.93693398109e-05,3.63157615069e-06,2.41114416367e-07,1.12123608323e-08,3.52562079137e-10,7.15652805269e-12,8.80570763904e-14,6.00835862054e-16,1.98918361538e-18,2.56764339224e-21,8.5333699031e-25,2.63100783455e-2};

static double x41[41] = {-8.2130008956,-7.52894546454,-6.96035840064,-6.45098459717,-5.97936500417,-5.53444134061,-5.10956962653,-4.7003568963,-4.30369876715,-3.91728985484,-3.53934993736,-3.16845945394,-2.80345496148,-2.44335955312,-2.08733468192,-1.73464560882,-1.38463578916,-1.03670725292,-0.69030505233,-0.344904463015,2.28869303574e-15,0.344904463015,0.69030505233,1.03670725292,1.38463578916,1.73464560882,2.08733468192,2.44335955312,2.80345496148,3.16845945394,3.53934993736,3.91728985484,4.30369876715,4.7003568963,5.10956962653,5.53444134061,5.97936500417,6.45098459717,6.96035840064,7.52894546454,8.213000895};
static double w41[41] = {3.43433630374e-30,1.47421182046e-25,4.86850737885e-22,4.12340902498e-19,1.35698749789e-16,2.16298724224e-14,1.91038336546e-12,1.02267989268e-10,3.5356816483e-09,8.27265841878e-08,1.35737814049e-06,1.60559657367e-05,0.000139930256597,0.000914234256329,0.0045403929873,0.0173308813621,0.0512898723971,0.118484391247,0.21473086449,0.306367816938,0.344822083616,0.306367816938,0.21473086449,0.118484391247,0.0512898723971,0.0173308813621,0.0045403929873,0.000914234256329,0.000139930256597,1.60559657367e-05,1.35737814049e-06,8.27265841875e-08,3.53568164838e-09,1.02267989278e-10,1.91038336468e-12,2.16298724769e-14,1.3569875074e-16,4.1234052097e-19,4.86828255803e-22,1.47329531711e-25,2.95159519067e-3};

static double x42[42] = {-8.32580938957,-7.6447832957,-7.07886787305,-6.57201717139,-6.10285233438,-5.66035758128,-5.23791588502,-4.83115362913,-4.43698170588,-4.05310774442,-3.67776331639,-3.30954009651,-2.94728578231,-2.59003487062,-2.23696078705,-1.88734162054,-1.54053480092,-1.19595779438,-0.853072909161,-0.511374918315,-0.170380585562,0.170380585562,0.511374918315,0.853072909161,1.19595779438,1.54053480092,1.88734162054,2.23696078705,2.59003487062,2.94728578231,3.30954009651,3.67776331639,4.05310774442,4.43698170588,4.83115362913,5.23791588502,5.66035758128,6.10285233438,6.57201717139,7.07886787305,7.6447832957,8.3258093895};
static double w42[42] = {1.74612524042e-31,2.53127109089e-26,9.1774701648e-23,8.48212406599e-20,3.03589014832e-17,5.25333765289e-15,5.03270559175e-13,2.92172883788e-11,1.09580522882e-09,2.78347152655e-08,4.96365939357e-07,6.39024596774e-06,6.07196210779e-05,0.000433412271721,0.0023571613946,0.00987952405319,0.0322021012889,0.0822112693033,0.165288001275,0.262738906782,0.331048913891,0.331048913891,0.262738906782,0.165288001275,0.0822112693033,0.0322021012889,0.00987952405319,0.0023571613946,0.000433412271721,6.07196210779e-05,6.39024596774e-06,4.96365939358e-07,2.78347152655e-08,1.09580522881e-09,2.92172883723e-11,5.03270558213e-13,5.25333774281e-15,3.03589089207e-17,8.48217444838e-20,9.17778570043e-23,2.53435091481e-26,6.91382418556e-3};

static double x43[43] = {-8.43723863108,-7.75915308473,-7.19582761235,-6.69141987271,-6.22462896689,-5.78448031408,-5.36438290115,-4.95998167519,-4.56820207554,-4.18676402137,-3.81391012407,-3.44824248222,-3.0886190396,-2.73408469454,-2.38382370728,-2.03712568886,-1.69336053094,-1.35195936867,-1.01239968456,-0.674193276742,-0.336876196626,-1.52735727957e-15,0.336876196626,0.674193276742,1.01239968456,1.35195936867,1.69336053094,2.03712568886,2.38382370728,2.73408469454,3.0886190396,3.44824248222,3.81391012407,4.18676402137,4.56820207554,4.95998167519,5.36438290115,5.78448031408,6.22462896689,6.69141987271,7.19582761235,7.75915308473,8.4372386310};
static double w43[43] = {3.45443874406e-31,4.30679868562e-27,1.72028366504e-23,1.7320759511e-20,6.73081155803e-18,1.26220322683e-15,1.30921041604e-13,8.22710612033e-12,3.34071791521e-10,9.19319606764e-09,1.77778304454e-07,2.48513774241e-06,2.56805730771e-05,0.000199724356713,0.00118607009277,0.00544145529324,0.0194681601511,0.0547248090819,0.121567379886,0.214343497002,0.300865993868,0.336802965393,0.300865993868,0.214343497002,0.121567379886,0.0547248090819,0.0194681601511,0.00544145529324,0.00118607009277,0.000199724356713,2.56805730771e-05,2.48513774241e-06,1.77778304455e-07,9.19319606754e-09,3.34071791532e-10,8.22710612081e-12,1.30921041664e-13,1.26220322666e-15,6.73081033416e-18,1.73207763282e-20,1.72065242116e-23,4.37276672882e-27,3.20526900408e-3};

static double x44[44] = {-8.54733756674,-7.87210844277,-7.31129567892,-6.80925527154,-6.3447621649,-5.90688175903,-5.48904818388,-5.08692422976,-4.697449223,-4.31835472344,-3.94789371152,-3.58467799311,-3.22757497428,-2.87563908217,-2.52806442715,-2.18415101957,-1.84327992062,-1.50489443448,-1.16848546319,-0.833579761002,-0.499730208301,-0.166507467074,0.166507467074,0.499730208301,0.833579761002,1.16848546319,1.50489443448,1.84327992062,2.18415101957,2.52806442715,2.87563908217,3.22757497428,3.58467799311,3.94789371152,4.31835472344,4.697449223,5.08692422976,5.48904818388,5.90688175903,6.3447621649,6.80925527154,7.31129567892,7.87210844277,8.5473375667};
static double w44[44] = {6.87998644353e-32,7.2702840965e-28,3.20682094897e-24,3.51209808207e-21,1.47940876486e-18,3.00152105905e-16,3.365035627e-14,2.28480789687e-12,1.00260007784e-10,2.98312101911e-09,6.24272450625e-08,9.45453854229e-07,1.06001717725e-05,8.95979736406e-05,0.000579420432716,0.0029012937753,0.0113578669391,0.0350337571097,0.0856701873002,0.166867165826,0.259773396116,0.323942628842,0.323942628842,0.259773396116,0.166867165826,0.0856701873002,0.0350337571097,0.0113578669391,0.0029012937753,0.000579420432716,8.95979736406e-05,1.06001717725e-05,9.45453854229e-07,6.24272450628e-08,2.98312101904e-09,1.00260007789e-10,2.28480789712e-12,3.36503561281e-14,3.00152140095e-16,1.4794092481e-18,3.51214303228e-21,3.20656594467e-24,7.186811426e-28,8.42806809685e-3};

static double x45[45] = {-8.65615232599,-7.98369981622,-7.42532662586,-6.92558207328,-6.46331494366,-6.02762947225,-5.61198412184,-5.21205886316,-4.8248063087,-4.4479690736,-4.07980990793,-3.71894968934,-3.36426459586,-3.01481781975,-2.66981246525,-2.32855797145,-1.99044545865,-1.65492911915,-1.32151178564,-0.989733424866,-0.659161688874,-0.329383899697,1.35460598935e-15,0.329383899697,0.659161688874,0.989733424866,1.32151178564,1.65492911915,1.99044545865,2.32855797145,2.66981246525,3.01481781975,3.36426459586,3.71894968934,4.07980990793,4.4479690736,4.8248063087,5.21205886316,5.61198412184,6.02762947225,6.46331494366,6.92558207328,7.42532662586,7.98369981622,8.6561523259};
static double w45[45] = {5.15012410739e-32,1.14124546814e-28,5.9507304411e-25,7.07366764169e-22,3.22483127452e-19,7.06746197215e-17,8.550087505e-15,6.26203831289e-13,2.96420498957e-11,9.51826694149e-10,2.15128390742e-08,3.52251924152e-07,4.27545588639e-06,3.91832954488e-05,0.0002752424271,0.00150012788293,0.0064070706562,0.0216176444338,0.0579927466316,0.124320501929,0.213774878502,0.295635651967,0.329318455051,0.295635651967,0.213774878502,0.124320501929,0.0579927466316,0.0216176444338,0.0064070706562,0.00150012788293,0.0002752424271,3.91832954488e-05,4.2754558864e-06,3.52251924151e-07,2.15128390742e-08,9.51826694123e-10,2.96420498932e-11,6.26203831584e-13,8.55008744189e-15,7.06746175794e-17,3.22483351763e-19,7.07394921555e-22,5.94635748298e-25,1.26233019967e-28,4.33677498054e-3};

static double x46[46] = {-8.76372644258,-8.09397474127,-7.53797178723,-7.04045544281,-6.58034643474,-6.14678675451,-5.73325844185,-5.33545803606,-4.95035088674,-4.57569013457,-4.20974776133,-3.8511531505,-3.49879064125,-3.15173151964,-2.80918713548,-2.47047551323,-2.13499687297,-1.80221519506,-1.47164397173,-1.14283490313,-0.815368679345,-0.488847235851,-0.162887027955,0.162887027955,0.488847235851,0.815368679345,1.14283490313,1.47164397173,1.80221519506,2.13499687297,2.47047551323,2.80918713548,3.15173151964,3.49879064125,3.8511531505,4.20974776133,4.57569013457,4.95035088674,5.33545803606,5.73325844185,6.14678675451,6.58034643474,7.04045544281,7.53797178723,8.09397474127,8.7637264425};
static double w46[46] = {1.79490564603e-31,1.89086346666e-29,1.09940594583e-25,1.41564625904e-22,6.97381974258e-20,1.64844440715e-17,2.14864731176e-15,1.69470761896e-13,8.63914029138e-12,2.98854558786e-10,7.28163475661e-09,1.28653241306e-07,1.68694683973e-06,1.67259359207e-05,0.000127319837551,0.000753396734543,0.00350105785052,0.0128834875598,0.0377958309922,0.088868227566,0.168160127362,0.256844543507,0.317274384918,0.317274384918,0.256844543507,0.168160127362,0.088868227566,0.0377958309922,0.0128834875598,0.00350105785052,0.000753396734543,0.000127319837551,1.67259359207e-05,1.68694683974e-06,1.28653241306e-07,7.28163475656e-09,2.98854558799e-10,8.63914029145e-12,1.69470761677e-13,2.14864728259e-15,1.64844479796e-17,6.97378853986e-20,1.41556406428e-22,1.09798291477e-25,2.85645972631e-29,6.58798681102e-3};

static double x47[47] = {-8.87010105402,-8.2029780728,-7.64927953663,-7.15392729478,-6.69591221106,-6.26441301497,-5.85293461613,-5.45718955568,-5.07415541699,-4.70159538497,-4.33779018849,-3.98137721071,-3.63124840929,-3.28648257132,-2.94629863519,-2.61002247441,-2.27706257586,-1.946891758,-1.61903308136,-1.29304871701,-0.968530922738,-0.645094523028,-0.322370449156,4.06871266355e-15,0.322370449156,0.645094523028,0.968530922738,1.29304871701,1.61903308136,1.946891758,2.27706257586,2.61002247441,2.94629863519,3.28648257132,3.63124840929,3.98137721071,4.33779018849,4.70159538497,5.07415541699,5.45718955568,5.85293461613,6.26441301497,6.69591221106,7.15392729478,7.64927953663,8.2029780728,8.8701010540};
static double w47[47] = {1.58237395934e-31,3.77049610155e-30,2.01725223321e-26,2.81494969631e-23,1.49662643758e-20,3.8101470979e-18,5.34284249383e-16,4.53126764004e-14,2.4836135463e-12,9.24029788898e-11,2.42281349364e-09,4.61043648569e-08,6.51810552304e-07,6.9771079618e-06,5.74259382383e-05,0.000368061695875,0.00185625277887,0.00742969153789,0.0237655557624,0.0610943862218,0.126776700155,0.213058460265,0.290656873851,0.322311679411,0.290656873851,0.213058460265,0.126776700155,0.0610943862218,0.0237655557624,0.00742969153789,0.00185625277887,0.000368061695875,5.74259382383e-05,6.97710796179e-06,6.51810552304e-07,4.61043648566e-08,2.42281349372e-09,9.24029788836e-11,2.48361354312e-12,4.5312676467e-14,5.34284240604e-16,3.8101456249e-18,1.49662555859e-20,2.81545790212e-23,2.00972205028e-26,4.9652100749e-30,1.06509066818e-3};

static double x48[48] = {-8.97531508193,-8.3107521907,-7.75929551977,-7.26604655416,-6.81006457807,-6.38056409619,-5.97107222501,-5.57731698122,-5.19628771879,-4.82575722813,-4.46401454693,-4.10970460356,-3.76172649023,-3.41916596936,-3.08124898865,-2.74730862482,-2.41676090487,-2.08908666094,-1.7638175799,-1.44052522014,-1.1188121524,-0.798304627779,-0.478646337594,-0.159492935849,0.159492935849,0.478646337595,0.798304627779,1.1188121524,1.44052522014,1.7638175799,2.08908666094,2.41676090487,2.74730862482,3.08124898865,3.41916596936,3.76172649023,4.10970460356,4.46401454693,4.82575722813,5.19628771879,5.57731698122,5.97107222501,6.38056409619,6.81006457807,7.26604655416,7.75929551977,8.3107521907,8.9753150819};
static double w48[48] = {3.28979977019e-33,5.66197107821e-31,3.72752325806e-27,5.56655978711e-24,3.1884333585e-21,8.73016464772e-19,1.31515965353e-16,1.19758986658e-14,7.04693258556e-13,2.8152965373e-11,7.9304674953e-10,1.6225141359e-08,2.46865899366e-07,2.84725869173e-06,2.52859902775e-05,0.000175150431801,0.00095639231982,0.00415300491198,0.014444961575,0.0404796769846,0.0918222970793,0.169204471946,0.253961542665,0.311001030378,0.311001030378,0.253961542665,0.169204471946,0.0918222970793,0.0404796769846,0.014444961575,0.00415300491198,0.000956392319819,0.000175150431801,2.52859902775e-05,2.84725869173e-06,2.46865899367e-07,1.6225141359e-08,7.93046749516e-10,2.81529653784e-11,7.04693258154e-13,1.19758986547e-14,1.31515960833e-16,8.73015976381e-19,3.18837474653e-21,5.56393254904e-24,3.68900546801e-27,1.02630153774e-30,1.13314267302e-3};

static double x49[49] = {-9.0794053952,-8.41733718627,-7.86806286408,-7.37685939063,-6.92285283496,-6.49529256501,-6.08772728105,-5.69589998504,-5.31681137418,-4.948243443,-4.58849314027,-4.23621253007,-3.89030740577,-3.54987003721,-3.21413286846,-2.88243561065,-2.55420119395,-2.22891774539,-1.90612476099,-1.58540225146,-1.26636202369,-0.94864050761,-0.631892699511,-0.315786900524,5.37281521776e-16,0.315786900524,0.631892699511,0.94864050761,1.26636202369,1.58540225146,1.90612476099,2.22891774539,2.55420119395,2.88243561065,3.21413286846,3.54987003721,3.89030740577,4.23621253007,4.58849314027,4.948243443,5.31681137418,5.69589998504,6.08772728105,6.49529256501,6.92285283496,7.37685939063,7.86806286408,8.41733718627,9.079405395};
static double w49[49] = {1.02179540216e-32,5.38715490086e-31,6.86631739444e-28,1.09281728821e-24,6.74499374922e-22,1.98364212984e-19,3.20595868308e-17,3.13013917288e-15,1.97448493331e-13,8.45752417705e-12,2.55547024418e-10,5.61184287326e-09,9.17296132117e-08,1.13784119968e-06,1.08818054857e-05,8.12910464532e-05,0.000479520886005,0.00225367377534,0.00850180756295,0.0259003044383,0.0640324962122,0.128965598308,0.212221719258,0.285911451695,0.315733890036,0.285911451695,0.212221719258,0.128965598308,0.0640324962122,0.0259003044383,0.00850180756295,0.00225367377534,0.000479520886005,8.12910464532e-05,1.08818054857e-05,1.13784119968e-06,9.17296132117e-08,5.61184287339e-09,2.555470244e-10,8.45752417143e-12,1.97448493606e-13,3.13013914408e-15,3.20595893106e-17,1.98364148651e-19,6.74435800351e-22,1.0918795877e-24,6.85312022618e-28,1.76828829637e-31,2.78043356782e-3};

static double x50[50] = {-9.18240695813,-8.52277103092,-7.97562236821,-7.48640942986,-7.03432350977,-6.60864797386,-6.20295251927,-5.81299467542,-5.43578608722,-5.06911758492,-4.71129366617,-4.36097316045,-4.01706817286,-3.67867706252,-3.34503831394,-3.01549776957,-2.68948470227,-2.3664939043,-2.04607196869,-1.72780654752,-1.4113177549,-1.09625112896,-0.782271729555,-0.469059056678,-0.156302546889,0.156302546889,0.469059056678,0.782271729555,1.09625112896,1.4113177549,1.72780654752,2.04607196869,2.3664939043,2.68948470227,3.01549776957,3.34503831394,3.67867706252,4.01706817286,4.36097316045,4.71129366617,5.06911758492,5.43578608722,5.81299467542,6.20295251927,6.60864797386,7.03432350977,7.48640942986,7.97562236821,8.52277103092,9.1824069581};
static double w50[50] = {1.13635168558e-32,8.33590623125e-32,1.34136557522e-28,2.13843437351e-25,1.41707492773e-22,4.47097206059e-20,7.74238441178e-18,8.09426181812e-16,5.46594402843e-14,2.50665552315e-12,8.11187736567e-11,1.90904054379e-09,3.346793404e-08,4.45702996682e-07,4.58168270796e-06,3.68401905378e-05,0.000234269892109,0.00118901178175,0.00485326382617,0.0160319410684,0.0430791591568,0.0945489354771,0.170032455677,0.251130856332,0.305085129204,0.305085129204,0.251130856332,0.170032455677,0.0945489354771,0.0430791591568,0.0160319410684,0.00485326382617,0.00118901178175,0.000234269892109,3.68401905378e-05,4.58168270796e-06,4.45702996682e-07,3.34679340402e-08,1.90904054381e-09,8.11187736493e-11,2.5066555239e-12,5.46594403181e-14,8.09426189296e-16,7.74238293357e-18,4.47098561124e-20,1.41706383526e-22,2.13480073526e-25,1.29264636437e-28,1.5450670911e-31,4.92871594713e-3};

static double x51[51] = {-9.28435296509,-8.62708972936,-8.0820126735,-7.59473794458,-7.14452057148,-6.72067709587,-6.3167976579,-5.92865388587,-5.55326800526,-5.18843934294,-4.83247961458,-4.48405407906,-4.14208080196,-3.80566385675,-3.47404736166,-3.14658284377,-2.82270542331,-2.50191600406,-2.18376765254,-1.8678549557,-1.55380552946,-1.24127309662,-0.9299317156,-0.619470849747,-0.309591040937,-2.56142374842e-15,0.309591040937,0.619470849747,0.9299317156,1.24127309662,1.55380552946,1.8678549557,2.18376765254,2.50191600406,2.82270542331,3.14658284377,3.47404736166,3.80566385675,4.14208080196,4.48405407906,4.83247961458,5.18843934294,5.55326800526,5.92865388587,6.3167976579,6.72067709587,7.14452057148,7.59473794458,8.0820126735,8.62708972936,9.2843529650};
static double w51[51] = {3.32433487182e-32,1.40234046796e-31,2.36030832267e-29,4.1720381148e-26,2.95707755418e-23,9.99930862995e-21,1.85303062923e-18,2.07170657324e-16,1.49568632981e-14,7.33354227476e-13,2.53814983187e-11,6.39172748563e-10,1.19993265338e-08,1.71276041288e-07,1.88918339409e-06,1.63199542903e-05,0.000111657089319,0.00061070259874,0.00269110860586,0.00961612033332,0.0280122626021,0.0668113173188,0.130913769377,0.211287315882,0.281382763844,0.309543029447,0.281382763844,0.211287315882,0.130913769377,0.0668113173188,0.0280122626021,0.00961612033332,0.00269110860586,0.00061070259874,0.000111657089319,1.63199542903e-05,1.88918339409e-06,1.71276041287e-07,1.19993265339e-08,6.39172748535e-10,2.53814983176e-11,7.33354229406e-13,1.49568633006e-14,2.07170642787e-16,1.85303129497e-18,9.99939393581e-21,2.95879026771e-23,4.15412566804e-26,2.56781478528e-29,3.12992016628e-34,1.0526475684e-3};

static double x52[52] = {-9.38527496322,-8.73032745882,-8.18727041977,-7.70188402757,-7.2534856217,-6.83142413707,-6.42930963311,-6.04292743492,-5.66931000686,-5.30626485937,-4.95211062294,-4.60551868,-4.26541273888,-3.93090224996,-3.60123660102,-3.27577260581,-2.95395079255,-2.63527768759,-2.3193122828,-2.00565548173,-1.69394170054,-1.38383204621,-1.07500865712,-0.767169900124,-0.460026192437,-0.15329626692,0.15329626692,0.460026192437,0.767169900124,1.07500865712,1.38383204621,1.69394170054,2.00565548173,2.3193122828,2.63527768759,2.95395079255,3.27577260581,3.60123660102,3.93090224996,4.26541273888,4.60551868,4.95211062294,5.30626485937,5.66931000686,6.04292743492,6.42930963311,6.83142413707,7.2534856217,7.70188402757,8.18727041977,8.73032745882,9.3852749632};
static double w52[52] = {2.13643245795e-31,1.10094595183e-32,3.98949379751e-30,8.06958473912e-27,6.13540745841e-24,2.2197243245e-21,4.39669587219e-19,5.25031150967e-17,4.04737679331e-15,2.1189539576e-13,7.8326447572e-12,2.10763901844e-10,4.2306685774e-09,6.46230521731e-08,7.63556804029e-07,7.07410049875e-06,5.19759980829e-05,0.000305746246811,0.00145144799786,0.00559770226793,0.0176351669657,0.0455901841034,0.0970640555729,0.170671829344,0.248356885374,0.299494024852,0.299494024852,0.248356885374,0.170671829344,0.0970640555729,0.0455901841034,0.0176351669657,0.00559770226793,0.00145144799786,0.000305746246811,5.19759980829e-05,7.07410049876e-06,7.6355680403e-07,6.46230521729e-08,4.23066857743e-09,2.10763901847e-10,7.83264475712e-12,2.11895396262e-13,4.04737682402e-15,5.25031186641e-17,4.39670448157e-19,2.2197006151e-21,6.13673943851e-24,8.01977382827e-27,3.24367472472e-30,2.01491667247e-32,3.5512230988e-3};

static double x53[53] = {-9.48520296437,-8.83251669585,-8.29143038678,-7.8078847487,-7.36125806837,-6.94093092821,-6.54053281088,-6.15586236013,-5.78396196049,-5.42264701616,-5.07024279378,-4.7254265201,-4.38712725777,-4.0544595295,-3.72667766549,-3.40314341026,-3.08330230894,-2.76666607697,-2.45279914786,-2.14130819843,-1.83183383131,-1.52404384051,-1.21762764825,-0.91229161089,-0.607754965887,-0.30374624335,-1.42296013354e-15,0.30374624335,0.607754965887,0.91229161089,1.21762764825,1.52404384051,1.83183383131,2.14130819843,2.45279914786,2.76666607697,3.08330230894,3.40314341026,3.72667766549,4.0544595295,4.38712725777,4.7254265201,5.07024279378,5.42264701616,5.78396196049,6.15586236013,6.54053281088,6.94093092821,7.36125806837,7.8078847487,8.29143038678,8.83251669585,9.4852029643};
static double w53[53] = {7.03839943783e-32,4.77470632874e-32,8.00325182653e-31,1.54334558102e-27,1.26438667e-24,4.89168935331e-22,1.03453129019e-19,1.3179731238e-17,1.08354457478e-15,6.04958059286e-14,2.38522541155e-12,6.84877361631e-11,1.46784633373e-09,2.39578385565e-08,3.02756508793e-07,3.0032131336e-06,2.36547291856e-05,0.000149376047084,0.000762428467532,0.00316686537296,0.0107656660293,0.0300935350388,0.0694361055493,0.132645014992,0.21027400626,0.277055644035,0.303702594929,0.277055644035,0.21027400626,0.132645014992,0.0694361055493,0.0300935350388,0.0107656660293,0.00316686537296,0.000762428467532,0.000149376047084,2.36547291856e-05,3.0032131336e-06,3.02756508793e-07,2.39578385566e-08,1.46784633373e-09,6.84877361583e-11,2.38522541083e-12,6.04958058642e-14,1.08354456403e-15,1.31797322462e-17,1.03453060328e-19,4.8919292976e-22,1.26364172466e-24,1.54395172435e-27,5.59336343916e-31,9.03518487409e-35,4.5154687173e-3};

static double x54[54] = {-9.58416554752,-8.9336883321,-8.39452562333,-7.91277529781,-7.46787528348,-7.04923709868,-6.65050917857,-6.26750312937,-5.89727095764,-5.5376356924,-5.18692897959,-4.84383363458,-4.50728381182,-4.17639883048,-3.85043766837,-3.52876668149,-3.21083608253,-2.89616239046,-2.58431505187,-2.27490603754,-1.96758159739,-1.66201560266,-1.35790406624,-1.05496054187,-0.752912177475,-0.451496249806,-0.150457042921,0.150457042921,0.451496249806,0.752912177475,1.05496054187,1.35790406624,1.66201560266,1.96758159739,2.27490603754,2.58431505187,2.89616239046,3.21083608253,3.52876668149,3.85043766837,4.17639883048,4.50728381182,4.84383363458,5.18692897959,5.5376356924,5.89727095764,6.26750312937,6.65050917857,7.04923709868,7.46787528348,7.91277529781,8.39452562333,8.9336883321,9.5841655475};
static double w54[54] = {1.11069689959e-32,1.3234372398e-31,2.40637616705e-33,2.96732998678e-28,2.59457812272e-25,1.07057979703e-22,2.41468133439e-20,3.27825068014e-18,2.87098926041e-16,1.70734066432e-14,7.17134499794e-13,2.19439846759e-11,5.01473987028e-10,8.73344483579e-09,1.17861884658e-07,1.24981002841e-06,1.05354444418e-05,7.12943472725e-05,0.000390516172663,0.00174352542197,0.00638205941705,0.0192464413705,0.0480103061613,0.0993827871605,0.171146527996,0.245642470504,0.294199084527,0.294199084527,0.245642470504,0.171146527996,0.0993827871605,0.0480103061613,0.0192464413705,0.00638205941705,0.00174352542197,0.000390516172663,7.12943472725e-05,1.05354444418e-05,1.24981002841e-06,1.17861884658e-07,8.73344483583e-09,5.01473987047e-10,2.19439846768e-11,7.17134499786e-13,1.70734067335e-14,2.87098926309e-16,3.27825177815e-18,2.41468784e-20,1.07067494261e-22,2.59152094375e-25,2.86802944941e-28,1.17687298961e-32,8.04171184968e-32,9.30339013043e-3};

static double x55[55] = {-9.68218995256,-9.03387178018,-8.49658756491,-8.01658911486,-7.57337274654,-7.15638023434,-6.75927851868,-6.37789183191,-6.00928152325,-5.65127799626,-5.30221903885,-4.96079282023,-4.62593834692,-4.29677948403,-3.97257959048,-3.65270934641,-3.33662331893,-3.02384248642,-2.71394092756,-2.40653548262,-2.10127757333,-1.7978466126,-1.4959445978,-1.19529159042,-0.895621860462,-0.596680525476,-0.298220550493,-1.36842215034e-16,0.298220550493,0.596680525476,0.895621860462,1.19529159042,1.4959445978,1.7978466126,2.10127757333,2.40653548262,2.71394092756,3.02384248642,3.33662331893,3.65270934641,3.97257959048,4.29677948403,4.62593834692,4.96079282023,5.30221903885,5.65127799626,6.00928152325,6.37789183191,6.75927851868,7.15638023434,7.57337274654,8.01658911486,8.49658756491,9.03387178018,9.6821899525};
static double w55[55] = {7.49198204733e-32,1.73516794296e-31,2.16942738543e-32,5.99353251422e-29,5.24816895276e-26,2.32811579606e-23,5.59247261895e-21,8.08227279452e-19,7.53164498546e-17,4.76529857447e-15,2.12975352457e-13,6.93644396396e-12,1.68799933483e-10,3.13249582606e-09,4.50818819725e-08,5.1027034734e-07,4.59621831441e-06,3.32749777018e-05,0.000195254223695,0.000935264398044,0.0036789367196,0.0119438962719,0.0321377392326,0.0719127833668,0.134180639142,0.209197365519,0.272916251939,0.298180729566,0.272916251939,0.209197365519,0.134180639142,0.0719127833668,0.0321377392326,0.0119438962719,0.0036789367196,0.000935264398045,0.000195254223695,3.32749777018e-05,4.59621831441e-06,5.1027034734e-07,4.50818819723e-08,3.1324958261e-09,1.68799933474e-10,6.9364439628e-12,2.12975352848e-13,4.76529846042e-15,7.53164525149e-17,8.08227325898e-19,5.59248018968e-21,2.32731849969e-23,5.31364091777e-26,6.05638439387e-29,2.95402819713e-32,8.57596461479e-32,2.37241502906e-3};

static double x56[56] = {-9.77930216634,-9.13309507061,-8.59764614144,-8.11935800875,-7.67778417533,-7.26239602129,-6.86687856663,-6.48706835174,-6.12003580614,-5.76361847447,-5.41616006679,-5.07635388996,-4.74314358312,-4.4156573291,-4.0931626263,-3.77503421964,-3.46073074915,-3.14977734442,-2.84175237638,-2.53627717766,-2.23300792085,-1.93162908836,-1.63184812971,-1.33339101118,-1.03599843856,-0.739422585234,-0.44342419505,-0.147769954394,0.147769954394,0.44342419505,0.739422585234,1.03599843856,1.33339101118,1.63184812971,1.93162908836,2.23300792085,2.53627717766,2.84175237638,3.14977734442,3.46073074915,3.77503421964,4.0931626263,4.4156573291,4.74314358312,5.07635388996,5.41616006679,5.76361847447,6.12003580614,6.48706835174,6.86687856663,7.26239602129,7.67778417533,8.11935800875,8.59764614144,9.13309507061,9.7793021663};
static double w56[56] = {2.06309628456e-32,7.69053673289e-32,1.32081297309e-33,1.04305250035e-29,1.0781950441e-26,5.02740541628e-24,1.28553855544e-21,1.97566783339e-19,1.95692610796e-17,1.31585611809e-15,6.25044563317e-14,2.16419258727e-12,5.60139785123e-11,1.10620069768e-09,1.6954324256e-08,2.04544645365e-07,1.9657534004e-06,1.52010814923e-05,9.53959910478e-05,0.000489372935657,0.0020647475636,0.00720205223204,0.0208585741402,0.0503383974248,0.101519392718,0.171477247621,0.242989270993,0.289175084335,0.289175084335,0.242989270993,0.171477247621,0.101519392718,0.0503383974248,0.0208585741402,0.00720205223204,0.0020647475636,0.000489372935657,9.53959910478e-05,1.52010814923e-05,1.9657534004e-06,2.04544645365e-07,1.6954324256e-08,1.10620069769e-09,5.60139785047e-11,2.1641925885e-12,6.25044562975e-14,1.31585612514e-15,1.9569263283e-17,1.97566883604e-19,1.28554124846e-21,5.0313340034e-24,1.08143386808e-26,7.38372994016e-30,8.02260606189e-32,5.07665706868e-32,1.12586493699e-3};

static double x57[57] = {-9.87552700174,-9.23138494074,-8.69772987586,-8.22111226607,-7.78114164534,-7.36731837678,-6.9733451543,-6.595070525,-6.22957375172,-5.87469930202,-5.52879660391,-5.19056390238,-4.85894926772,-4.53308499207,-4.21224249364,-3.89580034729,-3.58322101214,-3.27403349219,-2.96782014648,-2.66420646371,-2.36285299345,-2.06344886978,-1.76570652511,-1.46935730115,-1.1741477394,-0.879836385892,-0.586190981572,-0.292985936048,3.14991927771e-15,0.292985936048,0.586190981572,0.879836385892,1.1741477394,1.46935730115,1.76570652511,2.06344886978,2.36285299345,2.66420646371,2.96782014648,3.27403349219,3.58322101214,3.89580034729,4.21224249364,4.53308499207,4.85894926772,5.19056390238,5.52879660391,5.87469930202,6.22957375172,6.595070525,6.9733451543,7.36731837678,7.78114164534,8.22111226607,8.69772987586,9.23138494074,9.8755270017};
static double w57[57] = {2.68172911459e-32,1.42599268172e-34,1.70635115784e-33,2.70956427184e-30,2.16608970906e-27,1.07866313053e-24,2.93386274041e-22,4.78971744878e-20,5.03766987944e-18,3.59615840333e-16,1.81355120666e-14,6.66805039531e-13,1.83337278594e-11,3.84832005054e-10,6.27323324225e-09,8.05600416908e-08,8.24864186288e-07,6.80306385129e-06,4.5587459694e-05,0.000250036684513,0.00112953332576,0.00422508422364,0.0131447264596,0.0341398011284,0.0742476753706,0.135539706873,0.208070364607,0.268951949807,0.292949488697,0.268951949807,0.208070364607,0.135539706873,0.0742476753706,0.0341398011284,0.0131447264596,0.00422508422364,0.00112953332576,0.000250036684513,4.5587459694e-05,6.8030638513e-06,8.24864186288e-07,8.05600416908e-08,6.27323324228e-09,3.84832005073e-10,1.83337278531e-11,6.66805038711e-13,1.81355121601e-14,3.59615841986e-16,5.03767068622e-18,4.78970715401e-20,2.93369332924e-22,1.07949561964e-24,2.02297019535e-27,3.80778139049e-31,2.26977067993e-31,1.2889294064e-33,2.82993944865e-3};

static double x58[58] = {-9.97088817046,-9.3287669165,-8.79686597466,-8.32188075065,-7.883475699,-7.47117956892,-7.07871234107,-6.70193428332,-6.33793325897,-5.98456045411,-5.64017082465,-5.3034673691,-4.97340240348,-4.6491121384,-4.3298717116,-4.0150633147,-3.70415299641,-3.39667338574,-3.09221055681,-2.79039385364,-2.49088786957,-2.19338601927,-1.89760530291,-1.60328197102,-1.31016787414,-1.01802733358,-0.726634407046,-0.435770448734,-0.145221882298,0.145221882298,0.435770448734,0.726634407046,1.01802733358,1.31016787414,1.60328197102,1.89760530291,2.19338601927,2.49088786957,2.79039385364,3.09221055681,3.39667338574,3.70415299641,4.0150633147,4.3298717116,4.6491121384,4.97340240348,5.3034673691,5.64017082465,5.98456045411,6.33793325897,6.70193428332,7.07871234107,7.47117956892,7.883475699,8.32188075065,8.79686597466,9.3287669165,9.9708881704};
static double w58[58] = {4.22105113216e-32,5.90496699232e-31,1.57153803079e-31,1.9240729638e-31,4.30096765785e-28,2.30401701534e-25,6.64815517056e-23,1.15196243805e-20,1.28526518942e-18,9.73052076001e-17,5.20427162317e-15,2.02974022895e-13,5.92177738567e-12,1.31960110577e-10,2.28507667667e-09,3.11952465717e-08,3.39847453245e-07,2.98513060918e-06,2.13273394542e-05,0.000124868930556,0.000602960613137,0.00241434545473,0.00805345827476,0.0224653141583,0.0525743740893,0.103487232593,0.171681927893,0.240398052195,0.284399705314,0.284399705314,0.240398052195,0.171681927893,0.103487232593,0.0525743740893,0.0224653141583,0.00805345827476,0.00241434545473,0.000602960613137,0.000124868930556,2.13273394542e-05,2.98513060918e-06,3.39847453245e-07,3.11952465717e-08,2.28507667663e-09,1.31960110588e-10,5.92177738543e-12,2.02974022479e-13,5.20427164657e-15,9.73052183539e-17,1.28526450742e-18,1.15196055382e-20,6.64785477957e-23,2.29373988805e-25,4.16946332503e-28,1.98384419691e-30,9.04618097623e-31,1.42022151423e-31,1.06262499433e-3};

static double x59[59] = {-10.0654083501,-9.42526538763,-8.89508041103,-8.42169099496,-7.98481544583,-7.57401032614,-7.18301253341,-6.80769378454,-6.44515032332,-6.09323986251,-5.75032270865,-5.4151064425,-5.08654745482,-4.76378569943,-4.4460998506,-4.13287552267,-3.82358214579,-3.51775574869,-3.2149858748,-2.9149054536,-2.61718282427,-2.32151535151,-2.02762423468,-1.73525022043,-1.4441500041,-1.15409315805,-0.864859461967,-0.576236536941,-0.288017703882,1.49000847633e-15,0.288017703882,0.576236536941,0.864859461967,1.15409315805,1.4441500041,1.73525022043,2.02762423468,2.32151535151,2.61718282427,2.9149054536,3.2149858748,3.51775574869,3.82358214579,4.13287552267,4.4460998506,4.76378569943,5.08654745482,5.4151064425,5.75032270865,6.09323986251,6.44515032332,6.80769378454,7.18301253341,7.57401032614,7.98481544583,8.42169099496,8.89508041103,9.42526538763,10.065408350};
static double w59[59] = {8.07716428849e-32,1.21300234052e-32,1.42153143896e-31,3.28779669566e-33,6.87274379796e-29,4.86060526921e-26,1.49643699288e-23,2.7492588258e-21,3.25080527657e-19,2.6076360948e-17,1.47763107244e-15,6.10667175167e-14,1.88844723705e-12,4.46246726267e-11,8.19896286886e-10,1.18842102281e-08,1.37574314039e-07,1.28524032708e-06,9.77619561997e-06,6.10088800849e-05,0.000314395389074,0.00134533320608,0.00480291203282,0.0143625593576,0.0360957697191,0.0764473096741,0.13673928336,0.206903832876,0.265151187634,0.287984243126,0.265151187634,0.206903832876,0.13673928336,0.0764473096741,0.0360957697191,0.0143625593576,0.00480291203282,0.00134533320608,0.000314395389075,6.10088800849e-05,9.77619561997e-06,1.28524032708e-06,1.37574314039e-07,1.1884210228e-08,8.19896286922e-10,4.46246726333e-11,1.88844723514e-12,6.10667177517e-14,1.47763101614e-15,2.60763544481e-17,3.25081439696e-19,2.74927249676e-21,1.49621666322e-23,4.85211397887e-26,8.09820051773e-29,8.33665793664e-34,5.41080642266e-33,1.15516089924e-31,5.54976030538e-3};

static double x60[60] = {-10.1591092462,-9.52090367701,-8.9923980014,-8.52056928412,-8.08518865425,-7.6758399375,-7.2862765944,-6.91238153219,-6.55125916706,-6.20077355799,-5.85929019639,-5.52552108614,-5.19842653458,-4.87715007747,-4.56097375794,-4.24928643596,-3.94156073393,-3.63733587617,-3.33620465355,-3.03780333823,-2.74180374807,-2.44790690231,-2.15583787123,-1.86534153123,-1.57617901198,-1.28812467487,-1.00096349956,-0.714488781673,-0.428500064221,-0.142801238703,0.142801238703,0.428500064221,0.714488781673,1.00096349956,1.28812467487,1.57617901198,1.86534153123,2.15583787123,2.44790690231,2.74180374807,3.03780333823,3.33620465355,3.63733587617,3.94156073393,4.24928643596,4.56097375794,4.87715007747,5.19842653458,5.52552108614,5.85929019639,6.20077355799,6.55125916706,6.91238153219,7.2862765944,7.6758399375,8.08518865425,8.52056928412,8.9923980014,9.52090367701,10.159109246};
static double w60[60] = {1.57672785196e-32,5.21146855731e-32,2.28136794114e-31,7.54428098226e-32,1.82818122554e-29,1.0365550831e-26,3.34425222006e-24,6.51289220817e-22,8.15361341245e-20,6.92324887317e-18,4.15244411785e-16,1.81662457818e-14,5.94843051823e-13,1.48895734911e-11,2.89935901306e-10,4.4568227752e-09,5.47555461929e-08,5.4335161342e-07,4.39428693627e-06,2.91874190416e-05,0.000160277334682,0.000731773556966,0.00279132482895,0.00893217836031,0.0240612727661,0.0547189709322,0.105298763698,0.171776156919,0.237868904959,0.279853117523,0.279853117523,0.237868904959,0.171776156919,0.105298763698,0.0547189709322,0.0240612727661,0.00893217836031,0.00279132482895,0.000731773556966,0.000160277334682,2.91874190416e-05,4.39428693627e-06,5.4335161342e-07,5.47555461928e-08,4.45682277523e-09,2.89935901281e-10,1.48895734906e-11,5.94843051606e-13,1.81662457626e-14,4.15244410969e-16,6.92324790927e-18,8.15364105417e-20,6.51252754006e-22,3.34548639821e-24,1.03005286353e-26,1.40113727234e-29,4.06341873322e-31,2.05387427459e-31,6.47349034803e-32,1.93504043396e-3};

static double x61[61] = {-10.2520116492,-9.61570410469,-9.08884247606,-8.61854073321,-8.18462183611,-7.77669634485,-7.38853394405,-7.01602848484,-6.6562923585,-6.30719580022,-5.96710933104,-5.63474922967,-5.30907957349,-4.98924733149,-4.6745377616,-4.36434280747,-4.05813811128,-3.75546590759,-3.45592203383,-3.15914588582,-2.86481251981,-2.57262634471,-2.28231600841,-1.99363019083,-1.70633409158,-1.4202064526,-1.13503699358,-0.850624164771,-0.56677314117,-0.283293995843,8.69454273673e-16,0.283293995843,0.56677314117,0.850624164771,1.13503699358,1.4202064526,1.70633409158,1.99363019083,2.28231600841,2.57262634471,2.86481251981,3.15914588582,3.45592203383,3.75546590759,4.05813811128,4.36434280747,4.6745377616,4.98924733149,5.30907957349,5.63474922967,5.96710933104,6.30719580022,6.6562923585,7.01602848484,7.38853394405,7.77669634485,8.18462183611,8.61854073321,9.08884247606,9.61570410469,10.252011649};
static double w61[61] = {1.81757792394e-31,2.20965221464e-31,1.4434142443e-31,6.90366559216e-31,2.03430537312e-30,2.154305436e-27,7.45069425294e-25,1.53161734216e-22,2.02855680173e-20,1.82161491555e-18,1.15536994314e-16,5.34548349102e-15,1.85151629638e-13,4.90418142885e-12,1.01100418939e-10,1.64626120239e-09,2.14400321772e-08,2.25708605205e-07,1.9382734961e-06,1.36840692975e-05,7.99580976095e-05,0.000388920853716,0.0015825583091,0.00540992966247,0.0155922903127,0.0380026514392,0.0785182701584,0.137794651528,0.205706831054,0.261503397814,0.28326318996,0.261503397814,0.205706831054,0.137794651528,0.0785182701584,0.0380026514392,0.0155922903127,0.00540992966247,0.0015825583091,0.000388920853716,7.99580976095e-05,1.36840692975e-05,1.9382734961e-06,2.25708605204e-07,2.14400321773e-08,1.64626120238e-09,1.01100418928e-10,4.90418143177e-12,1.85151629455e-13,5.3454835392e-15,1.1553699026e-16,1.82161605829e-18,2.02855726342e-20,1.53159857532e-22,7.4426812784e-25,2.12141546311e-27,3.11966523635e-30,2.03001071054e-33,3.59715840196e-34,1.09512932253e-31,1.64490521198e-3};

static double x62[62] = {-10.3441354878,-9.70968804698,-9.18443654422,-8.7156293586,-8.28314032445,-7.87660622747,-7.48981265153,-7.11866415633,-6.76028092102,-6.41253919653,-6.0738143878,-5.74282691,-5.4185444744,-5.10011734573,-4.78683385497,-4.47808888091,-4.17336092797,-3.87219507215,-3.57419001521,-3.27898807842,-2.98626733975,-2.6957353597,-2.40712410087,-2.12018575526,-1.83468926805,-1.55041739919,-1.26716420171,-0.984732822468,-0.70293355055,-0.421582052596,-0.140497744442,0.140497744442,0.421582052596,0.70293355055,0.984732822468,1.26716420171,1.55041739919,1.83468926805,2.12018575526,2.40712410087,2.6957353597,2.98626733975,3.27898807842,3.57419001521,3.87219507215,4.17336092797,4.47808888091,4.78683385497,5.10011734573,5.4185444744,5.74282691,6.0738143878,6.41253919653,6.76028092102,7.11866415633,7.48981265153,7.87660622747,8.28314032445,8.7156293586,9.18443654422,9.70968804698,10.344135487};
static double w62[62] = {3.14458549704e-32,1.63277268255e-31,4.74979944493e-32,2.13551732027e-32,1.23784458954e-31,4.26890782916e-28,1.64373782318e-25,3.57722881118e-23,5.00735896873e-21,4.75130258438e-19,3.18388862681e-17,1.55641764302e-15,5.69709499055e-14,1.59521488111e-12,3.47794375819e-11,5.99269286431e-10,8.263864762e-09,9.21857373363e-08,8.39563688184e-07,6.29192568413e-06,3.90669326887e-05,0.000202152179995,0.000876160041296,0.00319451049513,0.00983428226715,0.0256418445447,0.0567735564411,0.106965560359,0.171773511279,0.235401413766,0.275517634571,0.275517634571,0.235401413766,0.171773511279,0.106965560359,0.0567735564411,0.0256418445447,0.00983428226715,0.00319451049513,0.000876160041296,0.000202152179995,3.90669326887e-05,6.29192568413e-06,8.39563688183e-07,9.21857373358e-08,8.26386476185e-09,5.99269286427e-10,3.47794375877e-11,1.59521488018e-12,5.69709498842e-14,1.55641765123e-15,3.18388877477e-17,4.75130404218e-19,5.00737710036e-21,3.57662855569e-23,1.63400076877e-25,4.53286273744e-28,3.1410956974e-32,6.806682461e-32,5.87255307941e-33,4.1267150398e-32,3.92182379768e-3};

static double x63[63] = {-10.4354998779,-9.8028759913,-9.27920195431,-8.81185814373,-8.38076834519,-7.97559508014,-7.59013951986,-7.22031670789,-6.86325443318,-6.51683481068,-6.17943799227,-5.84978840008,-5.52685725264,-5.20979798304,-4.8979018645,-4.59056657444,-4.28727333528,-3.98756991042,-3.6910577001,-3.39738177133,-3.10622302793,-2.81729196728,-2.53032363047,-2.24507346048,-1.96131385831,-1.67883127917,-1.3974237486,-1.1168987051,-0.837071095589,-0.557761664279,-0.278795385671,-3.30734601564e-15,0.278795385671,0.557761664279,0.837071095589,1.1168987051,1.3974237486,1.67883127917,1.96131385831,2.24507346048,2.53032363047,2.81729196728,3.10622302793,3.39738177133,3.6910577001,3.98756991042,4.28727333528,4.59056657444,4.8979018645,5.20979798304,5.52685725264,5.84978840008,6.17943799227,6.51683481068,6.86325443318,7.22031670789,7.59013951986,7.97559508014,8.38076834519,8.81185814373,9.27920195431,9.8028759913,10.435499877};
static double w63[63] = {1.68384687099e-32,2.75644779783e-32,2.84965045399e-31,3.98732207339e-32,6.33542640124e-31,9.97635686919e-29,3.61215865684e-26,8.29211542074e-24,1.22665293141e-21,1.22884266685e-19,8.69255388884e-18,4.48570603948e-16,1.73358179173e-14,5.1265062342e-13,1.18089218451e-11,2.15086982984e-10,3.13719295351e-09,3.7041625985e-08,3.57347329498e-07,2.83931144985e-06,1.87091130038e-05,0.000102848808007,0.000474117026103,0.00184092226224,0.00604360445514,0.0168292991997,0.0398582640278,0.0804670879942,0.138719508177,0.204486953469,0.257998899431,0.278766948849,0.257998899431,0.204486953469,0.138719508177,0.0804670879942,0.0398582640278,0.0168292991997,0.00604360445514,0.00184092226224,0.000474117026103,0.000102848808007,1.87091130038e-05,2.83931144985e-06,3.573473295e-07,3.70416259849e-08,3.13719295354e-09,2.15086982979e-10,1.18089218446e-11,5.12650623852e-13,1.73358179558e-14,4.48570586893e-16,8.69255369587e-18,1.22884353768e-19,1.22666400773e-21,8.29629645424e-24,3.60111161008e-26,9.6102258257e-29,6.5262271927e-32,3.11624850475e-32,1.5690804031e-31,1.98388813607e-31,1.19754291904e-3};

static double x64[64] = {-10.526123168,-9.89528758683,-9.37315954965,-8.90724909996,-8.47752908338,-8.07368728501,-7.68954016404,-7.32101303278,-6.96524112055,-6.62011226264,-6.28401122877,-5.9556663268,-5.63405216435,-5.31832522463,-5.0077796022,-4.70181564741,-4.39991716823,-4.10163447457,-3.80657151395,-3.51437593574,-3.22473129199,-2.937350823,-2.65197243543,-2.36835458863,-2.08627287988,-1.80551717147,-1.52588914021,-1.24720015694,-0.969269423071,-0.69192230581,-0.414988824121,-0.138302244987,0.138302244987,0.414988824121,0.69192230581,0.969269423071,1.24720015694,1.52588914021,1.80551717147,2.08627287988,2.36835458863,2.65197243543,2.937350823,3.22473129199,3.51437593574,3.80657151395,4.10163447457,4.39991716823,4.70181564741,5.0077796022,5.31832522463,5.63405216435,5.9556663268,6.28401122877,6.62011226264,6.96524112055,7.32101303278,7.68954016404,8.07368728501,8.47752908338,8.90724909996,9.37315954965,9.89528758683,10.52612316};
static double w64[64] = {6.21949691208e-33,2.59279568285e-32,3.70655626534e-31,1.30676011557e-33,6.30278042124e-35,2.37466688818e-29,7.85135566233e-27,1.91039507647e-24,2.9826634855e-22,3.15225199212e-20,2.35188368032e-18,1.28009355676e-16,5.21862373694e-15,1.6283407262e-13,3.95917776626e-12,7.6152172506e-11,1.17361674232e-09,1.46512531648e-08,1.49553293673e-07,1.25834025103e-06,8.78849923085e-06,5.12592913579e-05,0.000250983698513,0.00103632909951,0.00362258697853,0.0107560405099,0.0272031289537,0.0587399819641,0.108498349306,0.171685842349,0.232994786063,0.271377424941,0.271377424941,0.232994786063,0.171685842349,0.108498349306,0.0587399819641,0.0272031289537,0.0107560405099,0.00362258697853,0.00103632909951,0.000250983698513,5.12592913579e-05,8.78849923085e-06,1.25834025103e-06,1.49553293673e-07,1.46512531648e-08,1.17361674232e-09,7.61521725015e-11,3.95917776695e-12,1.62834073071e-13,5.21862372659e-15,1.28009339132e-16,2.35188471065e-18,3.15225342376e-20,2.9828350311e-22,1.91199191062e-24,7.86294135928e-27,2.54759457746e-29,2.82640838659e-31,2.47373083008e-31,5.0417114638e-32,6.11986927244e-35,2.86868976026e-3};

static double x65[65] = {-10.6160229819,-9.98694169168,-9.46632932016,-9.00182332296,-8.57344474442,-8.17090617805,-7.78803908299,-7.42077883437,-7.06626794031,-6.72239982017,-6.38756373979,-6.06049177883,-5.74016182369,-5.4257332977,-5.11650300472,-4.81187385203,-4.51133211137,-4.21443050997,-3.92077540444,-3.63001687763,-3.34184096845,-3.05596348433,-2.77212500516,-2.4900867953,-2.20962741517,-1.93053987598,-1.65262921904,-1.37571042772,-1.09960660006,-0.824147324402,-0.549167211222,-0.274504541754,2.80589253814e-15,0.274504541754,0.549167211222,0.824147324402,1.09960660006,1.37571042772,1.65262921904,1.93053987598,2.20962741517,2.4900867953,2.77212500516,3.05596348433,3.34184096845,3.63001687763,3.92077540444,4.21443050997,4.51133211137,4.81187385203,5.11650300472,5.4257332977,5.74016182369,6.06049177883,6.38756373979,6.72239982017,7.06626794031,7.42077883437,7.78803908299,8.17090617805,8.57344474442,9.00182332296,9.46632932016,9.98694169168,10.616022981};
static double w65[65] = {1.79695979465e-32,3.11276907531e-33,2.12052114349e-31,1.2014366483e-31,5.07878891702e-32,4.28650224553e-30,1.6854692956e-27,4.37798993309e-25,7.20082210457e-23,8.0222790949e-21,6.30789574909e-19,3.61819997636e-17,1.55466358663e-15,5.11391746874e-14,1.31125160879e-12,2.66086534818e-11,4.32865615342e-10,5.70758293261e-09,6.15779622147e-08,5.48045603501e-07,4.05224939103e-06,2.50453428905e-05,0.000130082916298,0.000570398967524,0.00211998163204,0.00670140453801,0.0180694331127,0.0416611087625,0.0823001633697,0.139526139483,0.203250574154,0.254628811853,0.274478226559,0.254628811853,0.203250574154,0.139526139483,0.0823001633697,0.0416611087625,0.0180694331127,0.00670140453801,0.00211998163204,0.000570398967524,0.000130082916298,2.50453428905e-05,4.05224939102e-06,5.48045603502e-07,6.15779622145e-08,5.70758293278e-09,4.32865615345e-10,2.66086534779e-11,1.31125161064e-12,5.11391748172e-14,1.55466357224e-15,3.61819961905e-17,6.30789104574e-19,8.02221937132e-21,7.20175439678e-23,4.37821235669e-25,1.71292540702e-27,5.5467281013e-30,2.66419277598e-31,6.11276514416e-31,2.38951325358e-31,5.72039828768e-31,5.85639106399e-3};

static double x66[66] = {-10.7052162579,-10.0778564166,-9.55873045026,-9.09560104484,-8.66853661073,-8.2672741105,-7.88565972611,-7.51963869806,-7.16636065909,-6.8237244832,-6.49012381726,-6.16429440568,-5.84521731031,-5.53205479211,-5.22410626028,-4.92077707171,-4.62155584969,-4.32599762009,-4.03371102202,-3.74434843582,-3.45759824032,-3.17317865044,-2.89083274507,-2.61032440269,-2.33143493682,-2.05396027577,-1.77770856852,-1.50249812543,-1.22815562267,-0.954514513268,-0.68141359874,-0.408695723147,-0.13620655704,0.13620655704,0.408695723147,0.68141359874,0.954514513268,1.22815562267,1.50249812543,1.77770856852,2.05396027577,2.33143493682,2.61032440269,2.89083274507,3.17317865044,3.45759824032,3.74434843582,4.03371102202,4.32599762009,4.62155584969,4.92077707171,5.22410626028,5.53205479211,5.84521731031,6.16429440568,6.49012381726,6.8237244832,7.16636065909,7.51963869806,7.88565972611,8.2672741105,8.66853661073,9.09560104484,9.55873045026,10.0778564166,10.705216257};
static double w66[66] = {3.28305792383e-32,1.1316509252e-31,4.79951519204e-32,1.19198591597e-31,1.26709037526e-31,3.40331009976e-31,3.76170632766e-28,9.96500402379e-26,1.72681368327e-23,2.02589301783e-21,1.67751841994e-19,1.01323577069e-17,4.58486340534e-16,1.58855327006e-14,4.29164204841e-13,9.17956706196e-12,1.57479882165e-10,2.19100956765e-09,2.4958591862e-08,2.34709965737e-07,1.83519792211e-06,1.20052783442e-05,6.60611302199e-05,0.00030721561122,0.00121235966002,0.00407413494786,0.0116939448513,0.0287418550987,0.0606204591496,0.109907053134,0.171523517984,0.230647951991,0.267418269391,0.267418269391,0.230647951991,0.171523517984,0.109907053134,0.0606204591496,0.0287418550987,0.0116939448513,0.00407413494786,0.00121235966002,0.00030721561122,6.60611302199e-05,1.20052783443e-05,1.83519792211e-06,2.34709965737e-07,2.49585918618e-08,2.19100956764e-09,1.57479882167e-10,9.17956705851e-12,4.29164205582e-13,1.58855326763e-14,4.58486344371e-16,1.01323623524e-17,1.67751518686e-19,2.02590378618e-21,1.72664984298e-23,9.95829073368e-26,3.68495306791e-28,7.76084904395e-31,8.68554780969e-32,4.67847797041e-33,4.28932917204e-32,3.32422221997e-32,6.91241600526e-3};

static double x67[67] = {-10.7937192855,-10.1680491656,-9.65038136344,-9.18860168269,-8.76282509432,-8.36281250573,-7.98242455476,-7.61761615783,-7.26554392491,-6.92411206153,-6.59171848669,-6.26710250868,-5.94924826795,-5.63732076738,-5.33062192483,-5.02855944736,-4.73062420617,-4.43637341651,-4.14541788383,-3.85741216148,-3.57204683406,-3.28904237869,-3.00814421507,-2.72911866292,-2.45174959925,-2.17583566069,-1.90118787318,-1.62762761847,-1.35498486653,-1.08309661776,-0.811805509559,-0.540958549715,-0.27040594535,4.00111110778e-15,0.27040594535,0.540958549715,0.811805509559,1.08309661776,1.35498486653,1.62762761847,1.90118787318,2.17583566069,2.45174959925,2.72911866292,3.00814421507,3.28904237869,3.57204683406,3.85741216148,4.14541788383,4.43637341651,4.73062420617,5.02855944736,5.33062192483,5.63732076738,5.94924826795,6.26710250868,6.59171848669,6.92411206153,7.26554392491,7.61761615783,7.98242455476,8.36281250573,8.76282509432,9.18860168269,9.65038136344,10.1680491656,10.793719285};
static double w67[67] = {2.86438092213e-34,9.33732623555e-32,5.89197471764e-33,1.50451893033e-31,2.74027741772e-33,5.28151305445e-32,7.13950902299e-29,2.22943673113e-26,4.11344112604e-24,5.07787105751e-22,4.42457671081e-20,2.81201489914e-18,1.33893628001e-16,4.88243991328e-15,1.38860608887e-13,3.12793032348e-12,5.65373324224e-11,8.29203644324e-10,9.96343365506e-09,9.88988180494e-08,8.16854441121e-07,5.64938119749e-06,3.28957508948e-05,0.000162044736358,0.000678092903189,0.00241915914406,0.00738083328315,0.019308982903,0.0434102595623,0.084023710374,0.140225577306,0.202003048151,0.251384977047,0.270381536611,0.251384977047,0.202003048151,0.140225577306,0.084023710374,0.0434102595623,0.019308982903,0.00738083328315,0.00241915914406,0.000678092903189,0.000162044736358,3.28957508948e-05,5.6493811975e-06,8.1685444112e-07,9.88988180489e-08,9.96343365516e-09,8.29203644294e-10,5.6537332415e-11,3.12793032485e-12,1.38860609119e-13,4.88243983178e-15,1.33893623604e-16,2.81201403777e-18,4.42458105352e-20,5.07798988285e-22,4.11126975523e-24,2.26697641349e-26,7.15085079397e-29,1.67768520416e-31,1.08153394855e-31,2.27216951435e-32,6.64443342106e-33,1.24817976329e-31,1.07174339195e-3};

static double x68[68] = {-10.8815477395,-10.2575366741,-9.74129976369,-9.28084388355,-8.85632978558,-8.45754191199,-8.07835509928,-7.7147337577,-7.36384133351,-7.0235872465,-6.69237358457,-6.36894312474,-6.05228299505,-5.7415608508,-5.43608102845,-5.13525349291,-4.8385712674,-4.54559365578,-4.25593352295,-3.96924748116,-3.68522819809,-3.40359828042,-3.12410534479,-2.84651799523,-2.57062250058,-2.29622001728,-2.02312424058,-1.75115939401,-1.48015848678,-1.20996178349,-0.940415441259,-0.671370277648,-0.402680638558,-0.134203339935,0.134203339935,0.402680638558,0.671370277648,0.940415441259,1.20996178349,1.48015848678,1.75115939401,2.02312424058,2.29622001728,2.57062250058,2.84651799523,3.12410534479,3.40359828042,3.68522819809,3.96924748116,4.25593352295,4.54559365578,4.8385712674,5.13525349291,5.43608102845,5.7415608508,6.05228299505,6.36894312474,6.69237358457,7.0235872465,7.36384133351,7.7147337577,8.07835509928,8.45754191199,8.85632978558,9.28084388355,9.74129976369,10.2575366741,10.881547739};
static double w68[68] = {1.26335550542e-31,1.92867103084e-31,1.73006535369e-32,7.48457739522e-32,4.95565447533e-32,4.02907851198e-33,1.73142514395e-29,5.03896577801e-27,9.71891566396e-25,1.26372580729e-22,1.15771821201e-20,7.73622026e-19,3.87315117188e-17,1.48524941161e-15,4.44330939612e-14,1.05316306526e-12,2.00385878792e-11,3.09529869256e-10,3.91930483188e-09,4.10233197761e-08,3.57549930186e-07,2.6114965376e-06,1.60731542329e-05,8.37679285711e-05,0.000371241047142,0.00140421121621,0.00454766326861,0.0126447198717,0.0302553110102,0.0624174607947,0.111200838313,0.171295627046,0.228359641473,0.26362735601,0.26362735601,0.228359641473,0.171295627046,0.111200838313,0.0624174607947,0.0302553110102,0.0126447198717,0.00454766326861,0.00140421121621,0.000371241047142,8.37679285711e-05,1.60731542329e-05,2.6114965376e-06,3.57549930187e-07,4.1023319776e-08,3.91930483189e-09,3.09529869288e-10,2.00385878806e-11,1.05316306471e-12,4.44330938848e-14,1.48524943215e-15,3.87315169025e-17,7.73621327751e-19,1.15772621474e-20,1.2636179882e-22,9.72816655131e-25,5.04424721936e-27,2.26924058647e-29,2.4077086709e-30,5.32863819528e-32,1.99880702572e-31,1.09459982362e-31,8.99085682918e-33,2.97628119461e-3};

static double x69[69] = {-10.9687167123,-10.3463350439,-9.83150267403,-9.37234556634,-8.9490694986,-8.55148205142,-8.17347201179,-7.81101310876,-7.46127548984,-7.12217367731,-6.79211382994,-6.46984210352,-6.15434852816,-5.8448033277,-5.54051317308,-5.24089020129,-4.9454294986,-4.65369236439,-4.36529362454,-4.07989184529,-3.79718166492,-3.51688769851,-3.23875962831,-2.96256819999,-2.68810191844,-2.41516428929,-2.14357148964,-1.8731503781,-1.60373677458,-1.33517395429,-1.06731131196,-0.800003159873,-0.533107629883,-0.266485653808,4.39600854648e-16,0.266485653808,0.533107629883,0.800003159873,1.06731131196,1.33517395429,1.60373677458,1.8731503781,2.14357148964,2.41516428929,2.68810191844,2.96256819999,3.23875962831,3.51688769851,3.79718166492,4.07989184529,4.36529362454,4.65369236439,4.9454294986,5.24089020129,5.54051317308,5.8448033277,6.15434852816,6.46984210352,6.79211382994,7.12217367731,7.46127548984,7.81101310876,8.17347201179,8.55148205142,8.9490694986,9.37234556634,9.83150267403,10.3463350439,10.968716712};
static double w69[69] = {7.01429967158e-32,5.89817237928e-33,1.04895078007e-31,2.82218967927e-32,4.85573530371e-33,4.14745288397e-31,3.85972102073e-30,1.12742908191e-27,2.29055619958e-25,3.12190613749e-23,3.00583942929e-21,2.11034740597e-19,1.11009970088e-17,4.47324780626e-16,1.40654095487e-14,3.50507869238e-13,7.01446823238e-12,1.14013925545e-10,1.51993817407e-09,1.6759992864e-08,1.53992925029e-07,1.18658723539e-06,7.71104127696e-06,4.24695764339e-05,0.000199096090553,0.000797438201141,0.00273776589988,0.00807945633038,0.0205446559226,0.0451052672917,0.0856437195568,0.140827737944,0.200748876887,0.248259889921,0.266462963616,0.248259889921,0.200748876887,0.140827737944,0.0856437195568,0.0451052672917,0.0205446559226,0.00807945633038,0.00273776589988,0.000797438201141,0.000199096090553,4.24695764339e-05,7.71104127697e-06,1.18658723539e-06,1.53992925029e-07,1.67599928642e-08,1.5199381741e-09,1.14013925535e-10,7.01446823519e-12,3.50507869477e-13,1.40654095694e-14,4.4732478502e-16,1.11009949886e-17,2.11034687933e-19,3.00583660646e-21,3.12216575267e-23,2.28722461934e-25,1.13118556629e-27,3.59880911002e-30,2.33399470024e-31,9.19249371252e-32,3.15952563978e-32,6.37465417257e-31,8.47564952127e-31,1.38221502623e-3};

static double x70[70] = {-11.0552407431,-10.4344597763,-9.92100647257,-9.46312396085,-9.04106231333,-8.6446518655,-8.26779511523,-7.90647494197,-7.55786806499,-7.2198940023,-6.89096289039,-6.56982417876,-6.25547071888,-5.94707522447,-5.64394662235,-5.34549914157,-5.05122984897,-4.76070195317,-4.47353215014,-4.18938086349,-3.90794459887,-3.62894986864,-3.35214830077,-3.07731265245,-2.80423352293,-2.53271661229,-2.26258040979,-1.99365422262,-1.7257764756,-1.45879322695,-1.19255685637,-0.926924889707,-0.661758930813,-0.396923675643,-0.13228598727,0.13228598727,0.396923675643,0.661758930813,0.926924889707,1.19255685637,1.45879322695,1.7257764756,1.99365422262,2.26258040979,2.53271661229,2.80423352293,3.07731265245,3.35214830077,3.62894986864,3.90794459887,4.18938086349,4.47353215014,4.76070195317,5.05122984897,5.34549914157,5.64394662235,5.94707522447,6.25547071888,6.56982417876,6.89096289039,7.2198940023,7.55786806499,7.90647494197,8.26779511523,8.6446518655,9.04106231333,9.46312396085,9.92100647257,10.4344597763,11.055240743};
static double w70[70] = {1.1668580632e-32,1.48016367949e-33,8.24329819451e-32,8.21830928409e-32,8.59351813567e-32,1.8281092854e-32,5.07543013645e-32,2.54109692445e-28,5.33128943351e-26,7.6608410285e-24,7.74558823174e-22,5.70949770103e-20,3.15332115736e-18,1.33424351141e-16,4.40611758294e-15,1.153495253e-13,2.42596230411e-12,4.14579103404e-11,5.81373444821e-10,6.74733128804e-09,6.52929341897e-08,5.30248563352e-07,3.63449040471e-06,2.11312332673e-05,0.00010466994285,0.000443399996633,0.00161173539536,0.00504163674764,0.0136053275606,0.0317412781901,0.0641336409854,0.11238816502,0.171010152936,0.226128443837,0.259993106203,0.259993106203,0.226128443837,0.171010152936,0.11238816502,0.0641336409854,0.03174127819,0.0136053275606,0.00504163674764,0.00161173539536,0.000443399996633,0.00010466994285,2.11312332673e-05,3.63449040472e-06,5.30248563351e-07,6.52929341895e-08,6.74733128813e-09,5.81373444843e-10,4.14579103325e-11,2.42596230224e-12,1.15349525602e-13,4.40611753979e-15,1.33424346812e-16,3.15332105987e-18,5.70951243218e-20,7.74547578319e-22,7.66152682863e-24,5.34521032934e-26,2.53903752799e-28,8.64370972092e-31,1.15154132636e-31,8.46800288918e-31,3.81995294286e-32,1.57555316882e-32,3.37741823186e-34,1.42154746686e-3};

static double x71[71] = {-11.1411338466,-10.5219258032,-10.009826926,-9.55319564412,-9.13232561492,-8.73706955742,-8.36134344901,-8.00113915725,-7.65363984895,-7.3167699358,-6.98894344333,-6.66891303409,-6.35567430485,-6.0484023852,-5.74640838423,-5.44910854847,-5.15600184847,-4.86665332214,-4.58068145145,-4.2977484283,-4.01755253063,-3.7398220662,-3.46431049882,-3.19079247834,-2.91906056928,-2.64892252543,-2.38019899436,-2.11272156302,-1.84633107548,-1.58087616803,-1.31621197862,-1.05219899496,-0.788702012635,-0.525589178778,-0.262731100519,-5.26069014309e-15,0.262731100519,0.525589178778,0.788702012635,1.05219899496,1.31621197862,1.58087616803,1.84633107548,2.11272156302,2.38019899436,2.64892252543,2.91906056928,3.19079247834,3.46431049882,3.7398220662,4.01755253063,4.2977484283,4.58068145145,4.86665332214,5.15600184847,5.44910854847,5.74640838423,6.0484023852,6.35567430485,6.66891303409,6.98894344333,7.3167699358,7.65363984895,8.00113915725,8.36134344901,8.73706955742,9.13232561492,9.55319564412,10.009826926,10.5219258032,11.141133846};
static double w71[71] = {1.20462680447e-32,1.77644509168e-32,1.92692057921e-34,3.70156160863e-35,1.25771764911e-31,5.1566812791e-32,1.04992815093e-30,6.26110370946e-29,1.24864996015e-26,1.86692944236e-24,1.98140834954e-22,1.53237676917e-20,8.87961633704e-19,3.94237020389e-17,1.36631457762e-15,3.75486966788e-14,8.29264191042e-13,1.48875274763e-11,2.19423309995e-10,2.67797611714e-09,2.72678330162e-08,2.33165413471e-07,1.68401727391e-06,1.03250590771e-05,5.39795614038e-05,0.00024157232921,0.000928590864576,0.00307502216119,0.00879492221367,0.0217735467378,0.0467460775761,0.0871659339159,0.141341545056,0.199491844601,0.245246635949,0.262709964129,0.245246635949,0.199491844601,0.141341545056,0.0871659339159,0.0467460775761,0.0217735467378,0.00879492221367,0.00307502216119,0.000928590864577,0.00024157232921,5.39795614038e-05,1.03250590771e-05,1.68401727391e-06,2.33165413472e-07,2.72678330161e-08,2.67797611711e-09,2.19423309997e-10,1.48875274789e-11,8.29264190282e-13,3.75486966807e-14,1.36631459028e-15,3.94237042335e-17,8.87961683153e-19,1.53237333128e-20,1.98127019118e-22,1.86770689233e-24,1.2395912453e-26,5.59145013948e-29,3.70921719855e-31,3.32126373392e-34,8.93774098027e-33,3.04136302365e-31,5.93838435163e-32,1.0992677539e-30,1.6741608598e-3};

static double x72[72] = {-11.2264095381,-10.6087475152,-10.097979221,-9.64257657441,-9.22287613028,-8.82875263155,-8.4541353114,-8.09502486913,-7.74861079969,-7.41282231081,-7.08607723257,-6.76713136405,-6.45498297537,-6.14880954237,-5.84792428737,-5.55174540459,-5.25977369676,-4.97157595678,-4.6867723747,-4.40502682837,-4.1260392804,-3.8495397402,-3.57528340667,-3.30304671349,-3.03262407256,-2.76382516316,-2.49647265125,-2.23040025053,-1.96545105626,-1.70147609797,-1.43833306771,-1.17588518911,-0.914000198664,-0.652549415327,-0.391406878266,-0.130448535093,0.130448535093,0.391406878266,0.652549415327,0.914000198664,1.17588518911,1.43833306771,1.70147609797,1.96545105626,2.23040025053,2.49647265125,2.76382516316,3.03262407256,3.30304671349,3.57528340667,3.8495397402,4.1260392804,4.40502682837,4.6867723747,4.97157595678,5.25977369676,5.55174540459,5.84792428737,6.14880954237,6.45498297537,6.76713136405,7.08607723257,7.41282231081,7.74861079969,8.09502486913,8.4541353114,8.82875263155,9.22287613028,9.64257657441,10.097979221,10.6087475152,11.226409538};
static double w72[72] = {3.56882602125e-33,1.14172285903e-32,4.92930439871e-32,2.42941269082e-32,1.55224772186e-31,6.1067500364e-32,3.90392217308e-31,1.47874749937e-29,2.90597243024e-27,4.52874052763e-25,5.03261421815e-23,4.08079504575e-21,2.47939539443e-19,1.15426651025e-17,4.19530254661e-16,1.20940943585e-14,2.80266933327e-13,5.28161496562e-12,8.17495898561e-11,1.04830884209e-09,1.12217589117e-08,1.00943151689e-07,7.67472737518e-07,4.95724902087e-06,2.73252852682e-05,0.000129048537003,0.000523978118213,0.00183468791556,0.00555449978114,0.0145729665661,0.0331979717451,0.0657717710877,0.11347683695,0.170674121227,0.223952853957,0.25650502626,0.25650502626,0.223952853957,0.170674121227,0.11347683695,0.0657717710877,0.0331979717451,0.0145729665661,0.00555449978114,0.00183468791556,0.000523978118213,0.000129048537003,2.73252852682e-05,4.95724902087e-06,7.67472737519e-07,1.00943151689e-07,1.12217589115e-08,1.04830884209e-09,8.1749589868e-11,5.28161496593e-12,2.80266932897e-13,1.20940946504e-14,4.19530240736e-16,1.15426675565e-17,2.47939637662e-19,4.08081356952e-21,5.03197912858e-23,4.52290619271e-25,2.86337846761e-27,1.25709423859e-29,3.98660277074e-32,1.35727171816e-32,7.30507094523e-33,7.13808969376e-32,2.90168310331e-31,9.29777708484e-32,1.52228811662e-3};

static double x73[73] = {-11.3110808591,-10.6949387894,-10.1854779935,-9.73128212289,-9.31272996234,-8.9197179302,-8.5461882991,-8.18815044916,-7.84280008873,-7.50807112799,-7.18238512099,-6.8645009306,-6.55341943221,-6.24832038226,-5.94851905147,-5.65343551641,-5.36257234521,-5.07549801661,-4.79183435644,-4.51124685226,-4.23343707046,-3.95813663572,-3.68510238939,-3.41411244919,-3.14496296651,-2.87746542902,-2.61144439368,-2.34673556177,-2.08318412746,-1.82064334622,-1.55897328005,-1.29803968515,-1.03771301375,-0.777867506579,-0.518380356361,-0.259130925071,4.70346215826e-15,0.259130925071,0.518380356361,0.777867506579,1.03771301375,1.29803968515,1.55897328005,1.82064334622,2.08318412746,2.34673556177,2.61144439368,2.87746542902,3.14496296651,3.41411244919,3.68510238939,3.95813663572,4.23343707046,4.51124685226,4.79183435644,5.07549801661,5.36257234521,5.65343551641,5.94851905147,6.24832038226,6.55341943221,6.8645009306,7.18238512099,7.50807112799,7.84280008873,8.18815044916,8.5461882991,8.9197179302,9.31272996234,9.73128212289,10.1854779935,10.6949387894,11.311080859};
static double w73[73] = {1.04222636055e-32,8.86319325957e-32,2.10035569611e-32,1.39758403564e-31,1.63865537786e-32,2.83133299429e-31,2.0782896175e-32,3.83892938248e-30,6.55286388261e-28,1.08746236334e-25,1.26939438673e-23,1.07853433607e-21,6.86638067017e-20,3.34959548839e-18,1.27589530769e-16,3.855524231e-15,9.36837958853e-14,1.85180647033e-12,3.0076840395e-11,4.04913163903e-10,4.55296017298e-09,4.30457134941e-08,3.44208434841e-07,2.33999971615e-06,1.35860538746e-05,6.76392726239e-05,0.000289779248886,0.00107162816107,0.00343007643876,0.0095249775695,0.0229931071104,0.0483329605048,0.0885958350219,0.141775038405,0.198235131313,0.242338835361,0.259111197497,0.242338835361,0.198235131313,0.141775038405,0.0885958350219,0.0483329605048,0.0229931071104,0.0095249775695,0.00343007643876,0.00107162816107,0.000289779248886,6.76392726239e-05,1.35860538746e-05,2.33999971615e-06,3.44208434841e-07,4.30457134941e-08,4.55296017294e-09,4.04913163935e-10,3.00768403936e-11,1.85180647029e-12,9.36837961348e-14,3.85552427484e-15,1.2758954587e-16,3.34959598735e-18,6.86633096067e-20,1.07854349366e-21,1.26917718523e-23,1.08886474343e-25,6.47499170132e-28,4.0069893419e-30,7.06844780128e-32,6.29418766842e-32,1.37602666745e-32,4.85748884609e-31,4.11827741801e-31,2.81058775421e-31,1.28379940031e-3};

static double x74[74] = {-11.3951603993,-10.7805130139,-10.2723373563,-9.81932710332,-9.40190262195,-9.009981668,-8.63751934408,-8.28053356553,-7.93622614357,-7.6025356012,-7.27788713936,-6.96104261553,-6.65100544589,-6.34695760549,-6.0482163524,-5.75420358435,-5.46442357242,-5.17844641672,-4.89589551166,-4.61643788381,-4.33977662848,-4.06564490594,-3.79380111466,-3.52402496473,-3.25611424806,-2.98988215364,-2.72515501308,-2.46177038854,-2.19957543466,-1.93842548118,-1.67818279349,-1.41871547688,-1.15989649665,-0.901602790896,-0.643714456611,-0.386113992473,-0.128685583741,0.128685583741,0.386113992473,0.643714456611,0.901602790896,1.15989649665,1.41871547688,1.67818279349,1.93842548118,2.19957543466,2.46177038854,2.72515501308,2.98988215364,3.25611424806,3.52402496473,3.79380111466,4.06564490594,4.33977662848,4.61643788381,4.89589551166,5.17844641672,5.46442357242,5.75420358435,6.0482163524,6.34695760549,6.65100544589,6.96104261553,7.27788713936,7.6025356012,7.93622614357,8.28053356553,8.63751934408,9.009981668,9.40190262195,9.81932710332,10.2723373563,10.7805130139,11.395160399};
static double w74[74] = {2.29183316756e-31,2.90908514925e-32,2.99555165994e-31,5.0821549671e-32,3.96718543973e-34,7.90664207595e-32,2.27126370764e-32,2.60719491682e-30,1.58697913645e-28,2.57444475864e-26,3.18058446879e-24,2.82952446909e-22,1.88637023942e-20,9.63656901313e-19,3.84434352656e-17,1.21689011372e-15,3.09818858952e-14,6.41885712994e-13,1.09315905186e-11,1.54382561273e-10,1.82195093768e-09,1.80894415474e-08,1.51998607763e-07,1.08655508283e-06,6.63845406142e-06,3.48061037555e-05,0.000157172963486,0.000613206705949,0.00207274053187,0.00608469620894,0.0155450674461,0.0346239861337,0.0673346887283,0.114474049886,0.170293725582,0.221831307915,0.253153580162,0.253153580162,0.221831307915,0.170293725582,0.114474049886,0.0673346887283,0.0346239861337,0.0155450674461,0.00608469620894,0.00207274053187,0.000613206705949,0.000157172963486,3.48061037555e-05,6.63845406143e-06,1.08655508283e-06,1.51998607763e-07,1.80894415474e-08,1.82195093768e-09,1.54382561278e-10,1.09315905213e-11,6.41885713805e-13,3.09818861956e-14,1.21689005813e-15,3.84434308555e-17,9.6365677423e-19,1.88637235258e-20,2.82961905292e-22,3.17969702738e-24,2.60045713813e-26,1.50196928945e-28,1.07949408434e-30,7.47248566845e-32,8.51257344804e-33,2.1036300291e-32,5.03554978234e-32,1.2960431331e-33,1.27923002897e-31,3.36103409929e-3};

static double x75[75] = {-11.4786603187,-10.8654831121,-10.3585709246,-9.9067257998,-9.4904090578,-9.09955946394,-8.72814474806,-8.37219121993,-8.0289066873,-7.69623419983,-7.37260253174,-7.05677646922,-6.74776190799,-6.44474298313,-6.14703888258,-5.8540732677,-5.56535205407,-5.28044690304,-4.99898271496,-4.72062798979,-4.4450872824,-4.17209521494,-3.90141166433,-3.63281784859,-3.3661131093,-3.1011122386,-2.83764323634,-2.57554540989,-2.31466774829,-2.05486751779,-1.7960090361,-1.53796259166,-1.28060348002,-1.02381113466,-0.767468333105,-0.511460462212,-0.255674828331,7.96312364033e-16,0.255674828331,0.511460462212,0.767468333105,1.02381113466,1.28060348002,1.53796259166,1.7960090361,2.05486751779,2.31466774829,2.57554540989,2.83764323634,3.1011122386,3.3661131093,3.63281784859,3.90141166433,4.17209521494,4.4450872824,4.72062798979,4.99898271496,5.28044690304,5.56535205407,5.8540732677,6.14703888258,6.44474298313,6.74776190799,7.05677646922,7.37260253174,7.69623419983,8.0289066873,8.37219121993,8.72814474806,9.09955946394,9.4904090578,9.9067257998,10.3585709246,10.8654831121,11.478660318};
static double w75[75] = {1.07483914186e-31,4.07825624053e-33,1.10460388538e-31,3.91629368197e-32,1.4375960933e-32,1.08917347297e-32,1.61151796813e-33,1.21483315443e-32,2.94523573012e-29,6.09924989719e-27,7.91150006615e-25,7.37154751467e-23,5.14231243523e-21,2.74914903713e-19,1.14787790411e-17,3.80362558906e-16,1.01398834485e-14,2.20036598053e-13,3.92638030578e-12,5.81251145025e-11,7.19395776516e-10,7.494709837e-09,6.61186699916e-08,4.96559169776e-07,3.18951506346e-06,1.75946006365e-05,8.36605595852e-05,0.000343990858874,0.00122655405808,0.00380202275225,0.0102674778175,0.0242011161751,0.0498664507125,0.0899386367343,0.142135470009,0.196981406728,0.239530593213,0.25565638153,0.239530593213,0.196981406728,0.142135470009,0.0899386367343,0.0498664507125,0.0242011161751,0.0102674778175,0.00380202275225,0.00122655405808,0.000343990858874,8.36605595852e-05,1.75946006365e-05,3.18951506346e-06,4.96559169776e-07,6.61186699918e-08,7.49470983686e-09,7.19395776498e-10,5.81251145013e-11,3.92638030729e-12,2.20036598429e-13,1.013988341e-14,3.80362557914e-16,1.14787700689e-17,2.74914557952e-19,5.14217923983e-21,7.37047619098e-23,7.91279674395e-25,6.17121567682e-27,3.66645497449e-29,1.91826841501e-31,4.52408555828e-33,3.6394726061e-33,4.61095331898e-31,5.50502853686e-31,9.39863889268e-32,2.20922396621e-31,4.84202571135e-3};

static double x76[76] = {-11.5615923675,-10.9498615644,-10.4441918401,-9.99349199284,-9.57826368438,-9.18846637146,-8.81808021463,-8.46313978206,-8.12085877545,-7.78918468839,-7.46654979788,-7.15172175595,-6.84370887972,-6.5416974088,-6.24500840679,-5.9530672446,-5.6653814275,-5.3815241218,-5.10112167546,-4.82384400074,-4.54939704769,-4.27751683212,-4.00796463663,-3.74052310941,-3.47499305806,-3.21119078769,-2.94894586892,-2.68809924854,-2.42850163495,-2.1700121054,-1.91249689275,-1.65582831813,-1.39988384199,-1.14454521094,-0.889697681755,-0.635229306368,-0.38103026441,-0.126992231002,0.126992231002,0.38103026441,0.635229306368,0.889697681755,1.14454521094,1.39988384199,1.65582831813,1.91249689275,2.1700121054,2.42850163495,2.68809924854,2.94894586892,3.21119078769,3.47499305806,3.74052310941,4.00796463663,4.27751683212,4.54939704769,4.82384400074,5.10112167546,5.3815241218,5.6653814275,5.9530672446,6.24500840679,6.5416974088,6.84370887972,7.15172175595,7.46654979788,7.78918468839,8.12085877545,8.46313978206,8.81808021463,9.18846637146,9.57826368438,9.99349199284,10.4441918401,10.9498615644,11.561592367};
static double w76[76] = {1.70709885542e-32,4.95071962165e-32,1.12259505251e-31,1.29491527199e-31,6.81331509572e-35,3.05206711011e-32,8.47087982155e-33,1.47180093252e-32,3.64444368174e-30,1.47666681453e-27,1.9570632106e-25,1.9066554797e-23,1.3911300899e-21,7.77885313877e-20,3.39735558734e-18,1.17770941319e-16,3.2852243911e-15,7.4617858654e-14,1.39413771215e-12,2.16180546282e-11,2.80386867784e-10,3.0626832246e-09,2.834470736e-08,2.23452509811e-07,1.50762646683e-06,8.74208370081e-06,4.37278315775e-05,0.000189297621787,0.000711263624418,0.00232549267082,0.00663068572599,0.01651928501,0.0360182463567,0.0688252573941,0.115386438249,0.169874435439,0.219762210516,0.249930080139,0.249930080139,0.219762210516,0.169874435439,0.115386438249,0.0688252573941,0.0360182463567,0.01651928501,0.00663068572599,0.00232549267082,0.000711263624418,0.000189297621787,4.37278315775e-05,8.74208370081e-06,1.50762646682e-06,2.23452509811e-07,2.834470736e-08,3.06268322465e-09,2.80386867787e-10,2.16180546255e-11,1.39413771176e-12,7.4617858664e-14,3.28522440705e-15,1.17770924716e-16,3.39735558166e-18,7.77884983537e-20,1.39113524728e-21,1.9065120506e-23,1.95621596085e-25,1.46761941683e-27,6.47665251717e-30,3.12168909554e-31,1.78368562536e-33,4.47979841054e-33,1.00749105666e-32,1.48589559348e-31,7.09769776304e-32,8.31876991779e-32,2.9044694593e-3};

static double x77[77] = {-11.6439679055,-11.0336604295,-10.529212794,-10.0796389837,-9.66548040819,-9.27671690651,-8.90734087939,-8.55339502182,-8.21209883047,-7.88140416332,-7.55974673259,-7.24589699612,-6.9388656371,-6.63784094712,-6.34214581416,-6.05120726777,-5.76453435149,-5.48170168386,-5.20233700597,-4.92611158545,-4.65273270774,-4.38193771897,-4.11348924018,-3.84717127776,-3.58278602829,-3.32015122691,-3.05909792549,-2.79946861334,-2.54111561302,-2.28389969827,-2.02768889216,-1.77235741186,-1.51778473281,-1.26385475,-1.01045501775,-0.757476052373,-0.504810684359,-0.252353448271,-2.7469203347e-16,0.252353448271,0.504810684359,0.757476052373,1.01045501775,1.26385475,1.51778473281,1.77235741186,2.02768889216,2.28389969827,2.54111561302,2.79946861334,3.05909792549,3.32015122691,3.58278602829,3.84717127776,4.11348924018,4.38193771897,4.65273270774,4.92611158545,5.20233700597,5.48170168386,5.76453435149,6.05120726777,6.34214581416,6.63784094712,6.9388656371,7.24589699612,7.55974673259,7.88140416332,8.21209883047,8.55339502182,8.90734087939,9.27671690651,9.66548040819,10.0796389837,10.529212794,11.0336604295,11.643967905};
static double w77[77] = {1.40278905353e-31,4.19275919106e-33,1.2974381685e-31,1.28328269153e-31,3.44912189695e-32,4.90917744044e-33,4.73145077396e-32,9.60583684545e-32,2.83980603353e-30,3.70048721778e-28,4.80001287425e-26,4.89610915547e-24,3.73594070987e-22,2.18358317505e-20,9.96921323871e-19,3.61312611159e-17,1.05395952288e-15,2.50398032163e-14,4.89511893393e-13,7.94524852521e-12,1.07911686629e-10,1.23492800546e-09,1.19803897932e-08,9.90594738176e-08,7.01440045828e-07,4.27163445207e-06,2.2456298833e-05,0.000102251199275,0.000404447925462,0.00139330518246,0.00418991602232,0.0110203941062,0.0253956514633,0.0513472964662,0.091199284543,0.142429389126,0.195732908553,0.236816454709,0.252336168783,0.236816454709,0.195732908553,0.142429389126,0.091199284543,0.0513472964662,0.0253956514633,0.0110203941062,0.00418991602232,0.00139330518246,0.000404447925462,0.000102251199275,2.2456298833e-05,4.27163445207e-06,7.01440045829e-07,9.90594738173e-08,1.19803897931e-08,1.23492800547e-09,1.07911686638e-10,7.94524852134e-12,4.89511892905e-13,2.50398031526e-14,1.05395952547e-15,3.61312604507e-17,9.96920912831e-19,2.183593614e-20,3.73580694825e-22,4.90146674076e-24,4.78834810802e-26,3.23675277553e-28,2.00474092144e-30,4.40717957022e-32,2.39363051324e-32,5.25910750775e-32,2.49588103392e-33,3.10526257287e-34,1.37256419133e-31,8.43929437201e-32,5.3387894323e-3};

