
/*
 * =====================================================================================
 *
 *       Filename:  GaussWeights.h
 *
 *    Description:  This file is autogenerated by scripts/GaussWeights.py
 *
 *         Author:  Paul P. Hilscher (2012) 
 *   
 * =====================================================================================
 */


#ifndef GAUSS_CHEBYCHEV_FIRST_WEIGHTS_H_
#define GAUSS_CHEBYCHEV_FIRST_WEIGHTS_H_

#define GAUSS_WEIGHTS_MAX 256


/* Merge all together */
// using from GSL glfixed
struct GaussWeights 
{
    int     n;
    double *points;
    double *weights;
};


static double x1[1] = {0.};
static double w1[1] = {3.1415926535};

static double x2[2] = {-0.707106781187,0.70710678118};
static double w2[2] = {1.57079632679,1.5707963267};

static double x3[3] = {-0.866025403784,2.81729083276e-17,0.86602540378};
static double w3[3] = {1.0471975512,1.0471975512,1.047197551};

static double x4[4] = {-0.923879532511,-0.382683432365,0.382683432365,0.92387953251};
static double w4[4] = {0.785398163397,0.785398163397,0.785398163397,0.78539816339};

static double x5[5] = {-0.951056516295,-0.587785252292,-1.31796055267e-16,0.587785252292,0.95105651629};
static double w5[5] = {0.628318530718,0.628318530718,0.628318530718,0.628318530718,0.62831853071};

static double x6[6] = {-0.965925826289,-0.707106781187,-0.258819045103,0.258819045103,0.707106781187,0.96592582628};
static double w6[6] = {0.523598775598,0.523598775598,0.523598775598,0.523598775598,0.523598775598,0.52359877559};

static double x7[7] = {-0.974927912182,-0.781831482468,-0.433883739118,-4.81756558117e-17,0.433883739118,0.781831482468,0.97492791218};
static double w7[7] = {0.448798950513,0.448798950513,0.448798950513,0.448798950513,0.448798950513,0.448798950513,0.44879895051};

static double x8[8] = {-0.980785280403,-0.831469612303,-0.55557023302,-0.195090322016,0.195090322016,0.55557023302,0.831469612303,0.98078528040};
static double w8[8] = {0.392699081699,0.392699081699,0.392699081699,0.392699081699,0.392699081699,0.392699081699,0.392699081699,0.39269908169};

static double x9[9] = {-0.984807753012,-0.866025403784,-0.642787609687,-0.342020143326,2.75028548662e-17,0.342020143326,0.642787609687,0.866025403784,0.98480775301};
static double w9[9] = {0.349065850399,0.349065850399,0.349065850399,0.349065850399,0.349065850399,0.349065850399,0.349065850399,0.349065850399,0.34906585039};

static double x10[10] = {-0.987688340595,-0.891006524188,-0.707106781187,-0.45399049974,-0.15643446504,0.15643446504,0.45399049974,0.707106781187,0.891006524188,0.98768834059};
static double w10[10] = {0.314159265359,0.314159265359,0.314159265359,0.314159265359,0.314159265359,0.314159265359,0.314159265359,0.314159265359,0.314159265359,0.31415926535};

static double x11[11] = {-0.989821441881,-0.909631995355,-0.755749574354,-0.540640817456,-0.281732556841,2.17897740391e-16,0.281732556841,0.540640817456,0.755749574354,0.909631995355,0.98982144188};
static double w11[11] = {0.285599332145,0.285599332145,0.285599332145,0.285599332145,0.285599332145,0.285599332145,0.285599332145,0.285599332145,0.285599332145,0.285599332145,0.28559933214};

static double x12[12] = {-0.991444861374,-0.923879532511,-0.793353340291,-0.608761429009,-0.382683432365,-0.13052619222,0.13052619222,0.382683432365,0.608761429009,0.793353340291,0.923879532511,0.99144486137};
static double w12[12] = {0.261799387799,0.261799387799,0.261799387799,0.261799387799,0.261799387799,0.261799387799,0.261799387799,0.261799387799,0.261799387799,0.261799387799,0.261799387799,0.26179938779};

static double x13[13] = {-0.992708874098,-0.935016242685,-0.822983865894,-0.663122658241,-0.464723172044,-0.239315664288,-1.22348975048e-16,0.239315664288,0.464723172044,0.663122658241,0.822983865894,0.935016242685,0.99270887409};
static double w13[13] = {0.241660973353,0.241660973353,0.241660973353,0.241660973353,0.241660973353,0.241660973353,0.241660973353,0.241660973353,0.241660973353,0.241660973353,0.241660973353,0.241660973353,0.24166097335};

static double x14[14] = {-0.993712209893,-0.943883330308,-0.846724199228,-0.707106781187,-0.532032076515,-0.330279061955,-0.111964476103,0.111964476103,0.330279061955,0.532032076515,0.707106781187,0.846724199228,0.943883330308,0.99371220989};
static double w14[14] = {0.224399475256,0.224399475256,0.224399475256,0.224399475256,0.224399475256,0.224399475256,0.224399475256,0.224399475256,0.224399475256,0.224399475256,0.224399475256,0.224399475256,0.224399475256,0.22439947525};

static double x15[15] = {-0.994521895368,-0.951056516295,-0.866025403784,-0.743144825477,-0.587785252292,-0.406736643076,-0.207911690818,1.5923002818e-16,0.207911690818,0.406736643076,0.587785252292,0.743144825477,0.866025403784,0.951056516295,0.99452189536};
static double w15[15] = {0.209439510239,0.209439510239,0.209439510239,0.209439510239,0.209439510239,0.209439510239,0.209439510239,0.209439510239,0.209439510239,0.209439510239,0.209439510239,0.209439510239,0.209439510239,0.209439510239,0.20943951023};

static double x16[16] = {-0.995184726672,-0.956940335732,-0.881921264348,-0.773010453363,-0.634393284164,-0.471396736826,-0.290284677254,-0.0980171403296,0.0980171403296,0.290284677254,0.471396736826,0.634393284164,0.773010453363,0.881921264348,0.956940335732,0.99518472667};
static double w16[16] = {0.196349540849,0.196349540849,0.196349540849,0.196349540849,0.196349540849,0.196349540849,0.196349540849,0.196349540849,0.196349540849,0.196349540849,0.196349540849,0.196349540849,0.196349540849,0.196349540849,0.196349540849,0.19634954084};

static double x17[17] = {-0.995734176295,-0.961825643173,-0.895163291355,-0.79801722728,-0.673695643647,-0.526432162877,-0.361241666187,-0.183749517817,-3.36535372941e-16,0.183749517817,0.361241666187,0.526432162877,0.673695643647,0.79801722728,0.895163291355,0.961825643173,0.99573417629};
static double w17[17] = {0.184799567858,0.184799567858,0.184799567858,0.184799567858,0.184799567858,0.184799567858,0.184799567858,0.184799567858,0.184799567858,0.184799567858,0.184799567858,0.184799567858,0.184799567858,0.184799567858,0.184799567858,0.184799567858,0.18479956785};

static double x18[18] = {-0.996194698092,-0.965925826289,-0.906307787037,-0.819152044289,-0.707106781187,-0.573576436351,-0.422618261741,-0.258819045103,-0.0871557427477,0.0871557427477,0.258819045103,0.422618261741,0.573576436351,0.707106781187,0.819152044289,0.906307787037,0.965925826289,0.99619469809};
static double w18[18] = {0.174532925199,0.174532925199,0.174532925199,0.174532925199,0.174532925199,0.174532925199,0.174532925199,0.174532925199,0.174532925199,0.174532925199,0.174532925199,0.174532925199,0.174532925199,0.174532925199,0.174532925199,0.174532925199,0.174532925199,0.17453292519};

static double x19[19] = {-0.996584493007,-0.969400265939,-0.915773326655,-0.837166478263,-0.735723910673,-0.61421271269,-0.475947393037,-0.324699469205,-0.164594590281,-1.40985873314e-16,0.164594590281,0.324699469205,0.475947393037,0.61421271269,0.735723910673,0.837166478263,0.915773326655,0.969400265939,0.99658449300};
static double w19[19] = {0.165346981768,0.165346981768,0.165346981768,0.165346981768,0.165346981768,0.165346981768,0.165346981768,0.165346981768,0.165346981768,0.165346981768,0.165346981768,0.165346981768,0.165346981768,0.165346981768,0.165346981768,0.165346981768,0.165346981768,0.165346981768,0.16534698176};

static double x20[20] = {-0.996917333733,-0.972369920398,-0.923879532511,-0.852640164354,-0.7604059656,-0.64944804833,-0.522498564716,-0.382683432365,-0.233445363856,-0.0784590957278,0.0784590957278,0.233445363856,0.382683432365,0.522498564716,0.64944804833,0.7604059656,0.852640164354,0.923879532511,0.972369920398,0.99691733373};
static double w20[20] = {0.15707963268,0.157079632679,0.157079632679,0.157079632679,0.157079632679,0.157079632679,0.157079632679,0.157079632679,0.157079632679,0.157079632679,0.157079632679,0.157079632679,0.157079632679,0.157079632679,0.157079632679,0.157079632679,0.157079632679,0.157079632679,0.15707963268,0.15707963267};

static double x21[21] = {-0.997203797181,-0.974927912182,-0.930873748644,-0.866025403784,-0.781831482468,-0.680172737771,-0.563320058064,-0.433883739118,-0.294755174411,-0.149042266176,-3.18537953441e-16,0.149042266176,0.294755174411,0.433883739118,0.563320058064,0.680172737771,0.781831482468,0.866025403784,0.930873748644,0.974927912182,0.99720379718};
static double w21[21] = {0.149599650171,0.149599650171,0.149599650171,0.149599650171,0.149599650171,0.149599650171,0.149599650171,0.149599650171,0.149599650171,0.149599650171,0.149599650171,0.149599650171,0.149599650171,0.149599650171,0.149599650171,0.149599650171,0.149599650171,0.149599650171,0.149599650171,0.149599650171,0.14959965017};

static double x22[22] = {-0.99745211461,-0.977146865971,-0.936949725,-0.877678989567,-0.800541240924,-0.707106781187,-0.599277666511,-0.47924898672,-0.349464179599,-0.212565289553,-0.0713391831992,0.0713391831992,0.212565289553,0.349464179599,0.47924898672,0.599277666511,0.707106781187,0.800541240924,0.877678989567,0.936949725,0.977146865971,0.9974521146};
static double w22[22] = {0.142799666072,0.142799666072,0.142799666072,0.142799666072,0.142799666072,0.142799666072,0.142799666072,0.142799666072,0.142799666072,0.142799666072,0.142799666072,0.142799666072,0.142799666072,0.142799666072,0.142799666072,0.142799666072,0.142799666072,0.142799666072,0.142799666072,0.142799666072,0.142799666072,0.14279966607};

static double x23[23] = {-0.997668769191,-0.979084087682,-0.942260922119,-0.887885218402,-0.81696989301,-0.730835964278,-0.631087944326,-0.519583950035,-0.398401089846,-0.269796771157,-0.136166649096,3.70843746414e-17,0.136166649096,0.269796771157,0.398401089846,0.519583950035,0.631087944326,0.730835964278,0.81696989301,0.887885218402,0.942260922119,0.979084087682,0.99766876919};
static double w23[23] = {0.136590984939,0.136590984939,0.136590984939,0.136590984939,0.136590984939,0.136590984939,0.136590984939,0.136590984939,0.136590984939,0.136590984939,0.136590984939,0.136590984939,0.136590984939,0.136590984939,0.136590984939,0.136590984939,0.136590984939,0.136590984939,0.136590984939,0.136590984939,0.136590984939,0.136590984939,0.13659098493};

static double x24[24] = {-0.997858923239,-0.980785280403,-0.946930129495,-0.896872741533,-0.831469612303,-0.751839807479,-0.6593458151,-0.55557023302,-0.442288690219,-0.321439465303,-0.195090322016,-0.0654031292301,0.0654031292301,0.195090322016,0.321439465303,0.442288690219,0.55557023302,0.6593458151,0.751839807479,0.831469612303,0.896872741533,0.946930129495,0.980785280403,0.99785892323};
static double w24[24] = {0.1308996939,0.1308996939,0.1308996939,0.1308996939,0.1308996939,0.1308996939,0.1308996939,0.1308996939,0.1308996939,0.1308996939,0.1308996939,0.1308996939,0.1308996939,0.1308996939,0.1308996939,0.1308996939,0.1308996939,0.1308996939,0.1308996939,0.1308996939,0.1308996939,0.1308996939,0.1308996939,0.130899693};

static double x25[25] = {-0.998026728428,-0.982287250729,-0.951056516295,-0.904827052466,-0.844327925502,-0.770513242776,-0.684547105929,-0.587785252292,-0.481753674102,-0.368124552685,-0.248689887165,-0.125333233564,1.20952747404e-16,0.125333233564,0.248689887165,0.368124552685,0.481753674102,0.587785252292,0.684547105929,0.770513242776,0.844327925502,0.904827052466,0.951056516295,0.982287250729,0.99802672842};
static double w25[25] = {0.125663706144,0.125663706144,0.125663706144,0.125663706144,0.125663706144,0.125663706144,0.125663706144,0.125663706144,0.125663706144,0.125663706144,0.125663706144,0.125663706144,0.125663706144,0.125663706144,0.125663706144,0.125663706144,0.125663706144,0.125663706144,0.125663706144,0.125663706144,0.125663706144,0.125663706144,0.125663706144,0.125663706144,0.12566370614};

static double x26[26] = {-0.998175554223,-0.983619906947,-0.954720866509,-0.911899845992,-0.855781272301,-0.787183480609,-0.707106781187,-0.616718872629,-0.517337814178,-0.410412805453,-0.297503053855,-0.180255037814,-0.0603784974223,0.0603784974223,0.180255037814,0.297503053855,0.410412805453,0.517337814178,0.616718872629,0.707106781187,0.787183480609,0.855781272301,0.911899845992,0.954720866509,0.983619906947,0.99817555422};
static double w26[26] = {0.120830486677,0.120830486677,0.120830486677,0.120830486677,0.120830486677,0.120830486677,0.120830486677,0.120830486677,0.120830486677,0.120830486677,0.120830486677,0.120830486677,0.120830486677,0.120830486677,0.120830486677,0.120830486677,0.120830486677,0.120830486677,0.120830486677,0.120830486677,0.120830486677,0.120830486677,0.120830486677,0.120830486677,0.120830486677,0.12083048667};

static double x27[27] = {-0.998308158271,-0.984807753012,-0.957989512315,-0.91821610688,-0.866025403784,-0.802123192755,-0.727373641573,-0.642787609687,-0.549508978071,-0.4487991802,-0.342020143326,-0.230615870742,-0.116092914125,1.21642863488e-16,0.116092914125,0.230615870742,0.342020143326,0.4487991802,0.549508978071,0.642787609687,0.727373641573,0.802123192755,0.866025403784,0.91821610688,0.957989512315,0.984807753012,0.99830815827};
static double w27[27] = {0.116355283466,0.116355283466,0.116355283466,0.116355283466,0.116355283466,0.116355283466,0.116355283466,0.116355283466,0.116355283466,0.116355283466,0.116355283466,0.116355283466,0.116355283466,0.116355283466,0.116355283466,0.116355283466,0.116355283466,0.116355283466,0.116355283466,0.116355283466,0.116355283466,0.116355283466,0.116355283466,0.116355283466,0.116355283466,0.116355283466,0.11635528346};

static double x28[28] = {-0.998426815018,-0.985871018518,-0.960917321945,-0.923879532511,-0.875223421909,-0.815560868959,-0.745642164883,-0.666346577952,-0.57867129618,-0.483718887105,-0.382683432365,-0.276835511425,-0.167506223305,-0.0560704472372,0.0560704472372,0.167506223305,0.276835511425,0.382683432365,0.483718887105,0.57867129618,0.666346577952,0.745642164883,0.815560868959,0.875223421909,0.923879532511,0.960917321945,0.985871018518,0.99842681501};
static double w28[28] = {0.112199737628,0.112199737628,0.112199737628,0.112199737628,0.112199737628,0.112199737628,0.112199737628,0.112199737628,0.112199737628,0.112199737628,0.112199737628,0.112199737628,0.112199737628,0.112199737628,0.112199737628,0.112199737628,0.112199737628,0.112199737628,0.112199737628,0.112199737628,0.112199737628,0.112199737628,0.112199737628,0.112199737628,0.112199737628,0.112199737628,0.112199737628,0.11219973762};

static double x29[29] = {-0.998533413851,-0.986826522542,-0.963549992519,-0.928976719817,-0.883512044446,-0.827688998157,-0.762162055128,-0.687699458853,-0.605174215194,-0.515553857177,-0.41988910156,-0.319301530136,-0.214970440211,-0.108119018424,1.14855800488e-16,0.108119018424,0.214970440211,0.319301530136,0.41988910156,0.515553857177,0.605174215194,0.687699458853,0.762162055128,0.827688998157,0.883512044446,0.928976719817,0.963549992519,0.986826522542,0.99853341385};
static double w29[29] = {0.108330781158,0.108330781158,0.108330781158,0.108330781158,0.108330781158,0.108330781158,0.108330781158,0.108330781158,0.108330781158,0.108330781158,0.108330781158,0.108330781158,0.108330781158,0.108330781158,0.108330781158,0.108330781158,0.108330781158,0.108330781158,0.108330781158,0.108330781158,0.108330781158,0.108330781158,0.108330781158,0.108330781158,0.108330781158,0.108330781158,0.108330781158,0.108330781158,0.10833078115};

static double x30[30] = {-0.998629534755,-0.987688340595,-0.965925826289,-0.933580426497,-0.891006524188,-0.838670567945,-0.777145961457,-0.707106781187,-0.62932039105,-0.544639035015,-0.45399049974,-0.358367949545,-0.258819045103,-0.15643446504,-0.0523359562429,0.0523359562429,0.15643446504,0.258819045103,0.358367949545,0.45399049974,0.544639035015,0.62932039105,0.707106781187,0.777145961457,0.838670567945,0.891006524188,0.933580426497,0.965925826289,0.987688340595,0.99862953475};
static double w30[30] = {0.10471975512,0.10471975512,0.10471975512,0.10471975512,0.10471975512,0.10471975512,0.10471975512,0.10471975512,0.10471975512,0.10471975512,0.10471975512,0.10471975512,0.10471975512,0.10471975512,0.10471975512,0.10471975512,0.10471975512,0.10471975512,0.10471975512,0.10471975512,0.10471975512,0.10471975512,0.10471975512,0.10471975512,0.10471975512,0.10471975512,0.10471975512,0.10471975512,0.10471975512,0.1047197551};

static double x31[31] = {-0.998716507171,-0.988468324328,-0.968077118866,-0.937752132147,-0.897804539571,-0.848644257495,-0.790775736938,-0.724792787229,-0.651372482722,-0.571268215095,-0.485301962531,-0.394355855113,-0.299363122973,-0.201298520089,-0.101168321987,-4.40066412185e-17,0.101168321987,0.201298520089,0.299363122973,0.394355855113,0.485301962531,0.571268215095,0.651372482722,0.724792787229,0.790775736938,0.848644257495,0.897804539571,0.937752132147,0.968077118866,0.988468324328,0.99871650717};
static double w31[31] = {0.101341698503,0.101341698503,0.101341698503,0.101341698503,0.101341698503,0.101341698503,0.101341698503,0.101341698503,0.101341698503,0.101341698503,0.101341698503,0.101341698503,0.101341698503,0.101341698503,0.101341698503,0.101341698503,0.101341698503,0.101341698503,0.101341698503,0.101341698503,0.101341698503,0.101341698503,0.101341698503,0.101341698503,0.101341698503,0.101341698503,0.101341698503,0.101341698503,0.101341698503,0.101341698503,0.10134169850};

static double x32[32] = {-0.998795456205,-0.989176509965,-0.970031253195,-0.941544065183,-0.903989293123,-0.85772861,-0.803207531481,-0.740951125355,-0.671558954847,-0.595699304492,-0.514102744193,-0.42755509343,-0.336889853392,-0.242980179903,-0.146730474455,-0.0490676743274,0.0490676743274,0.146730474455,0.242980179903,0.336889853392,0.42755509343,0.514102744193,0.595699304492,0.671558954847,0.740951125355,0.803207531481,0.85772861,0.903989293123,0.941544065183,0.970031253195,0.989176509965,0.99879545620};
static double w32[32] = {0.0981747704247,0.0981747704247,0.0981747704247,0.0981747704247,0.0981747704247,0.0981747704247,0.0981747704247,0.0981747704247,0.0981747704247,0.0981747704247,0.0981747704247,0.0981747704247,0.0981747704247,0.0981747704247,0.0981747704247,0.0981747704247,0.0981747704247,0.0981747704247,0.0981747704247,0.0981747704247,0.0981747704247,0.0981747704247,0.0981747704247,0.0981747704247,0.0981747704247,0.0981747704247,0.0981747704247,0.0981747704247,0.0981747704247,0.0981747704247,0.0981747704247,0.098174770424};

static double x33[33] = {-0.998867339183,-0.989821441881,-0.971811568324,-0.945000818715,-0.909631995355,-0.866025403784,-0.81457595205,-0.755749574354,-0.690079011482,-0.618158986221,-0.540640817456,-0.458226521727,-0.37166245566,-0.281732556841,-0.18925124436,-0.0950560433042,1.93517521151e-16,0.0950560433042,0.18925124436,0.281732556841,0.37166245566,0.458226521727,0.540640817456,0.618158986221,0.690079011482,0.755749574354,0.81457595205,0.866025403784,0.909631995355,0.945000818715,0.971811568324,0.989821441881,0.99886733918};
static double w33[33] = {0.0951997773815,0.0951997773815,0.0951997773815,0.0951997773815,0.0951997773815,0.0951997773815,0.0951997773815,0.0951997773815,0.0951997773815,0.0951997773815,0.0951997773815,0.0951997773815,0.0951997773815,0.0951997773815,0.0951997773815,0.0951997773815,0.0951997773815,0.0951997773815,0.0951997773815,0.0951997773815,0.0951997773815,0.0951997773815,0.0951997773815,0.0951997773815,0.0951997773815,0.0951997773815,0.0951997773815,0.0951997773815,0.0951997773815,0.0951997773815,0.0951997773815,0.0951997773815,0.095199777381};

static double x34[34] = {-0.998932974802,-0.990410430875,-0.973438054361,-0.948160647591,-0.914793868488,-0.873622390646,-0.824997474598,-0.769333970983,-0.707106781187,-0.638846805652,-0.565136414423,-0.486604478567,-0.403921004872,-0.317791419582,-0.22895054995,-0.138156354952,-0.0461834586457,0.0461834586457,0.138156354952,0.22895054995,0.317791419582,0.403921004872,0.486604478567,0.565136414423,0.638846805652,0.707106781187,0.769333970983,0.824997474598,0.873622390646,0.914793868488,0.948160647591,0.973438054361,0.990410430875,0.99893297480};
static double w34[34] = {0.0923997839291,0.0923997839291,0.0923997839291,0.0923997839291,0.0923997839291,0.0923997839291,0.0923997839291,0.0923997839291,0.0923997839291,0.0923997839291,0.0923997839291,0.0923997839291,0.0923997839291,0.0923997839291,0.0923997839291,0.0923997839291,0.0923997839291,0.0923997839291,0.0923997839291,0.0923997839291,0.0923997839291,0.0923997839291,0.0923997839291,0.0923997839291,0.0923997839291,0.0923997839291,0.0923997839291,0.0923997839291,0.0923997839291,0.0923997839291,0.0923997839291,0.0923997839291,0.0923997839291,0.092399783929};

static double x35[35] = {-0.998993066541,-0.990949761768,-0.974927912182,-0.951056516295,-0.919527772551,-0.880595531857,-0.834573253721,-0.781831482468,-0.722794863827,-0.65793872594,-0.587785252292,-0.512899277406,-0.433883739118,-0.351374824081,-0.266036845567,-0.178556894799,-0.0896393089034,-7.82666750867e-17,0.0896393089034,0.178556894799,0.266036845567,0.351374824081,0.433883739118,0.512899277406,0.587785252292,0.65793872594,0.722794863827,0.781831482468,0.834573253721,0.880595531857,0.919527772551,0.951056516295,0.974927912182,0.990949761768,0.99899306654};
static double w35[35] = {0.0897597901026,0.0897597901026,0.0897597901026,0.0897597901026,0.0897597901026,0.0897597901026,0.0897597901026,0.0897597901026,0.0897597901026,0.0897597901026,0.0897597901026,0.0897597901026,0.0897597901026,0.0897597901026,0.0897597901026,0.0897597901026,0.0897597901026,0.0897597901026,0.0897597901026,0.0897597901026,0.0897597901026,0.0897597901026,0.0897597901026,0.0897597901026,0.0897597901026,0.0897597901026,0.0897597901026,0.0897597901026,0.0897597901026,0.0897597901026,0.0897597901026,0.0897597901026,0.0897597901026,0.0897597901026,0.089759790102};

static double x36[36] = {-0.999048221582,-0.991444861374,-0.97629600712,-0.953716950748,-0.923879532511,-0.887010833178,-0.843391445813,-0.793353340291,-0.73727733681,-0.675590207616,-0.608761429009,-0.537299608347,-0.461748613235,-0.382683432365,-0.300705799504,-0.216439613938,-0.13052619222,-0.0436193873653,0.0436193873653,0.13052619222,0.216439613938,0.300705799504,0.382683432365,0.461748613235,0.537299608347,0.608761429009,0.675590207616,0.73727733681,0.793353340291,0.843391445813,0.887010833178,0.923879532511,0.953716950748,0.97629600712,0.991444861374,0.99904822158};
static double w36[36] = {0.0872664625997,0.0872664625997,0.0872664625997,0.0872664625997,0.0872664625997,0.0872664625997,0.0872664625997,0.0872664625997,0.0872664625997,0.0872664625997,0.0872664625997,0.0872664625997,0.0872664625997,0.0872664625997,0.0872664625997,0.0872664625997,0.0872664625997,0.0872664625997,0.0872664625997,0.0872664625997,0.0872664625997,0.0872664625997,0.0872664625997,0.0872664625997,0.0872664625997,0.0872664625997,0.0872664625997,0.0872664625997,0.0872664625997,0.0872664625997,0.0872664625997,0.0872664625997,0.0872664625997,0.0872664625997,0.0872664625997,0.087266462599};

static double x37[37] = {-0.999098966205,-0.991900435259,-0.977555238948,-0.956166734739,-0.927889027297,-0.89292585815,-0.851529137733,-0.803997130367,-0.750672305253,-0.691938868978,-0.628219997296,-0.559974786138,-0.487694943814,-0.411901248244,-0.333139794742,-0.251978061385,-0.169000820322,-0.0848059244755,-2.36460707554e-16,0.0848059244755,0.169000820322,0.251978061385,0.333139794742,0.411901248244,0.487694943814,0.559974786138,0.628219997296,0.691938868978,0.750672305253,0.803997130367,0.851529137733,0.89292585815,0.927889027297,0.956166734739,0.977555238948,0.991900435259,0.99909896620};
static double w37[37] = {0.0849079095565,0.0849079095565,0.0849079095565,0.0849079095565,0.0849079095565,0.0849079095565,0.0849079095565,0.0849079095565,0.0849079095565,0.0849079095565,0.0849079095565,0.0849079095565,0.0849079095565,0.0849079095565,0.0849079095565,0.0849079095565,0.0849079095565,0.0849079095565,0.0849079095565,0.0849079095565,0.0849079095565,0.0849079095565,0.0849079095565,0.0849079095565,0.0849079095565,0.0849079095565,0.0849079095565,0.0849079095565,0.0849079095565,0.0849079095565,0.0849079095565,0.0849079095565,0.0849079095565,0.0849079095565,0.0849079095565,0.0849079095565,0.084907909556};

static double x38[38] = {-0.999145758387,-0.992320579737,-0.978716845327,-0.958427482458,-0.931591088051,-0.898390981892,-0.85905395437,-0.81384871727,-0.7630840682,-0.707106781187,-0.646299237861,-0.581076815402,-0.51188504909,-0.439196588847,-0.363507970564,-0.285336224249,-0.205215342196,-0.123692631269,-0.0413249742488,0.0413249742488,0.123692631269,0.205215342196,0.285336224249,0.363507970564,0.439196588847,0.51188504909,0.581076815402,0.646299237861,0.707106781187,0.7630840682,0.81384871727,0.85905395437,0.898390981892,0.931591088051,0.958427482458,0.978716845327,0.992320579737,0.99914575838};
static double w38[38] = {0.0826734908839,0.0826734908839,0.082673490884,0.0826734908839,0.0826734908839,0.0826734908839,0.0826734908839,0.0826734908839,0.0826734908839,0.0826734908839,0.0826734908839,0.0826734908839,0.0826734908839,0.0826734908839,0.0826734908839,0.0826734908839,0.0826734908839,0.0826734908839,0.0826734908839,0.0826734908839,0.0826734908839,0.0826734908839,0.0826734908839,0.0826734908839,0.0826734908839,0.0826734908839,0.0826734908839,0.0826734908839,0.0826734908839,0.0826734908839,0.0826734908839,0.0826734908839,0.0826734908839,0.0826734908839,0.0826734908839,0.0826734908839,0.082673490884,0.082673490883};

static double x39[39] = {-0.999188998172,-0.992708874098,-0.979790652042,-0.960518111631,-0.935016242685,-0.90345043461,-0.866025403784,-0.822983865894,-0.774604961828,-0.721202447344,-0.663122658241,-0.600742264238,-0.534465826128,-0.464723172044,-0.39196660986,-0.316667993801,-0.239315664288,-0.160411280858,-0.0804665687167,-5.8489200002e-17,0.0804665687167,0.160411280858,0.239315664288,0.316667993801,0.39196660986,0.464723172044,0.534465826128,0.600742264238,0.663122658241,0.721202447344,0.774604961828,0.822983865894,0.866025403784,0.90345043461,0.935016242685,0.960518111631,0.979790652042,0.992708874098,0.99918899817};
static double w39[39] = {0.0805536577843,0.0805536577844,0.0805536577843,0.0805536577844,0.0805536577844,0.0805536577844,0.0805536577844,0.0805536577844,0.0805536577844,0.0805536577844,0.0805536577844,0.0805536577844,0.0805536577844,0.0805536577844,0.0805536577844,0.0805536577844,0.0805536577844,0.0805536577844,0.0805536577844,0.0805536577844,0.0805536577844,0.0805536577844,0.0805536577844,0.0805536577844,0.0805536577844,0.0805536577844,0.0805536577844,0.0805536577844,0.0805536577844,0.0805536577844,0.0805536577844,0.0805536577844,0.0805536577844,0.0805536577843,0.0805536577844,0.0805536577844,0.0805536577843,0.0805536577844,0.080553657784};

static double x40[40] = {-0.999229036241,-0.993068456955,-0.980785280403,-0.962455236454,-0.938191335922,-0.908143173825,-0.872496007073,-0.831469612303,-0.785316930881,-0.734322509436,-0.678800745533,-0.61909394931,-0.55557023302,-0.488621241497,-0.418659737537,-0.346117057077,-0.271440449865,-0.195090322016,-0.117537397458,-0.0392598157591,0.0392598157591,0.117537397458,0.195090322016,0.271440449865,0.346117057077,0.418659737537,0.488621241497,0.55557023302,0.61909394931,0.678800745533,0.734322509436,0.785316930881,0.831469612303,0.872496007073,0.908143173825,0.938191335922,0.962455236454,0.980785280403,0.993068456955,0.99922903624};
static double w40[40] = {0.0785398163397,0.0785398163398,0.0785398163397,0.0785398163397,0.0785398163397,0.0785398163397,0.0785398163397,0.0785398163397,0.0785398163397,0.0785398163397,0.0785398163397,0.0785398163397,0.0785398163397,0.0785398163397,0.0785398163397,0.0785398163397,0.0785398163397,0.0785398163397,0.0785398163397,0.0785398163397,0.0785398163397,0.0785398163397,0.0785398163397,0.0785398163397,0.0785398163397,0.0785398163397,0.0785398163397,0.0785398163397,0.0785398163397,0.0785398163397,0.0785398163397,0.0785398163397,0.0785398163397,0.0785398163397,0.0785398163397,0.0785398163397,0.0785398163397,0.0785398163397,0.0785398163397,0.078539816339};

static double x41[41] = {-0.999266181051,-0.99340208976,-0.981708319997,-0.964253495453,-0.94114004798,-0.912503616477,-0.878512250911,-0.839365426132,-0.795292871273,-0.746553221612,-0.693432500792,-0.636242442327,-0.575318660219,-0.511018679447,-0.443719837867,-0.373817071841,-0.301720598595,-0.227853508903,-0.152649284219,-0.0765492528365,-3.09169131766e-17,0.0765492528365,0.152649284219,0.227853508903,0.301720598595,0.373817071841,0.443719837867,0.511018679447,0.575318660219,0.636242442327,0.693432500792,0.746553221612,0.795292871273,0.839365426132,0.878512250911,0.912503616477,0.94114004798,0.964253495453,0.981708319997,0.99340208976,0.99926618105};
static double w41[41] = {0.0766242110632,0.0766242110632,0.0766242110632,0.0766242110632,0.0766242110632,0.0766242110632,0.0766242110632,0.0766242110632,0.0766242110632,0.0766242110632,0.0766242110632,0.0766242110632,0.0766242110632,0.0766242110632,0.0766242110632,0.0766242110632,0.0766242110632,0.0766242110632,0.0766242110632,0.0766242110632,0.0766242110632,0.0766242110632,0.0766242110632,0.0766242110632,0.0766242110632,0.0766242110632,0.0766242110632,0.0766242110632,0.0766242110632,0.0766242110632,0.0766242110632,0.0766242110632,0.0766242110632,0.0766242110632,0.0766242110632,0.0766242110632,0.0766242110632,0.0766242110632,0.0766242110632,0.0766242110631,0.076624211063};

static double x42[42] = {-0.999300704788,-0.993712209893,-0.982566473233,-0.965925826289,-0.943883330308,-0.91656225587,-0.884115393505,-0.846724199228,-0.804597779767,-0.757971723145,-0.707106781187,-0.652287411278,-0.593820185574,-0.532032076515,-0.467268628273,-0.39989202432,-0.330279061955,-0.258819045103,-0.185911607163,-0.111964476103,-0.0373911942763,0.0373911942763,0.111964476103,0.185911607163,0.258819045103,0.330279061955,0.39989202432,0.467268628273,0.532032076515,0.593820185574,0.652287411278,0.707106781187,0.757971723145,0.804597779767,0.846724199228,0.884115393505,0.91656225587,0.943883330308,0.965925826289,0.982566473233,0.993712209893,0.99930070478};
static double w42[42] = {0.0747998250855,0.0747998250854,0.0747998250855,0.0747998250855,0.0747998250855,0.0747998250855,0.0747998250855,0.0747998250855,0.0747998250855,0.0747998250855,0.0747998250855,0.0747998250855,0.0747998250855,0.0747998250855,0.0747998250855,0.0747998250855,0.0747998250855,0.0747998250855,0.0747998250855,0.0747998250855,0.0747998250855,0.0747998250855,0.0747998250855,0.0747998250855,0.0747998250855,0.0747998250855,0.0747998250855,0.0747998250855,0.0747998250855,0.0747998250855,0.0747998250855,0.0747998250855,0.0747998250855,0.0747998250855,0.0747998250855,0.0747998250855,0.0747998250855,0.0747998250855,0.0747998250855,0.0747998250855,0.0747998250855,0.074799825085};

static double x43[43] = {-0.99933284837,-0.99400097524,-0.983365676829,-0.967483697057,-0.946439773158,-0.920346183569,-0.889342148883,-0.853593089037,-0.813289740736,-0.768647139779,-0.719903473758,-0.667318811222,-0.611173714098,-0.55176774077,-0.489417847811,-0.424456698876,-0.357230889801,-0.288099099365,-0.217430175582,-0.145601167735,-0.0729953146609,2.38643730598e-16,0.0729953146609,0.145601167735,0.217430175582,0.288099099365,0.357230889801,0.424456698876,0.489417847811,0.55176774077,0.611173714098,0.667318811222,0.719903473758,0.768647139779,0.813289740736,0.853593089037,0.889342148883,0.920346183569,0.946439773158,0.967483697057,0.983365676829,0.99400097524,0.9993328483};
static double w43[43] = {0.0730602942695,0.0730602942695,0.0730602942696,0.0730602942695,0.0730602942695,0.0730602942695,0.0730602942695,0.0730602942695,0.0730602942695,0.0730602942695,0.0730602942695,0.0730602942695,0.0730602942695,0.0730602942695,0.0730602942695,0.0730602942695,0.0730602942695,0.0730602942695,0.0730602942695,0.0730602942695,0.0730602942695,0.0730602942695,0.0730602942695,0.0730602942695,0.0730602942695,0.0730602942695,0.0730602942695,0.0730602942695,0.0730602942695,0.0730602942695,0.0730602942695,0.0730602942695,0.0730602942695,0.0730602942695,0.0730602942695,0.0730602942695,0.0730602942695,0.0730602942695,0.0730602942695,0.0730602942695,0.0730602942695,0.0730602942695,0.073060294269};

static double x44[44] = {-0.999362825657,-0.994270301772,-0.984111204336,-0.968937301782,-0.948825916837,-0.923879532511,-0.89422526986,-0.860014240208,-0.82142077512,-0.77864153805,-0.731894522182,-0.681417939594,-0.627469007381,-0.570322636935,-0.510270033061,-0.447617210063,-0.382683432365,-0.315799587615,-0.247306500554,-0.177553196254,-0.106895121565,-0.035692333839,0.035692333839,0.106895121565,0.177553196254,0.247306500554,0.315799587615,0.382683432365,0.447617210063,0.510270033061,0.570322636935,0.627469007381,0.681417939594,0.731894522182,0.77864153805,0.82142077512,0.860014240208,0.89422526986,0.923879532511,0.948825916837,0.968937301782,0.984111204336,0.994270301772,0.99936282565};
static double w44[44] = {0.0713998330361,0.0713998330361,0.0713998330361,0.0713998330361,0.0713998330361,0.0713998330361,0.0713998330361,0.0713998330361,0.0713998330361,0.0713998330361,0.0713998330361,0.0713998330361,0.0713998330361,0.0713998330361,0.0713998330361,0.0713998330361,0.0713998330361,0.0713998330361,0.0713998330361,0.0713998330361,0.0713998330361,0.0713998330361,0.0713998330361,0.0713998330361,0.0713998330361,0.0713998330361,0.0713998330361,0.0713998330361,0.0713998330361,0.0713998330361,0.0713998330361,0.0713998330361,0.0713998330361,0.0713998330361,0.0713998330361,0.0713998330361,0.0713998330361,0.0713998330361,0.0713998330361,0.0713998330361,0.0713998330361,0.0713998330361,0.0713998330361,0.071399833036};

static double x45[45] = {-0.999390827019,-0.994521895368,-0.984807753012,-0.970295726276,-0.951056516295,-0.927183854567,-0.898794046299,-0.866025403784,-0.829037572555,-0.788010753607,-0.743144825477,-0.694658370459,-0.642787609687,-0.587785252292,-0.529919264233,-0.469471562786,-0.406736643076,-0.342020143326,-0.275637355817,-0.207911690818,-0.13917310096,-0.0697564737441,2.76187356712e-17,0.0697564737441,0.13917310096,0.207911690818,0.275637355817,0.342020143326,0.406736643076,0.469471562786,0.529919264233,0.587785252292,0.642787609687,0.694658370459,0.743144825477,0.788010753607,0.829037572555,0.866025403784,0.898794046299,0.927183854567,0.951056516295,0.970295726276,0.984807753012,0.994521895368,0.99939082701};
static double w45[45] = {0.0698131700798,0.0698131700798,0.0698131700798,0.0698131700798,0.0698131700798,0.0698131700798,0.0698131700798,0.0698131700798,0.0698131700798,0.0698131700798,0.0698131700798,0.0698131700798,0.0698131700798,0.0698131700798,0.0698131700798,0.0698131700798,0.0698131700798,0.0698131700798,0.0698131700798,0.0698131700798,0.0698131700798,0.0698131700798,0.0698131700798,0.0698131700798,0.0698131700798,0.0698131700798,0.0698131700798,0.0698131700798,0.0698131700798,0.0698131700798,0.0698131700798,0.0698131700798,0.0698131700798,0.0698131700798,0.0698131700798,0.0698131700798,0.0698131700798,0.0698131700798,0.0698131700798,0.0698131700798,0.0698131700798,0.0698131700798,0.0698131700798,0.0698131700798,0.069813170079};

static double x46[46] = {-0.999417022366,-0.994757278858,-0.985459517717,-0.971567089398,-0.953144766814,-0.930278443338,-0.903074732325,-0.871660470033,-0.836182124255,-0.796805111416,-0.753713025327,-0.707106781187,-0.657203678818,-0.604236389521,-0.548451871249,-0.490110217178,-0.42948344303,-0.366854218813,-0.302514550881,-0.236764420466,-0.169910385029,-0.102264148942,-0.034141110186,0.034141110186,0.102264148942,0.169910385029,0.236764420466,0.302514550881,0.366854218813,0.42948344303,0.490110217178,0.548451871249,0.604236389521,0.657203678818,0.707106781187,0.753713025327,0.796805111416,0.836182124255,0.871660470033,0.903074732325,0.930278443338,0.953144766814,0.971567089398,0.985459517717,0.994757278858,0.99941702236};
static double w46[46] = {0.0682954924693,0.0682954924694,0.0682954924693,0.0682954924693,0.0682954924693,0.0682954924693,0.0682954924693,0.0682954924693,0.0682954924693,0.0682954924693,0.0682954924693,0.0682954924693,0.0682954924693,0.0682954924693,0.0682954924693,0.0682954924693,0.0682954924693,0.0682954924693,0.0682954924693,0.0682954924693,0.0682954924693,0.0682954924693,0.0682954924693,0.0682954924693,0.0682954924693,0.0682954924693,0.0682954924693,0.0682954924693,0.0682954924693,0.0682954924693,0.0682954924693,0.0682954924693,0.0682954924693,0.0682954924693,0.0682954924693,0.0682954924693,0.0682954924693,0.0682954924693,0.0682954924693,0.0682954924693,0.0682954924693,0.0682954924693,0.0682954924693,0.0682954924694,0.0682954924694,0.068295492469};

static double x47[47] = {-0.99944156373,-0.994977815089,-0.98607025399,-0.972758663765,-0.955102497207,-0.933180611042,-0.907090913734,-0.876949928207,-0.842892271417,-0.805070053128,-0.763652196547,-0.718823683878,-0.670784730139,-0.61974988896,-0.565947094331,-0.509616642592,-0.451010119216,-0.390389275163,-0.32802485784,-0.264195401871,-0.199185985104,-0.133286955374,-0.0667926337451,-3.45487959252e-17,0.0667926337451,0.133286955374,0.199185985104,0.264195401871,0.32802485784,0.390389275163,0.451010119216,0.509616642592,0.565947094331,0.61974988896,0.670784730139,0.718823683878,0.763652196547,0.805070053128,0.842892271417,0.876949928207,0.907090913734,0.933180611042,0.955102497207,0.972758663765,0.98607025399,0.994977815089,0.9994415637};
static double w47[47] = {0.0668423968849,0.0668423968849,0.0668423968849,0.0668423968849,0.0668423968849,0.0668423968849,0.0668423968849,0.0668423968849,0.0668423968849,0.0668423968849,0.0668423968849,0.0668423968849,0.0668423968849,0.0668423968849,0.0668423968849,0.0668423968849,0.0668423968849,0.0668423968849,0.0668423968849,0.0668423968849,0.0668423968849,0.0668423968849,0.0668423968849,0.0668423968849,0.0668423968849,0.0668423968849,0.0668423968849,0.0668423968849,0.0668423968849,0.0668423968849,0.0668423968849,0.0668423968849,0.0668423968849,0.0668423968849,0.0668423968849,0.0668423968849,0.0668423968849,0.0668423968849,0.0668423968849,0.0668423968849,0.0668423968849,0.0668423968849,0.0668423968849,0.0668423968849,0.0668423968849,0.0668423968849,0.066842396884};

static double x48[48] = {-0.999464587476,-0.995184726672,-0.986643332085,-0.973876979277,-0.956940335732,-0.935905926757,-0.910863824921,-0.881921264348,-0.849202181527,-0.812846684592,-0.773010453363,-0.729864072698,-0.683592302023,-0.634393284164,-0.582477696868,-0.52806785065,-0.471396736826,-0.412707029804,-0.352250047921,-0.290284677254,-0.227076263034,-0.162895473395,-0.0980171403296,-0.0327190828218,0.0327190828218,0.0980171403296,0.162895473395,0.227076263034,0.290284677254,0.352250047921,0.412707029804,0.471396736826,0.52806785065,0.582477696868,0.634393284164,0.683592302023,0.729864072698,0.773010453363,0.812846684592,0.849202181527,0.881921264348,0.910863824921,0.935905926757,0.956940335732,0.973876979277,0.986643332085,0.995184726672,0.99946458747};
static double w48[48] = {0.0654498469498,0.0654498469498,0.0654498469498,0.0654498469498,0.0654498469498,0.0654498469498,0.0654498469498,0.0654498469498,0.0654498469498,0.0654498469498,0.0654498469498,0.0654498469498,0.0654498469498,0.0654498469498,0.0654498469498,0.0654498469498,0.0654498469498,0.0654498469498,0.0654498469498,0.0654498469498,0.0654498469498,0.0654498469498,0.0654498469498,0.0654498469498,0.0654498469498,0.0654498469498,0.0654498469498,0.0654498469498,0.0654498469498,0.0654498469498,0.0654498469498,0.0654498469498,0.0654498469498,0.0654498469498,0.0654498469498,0.0654498469498,0.0654498469498,0.0654498469498,0.0654498469498,0.0654498469498,0.0654498469498,0.0654498469498,0.0654498469498,0.0654498469498,0.0654498469498,0.0654498469498,0.0654498469498,0.065449846949};

static double x49[49] = {-0.999486216201,-0.995379112949,-0.987181783414,-0.974927912182,-0.958667853037,-0.93846842205,-0.914412623016,-0.886599306373,-0.855142763005,-0.820172254597,-0.781831482468,-0.740277997075,-0.695682550603,-0.648228395308,-0.598110530491,-0.545534901211,-0.490717552004,-0.433883739118,-0.375267004879,-0.315108218024,-0.25365458391,-0.191158628701,-0.127877161685,-0.0640702199807,2.90837063072e-17,0.0640702199807,0.127877161685,0.191158628701,0.25365458391,0.315108218024,0.375267004879,0.433883739118,0.490717552004,0.545534901211,0.598110530491,0.648228395308,0.695682550603,0.740277997075,0.781831482468,0.820172254597,0.855142763005,0.886599306373,0.914412623016,0.93846842205,0.958667853037,0.974927912182,0.987181783414,0.995379112949,0.99948621620};
static double w49[49] = {0.0641141357875,0.0641141357876,0.0641141357875,0.0641141357876,0.0641141357876,0.0641141357876,0.0641141357875,0.0641141357876,0.0641141357875,0.0641141357875,0.0641141357876,0.0641141357875,0.0641141357875,0.0641141357875,0.0641141357875,0.0641141357875,0.0641141357875,0.0641141357875,0.0641141357875,0.0641141357875,0.0641141357875,0.0641141357875,0.0641141357875,0.0641141357875,0.0641141357875,0.0641141357875,0.0641141357875,0.0641141357875,0.0641141357875,0.0641141357875,0.0641141357875,0.0641141357875,0.0641141357875,0.0641141357875,0.0641141357875,0.0641141357875,0.0641141357875,0.0641141357875,0.0641141357875,0.0641141357875,0.0641141357875,0.0641141357875,0.0641141357875,0.0641141357875,0.0641141357876,0.0641141357875,0.0641141357875,0.0641141357875,0.064114135787};

static double x50[50] = {-0.999506560366,-0.995561964603,-0.987688340595,-0.975916761939,-0.960293685677,-0.940880768954,-0.917754625684,-0.891006524188,-0.860742027004,-0.827080574275,-0.790155012376,-0.75011106963,-0.707106781187,-0.661311865324,-0.612907053653,-0.562083377852,-0.50904141575,-0.45399049974,-0.397147890635,-0.338737920245,-0.278991106039,-0.218143241397,-0.15643446504,-0.0941083133185,-0.0314107590781,0.0314107590781,0.0941083133185,0.15643446504,0.218143241397,0.278991106039,0.338737920245,0.397147890635,0.45399049974,0.50904141575,0.562083377852,0.612907053653,0.661311865324,0.707106781187,0.75011106963,0.790155012376,0.827080574275,0.860742027004,0.891006524188,0.917754625684,0.940880768954,0.960293685677,0.975916761939,0.987688340595,0.995561964603,0.99950656036};
static double w50[50] = {0.0628318530718,0.0628318530718,0.0628318530718,0.0628318530718,0.0628318530718,0.0628318530718,0.0628318530718,0.0628318530718,0.0628318530718,0.0628318530718,0.0628318530718,0.0628318530718,0.0628318530718,0.0628318530718,0.0628318530718,0.0628318530718,0.0628318530718,0.0628318530718,0.0628318530718,0.0628318530718,0.0628318530718,0.0628318530718,0.0628318530718,0.0628318530718,0.0628318530718,0.0628318530718,0.0628318530718,0.0628318530718,0.0628318530718,0.0628318530718,0.0628318530718,0.0628318530718,0.0628318530718,0.0628318530718,0.0628318530718,0.0628318530718,0.0628318530718,0.0628318530718,0.0628318530718,0.0628318530718,0.0628318530718,0.0628318530718,0.0628318530718,0.0628318530718,0.0628318530718,0.0628318530718,0.0628318530718,0.0628318530718,0.0628318530719,0.062831853071};

static double x51[51] = {-0.999525719713,-0.995734176295,-0.988165472081,-0.97684831776,-0.961825643173,-0.943154434471,-0.920905517945,-0.895163291355,-0.866025403784,-0.833602385221,-0.79801722728,-0.759404916655,-0.717911923064,-0.673695643647,-0.626923805894,-0.577773831408,-0.526432162877,-0.473093556836,-0.417960344887,-0.361241666187,-0.303152674113,-0.243913720108,-0.183749517817,-0.122888290665,-0.0615609061339,1.85094733776e-16,0.0615609061339,0.122888290665,0.183749517817,0.243913720108,0.303152674113,0.361241666187,0.417960344887,0.473093556836,0.526432162877,0.577773831408,0.626923805894,0.673695643647,0.717911923064,0.759404916655,0.79801722728,0.833602385221,0.866025403784,0.895163291355,0.920905517945,0.943154434471,0.961825643173,0.97684831776,0.988165472081,0.995734176295,0.99952571971};
static double w51[51] = {0.0615998559528,0.0615998559527,0.0615998559527,0.0615998559527,0.0615998559527,0.0615998559527,0.0615998559527,0.0615998559527,0.0615998559527,0.0615998559527,0.0615998559527,0.0615998559527,0.0615998559527,0.0615998559527,0.0615998559527,0.0615998559527,0.0615998559527,0.0615998559527,0.0615998559527,0.0615998559527,0.0615998559527,0.0615998559527,0.0615998559527,0.0615998559527,0.0615998559527,0.0615998559527,0.0615998559527,0.0615998559527,0.0615998559527,0.0615998559527,0.0615998559527,0.0615998559527,0.0615998559527,0.0615998559527,0.0615998559527,0.0615998559527,0.0615998559527,0.0615998559527,0.0615998559527,0.0615998559527,0.0615998559527,0.0615998559527,0.0615998559527,0.0615998559527,0.0615998559527,0.0615998559527,0.0615998559527,0.0615998559528,0.0615998559528,0.0615998559528,0.061599855952};

static double x52[52] = {-0.99954378449,-0.995896557617,-0.988615412208,-0.977726916371,-0.963270801048,-0.945299815035,-0.923879532511,-0.899088113765,-0.871016019996,-0.839765683227,-0.805451132551,-0.76819757804,-0.728140953876,-0.685427422335,-0.640212840462,-0.592662191364,-0.542948982201,-0.491254611084,-0.437767705165,-0.382683432365,-0.326202789221,-0.268531867474,-0.209881102065,-0.150464503275,-0.0904988758296,-0.0302030278009,0.0302030278009,0.0904988758296,0.150464503275,0.209881102065,0.268531867474,0.326202789221,0.382683432365,0.437767705165,0.491254611084,0.542948982201,0.592662191364,0.640212840462,0.685427422335,0.728140953876,0.76819757804,0.805451132551,0.839765683227,0.871016019996,0.899088113765,0.923879532511,0.945299815035,0.963270801048,0.977726916371,0.988615412208,0.995896557617,0.9995437844};
static double w52[52] = {0.0604152433383,0.0604152433383,0.0604152433383,0.0604152433383,0.0604152433383,0.0604152433383,0.0604152433383,0.0604152433383,0.0604152433383,0.0604152433383,0.0604152433383,0.0604152433383,0.0604152433383,0.0604152433383,0.0604152433383,0.0604152433383,0.0604152433383,0.0604152433383,0.0604152433383,0.0604152433383,0.0604152433383,0.0604152433383,0.0604152433383,0.0604152433383,0.0604152433383,0.0604152433383,0.0604152433383,0.0604152433383,0.0604152433383,0.0604152433383,0.0604152433383,0.0604152433383,0.0604152433383,0.0604152433383,0.0604152433383,0.0604152433383,0.0604152433383,0.0604152433383,0.0604152433383,0.0604152433383,0.0604152433383,0.0604152433383,0.0604152433383,0.0604152433383,0.0604152433383,0.0604152433383,0.0604152433383,0.0604152433383,0.0604152433383,0.0604152433383,0.0604152433383,0.060415243338};

static double x53[53] = {-0.999560836509,-0.996049842615,-0.989040187322,-0.9785564923,-0.964635581908,-0.947326353854,-0.926689607432,-0.902797829966,-0.875734942196,-0.845596003502,-0.812486878006,-0.776523862718,-0.737833279042,-0.696551029063,-0.652822118191,-0.606800145819,-0.558646765804,-0.508531118649,-0.456629237394,-0.403123429288,-0.348201635434,-0.292056770637,-0.234886045781,-0.176890275123,-0.118273170921,-0.0592406278937,-1.61311633769e-16,0.0592406278937,0.118273170921,0.176890275123,0.234886045781,0.292056770637,0.348201635434,0.403123429288,0.456629237394,0.508531118649,0.558646765804,0.606800145819,0.652822118191,0.696551029063,0.737833279042,0.776523862718,0.812486878006,0.845596003502,0.875734942196,0.902797829966,0.926689607432,0.947326353854,0.964635581908,0.9785564923,0.989040187322,0.996049842615,0.99956083650};
static double w53[53] = {0.0592753330867,0.0592753330866,0.0592753330866,0.0592753330866,0.0592753330866,0.0592753330866,0.0592753330866,0.0592753330866,0.0592753330866,0.0592753330866,0.0592753330866,0.0592753330866,0.0592753330866,0.0592753330866,0.0592753330866,0.0592753330866,0.0592753330866,0.0592753330866,0.0592753330866,0.0592753330866,0.0592753330866,0.0592753330866,0.0592753330866,0.0592753330866,0.0592753330866,0.0592753330866,0.0592753330866,0.0592753330866,0.0592753330866,0.0592753330866,0.0592753330866,0.0592753330866,0.0592753330866,0.0592753330866,0.0592753330866,0.0592753330866,0.0592753330866,0.0592753330866,0.0592753330866,0.0592753330866,0.0592753330866,0.0592753330866,0.0592753330866,0.0592753330866,0.0592753330866,0.0592753330866,0.0592753330866,0.0592753330866,0.0592753330866,0.0592753330866,0.0592753330866,0.0592753330866,0.059275333086};

static double x54[54] = {-0.999576950082,-0.996194698092,-0.989441638581,-0.979340621766,-0.965925826289,-0.949242643573,-0.929347524227,-0.906307787037,-0.88020139118,-0.851116672437,-0.819152044289,-0.78441566492,-0.747025071241,-0.707106781187,-0.664795865614,-0.620235491268,-0.573576436351,-0.524976580335,-0.474600369748,-0.422618261741,-0.369206147313,-0.314544756152,-0.258819045103,-0.202217572332,-0.144931859307,-0.0871557427477,-0.0290847187431,0.0290847187431,0.0871557427477,0.144931859307,0.202217572332,0.258819045103,0.314544756152,0.369206147313,0.422618261741,0.474600369748,0.524976580335,0.573576436351,0.620235491268,0.664795865614,0.707106781187,0.747025071241,0.78441566492,0.819152044289,0.851116672437,0.88020139118,0.906307787037,0.929347524227,0.949242643573,0.965925826289,0.979340621766,0.989441638581,0.996194698092,0.99957695008};
static double w54[54] = {0.0581776417332,0.0581776417331,0.0581776417331,0.0581776417332,0.0581776417331,0.0581776417331,0.0581776417331,0.0581776417332,0.0581776417331,0.0581776417331,0.0581776417331,0.0581776417331,0.0581776417331,0.0581776417331,0.0581776417331,0.0581776417331,0.0581776417331,0.0581776417331,0.0581776417331,0.0581776417331,0.0581776417331,0.0581776417331,0.0581776417331,0.0581776417331,0.0581776417331,0.0581776417331,0.0581776417331,0.0581776417331,0.0581776417331,0.0581776417331,0.0581776417331,0.0581776417331,0.0581776417331,0.0581776417331,0.0581776417331,0.0581776417331,0.0581776417331,0.0581776417331,0.0581776417331,0.0581776417331,0.0581776417331,0.0581776417331,0.0581776417331,0.0581776417331,0.0581776417331,0.0581776417331,0.0581776417331,0.0581776417331,0.0581776417331,0.0581776417331,0.0581776417332,0.0581776417332,0.0581776417332,0.058177641733};

static double x55[55] = {-0.999592192828,-0.996331730863,-0.989821441881,-0.980082561092,-0.967146854702,-0.951056516295,-0.931864029211,-0.909631995355,-0.884432930998,-0.856349030252,-0.825471896963,-0.791902245922,-0.755749574354,-0.717131804759,-0.676174900274,-0.633012453809,-0.587785252292,-0.540640817456,-0.491732924646,-0.441221101243,-0.389270106317,-0.336049393215,-0.281732556841,-0.226496767426,-0.170522192633,-0.113991409891,-0.0570888108628,3.64067502971e-16,0.0570888108628,0.113991409891,0.170522192633,0.226496767426,0.281732556841,0.336049393215,0.389270106317,0.441221101243,0.491732924646,0.540640817456,0.587785252292,0.633012453809,0.676174900274,0.717131804759,0.755749574354,0.791902245922,0.825471896963,0.856349030252,0.884432930998,0.909631995355,0.931864029211,0.951056516295,0.967146854702,0.980082561092,0.989821441881,0.996331730863,0.99959219282};
static double w55[55] = {0.0571198664289,0.057119866429,0.0571198664289,0.0571198664289,0.0571198664289,0.0571198664289,0.0571198664289,0.0571198664289,0.0571198664289,0.0571198664289,0.0571198664289,0.0571198664289,0.0571198664289,0.0571198664289,0.0571198664289,0.0571198664289,0.0571198664289,0.0571198664289,0.0571198664289,0.0571198664289,0.0571198664289,0.0571198664289,0.0571198664289,0.0571198664289,0.0571198664289,0.0571198664289,0.0571198664289,0.0571198664289,0.0571198664289,0.0571198664289,0.0571198664289,0.0571198664289,0.0571198664289,0.0571198664289,0.0571198664289,0.0571198664289,0.0571198664289,0.0571198664289,0.0571198664289,0.0571198664289,0.0571198664289,0.0571198664289,0.0571198664289,0.0571198664289,0.0571198664289,0.0571198664289,0.0571198664289,0.0571198664289,0.0571198664289,0.0571198664289,0.0571198664289,0.0571198664289,0.0571198664289,0.0571198664289,0.057119866428};

static double x56[56] = {-0.999606626383,-0.996461494118,-0.990181125336,-0.980785280403,-0.968303522122,-0.952775122723,-0.934248940295,-0.912783265061,-0.888445635979,-0.861312628232,-0.831469612303,-0.799010485358,-0.764037375822,-0.726660322034,-0.686996926035,-0.645171983542,-0.601317091298,-0.55557023302,-0.508075345247,-0.458981864468,-0.408444256936,-0.356621532662,-0.30367674511,-0.249776478167,-0.195090322016,-0.139790339535,-0.0840505249292,-0.0280462562759,0.0280462562759,0.0840505249292,0.139790339535,0.195090322016,0.249776478167,0.30367674511,0.356621532662,0.408444256936,0.458981864468,0.508075345247,0.55557023302,0.601317091298,0.645171983542,0.686996926035,0.726660322034,0.764037375822,0.799010485358,0.831469612303,0.861312628232,0.888445635979,0.912783265061,0.934248940295,0.952775122723,0.968303522122,0.980785280403,0.990181125336,0.996461494118,0.99960662638};
static double w56[56] = {0.0560998688141,0.0560998688141,0.0560998688141,0.0560998688141,0.0560998688141,0.0560998688141,0.0560998688141,0.0560998688141,0.0560998688141,0.0560998688141,0.0560998688141,0.0560998688141,0.0560998688141,0.0560998688141,0.0560998688141,0.0560998688141,0.0560998688141,0.0560998688141,0.0560998688141,0.0560998688141,0.0560998688141,0.0560998688141,0.0560998688141,0.0560998688141,0.0560998688141,0.0560998688141,0.0560998688141,0.0560998688141,0.0560998688141,0.0560998688141,0.0560998688141,0.0560998688141,0.0560998688141,0.0560998688141,0.0560998688141,0.0560998688141,0.0560998688141,0.0560998688141,0.0560998688141,0.0560998688141,0.0560998688141,0.0560998688141,0.0560998688141,0.0560998688141,0.0560998688141,0.0560998688141,0.0560998688141,0.0560998688141,0.0560998688141,0.0560998688141,0.0560998688141,0.0560998688141,0.0560998688141,0.0560998688141,0.0560998688141,0.056099868814};

static double x57[57] = {-0.999620307025,-0.996584493007,-0.990522084638,-0.981451493252,-0.969400265939,-0.95440500188,-0.936511241197,-0.915773326655,-0.892254238618,-0.866025403784,-0.837166478263,-0.805765105661,-0.771916650916,-0.735723910673,-0.697296801094,-0.656752024048,-0.61421271269,-0.56980805751,-0.523672913988,-0.475947393037,-0.426776435496,-0.376309371948,-0.324699469205,-0.272103464845,-0.218681091206,-0.164594590281,-0.110008220994,-0.0550877603559,5.03533221495e-17,0.0550877603559,0.110008220994,0.164594590281,0.218681091206,0.272103464845,0.324699469205,0.376309371948,0.426776435496,0.475947393037,0.523672913988,0.56980805751,0.61421271269,0.656752024048,0.697296801094,0.735723910673,0.771916650916,0.805765105661,0.837166478263,0.866025403784,0.892254238618,0.915773326655,0.936511241197,0.95440500188,0.969400265939,0.981451493252,0.990522084638,0.996584493007,0.99962030702};
static double w57[57] = {0.0551156605893,0.0551156605893,0.0551156605893,0.0551156605893,0.0551156605893,0.0551156605893,0.0551156605893,0.0551156605893,0.0551156605893,0.0551156605893,0.0551156605893,0.0551156605893,0.0551156605893,0.0551156605893,0.0551156605893,0.0551156605893,0.0551156605893,0.0551156605893,0.0551156605893,0.0551156605893,0.0551156605893,0.0551156605893,0.0551156605893,0.0551156605893,0.0551156605893,0.0551156605893,0.0551156605893,0.0551156605893,0.0551156605893,0.0551156605893,0.0551156605893,0.0551156605893,0.0551156605893,0.0551156605893,0.0551156605893,0.0551156605893,0.0551156605893,0.0551156605893,0.0551156605893,0.0551156605893,0.0551156605893,0.0551156605893,0.0551156605893,0.0551156605893,0.0551156605893,0.0551156605893,0.0551156605893,0.0551156605893,0.0551156605893,0.0551156605893,0.0551156605893,0.0551156605893,0.0551156605893,0.0551156605893,0.0551156605893,0.0551156605893,0.055115660589};

static double x58[58] = {-0.999633286223,-0.99670118956,-0.990845596579,-0.982083682742,-0.970441148253,-0.955952142672,-0.938659164747,-0.918612937764,-0.895872260759,-0.870503836056,-0.842582073617,-0.81218887278,-0.779413382042,-0.744351737562,-0.707106781187,-0.667787758789,-0.626509999836,-0.583394579107,-0.538567961561,-0.492161631389,-0.444311706354,-0.39515853853,-0.344846302628,-0.293522573104,-0.2413378913,-0.188445323878,-0.135000013853,-0.0811587255274,-0.0270793846761,0.0270793846761,0.0811587255274,0.135000013853,0.188445323878,0.2413378913,0.293522573104,0.344846302628,0.39515853853,0.444311706354,0.492161631389,0.538567961561,0.583394579107,0.626509999836,0.667787758789,0.707106781187,0.744351737562,0.779413382042,0.81218887278,0.842582073617,0.870503836056,0.895872260759,0.918612937764,0.938659164747,0.955952142672,0.970441148253,0.982083682742,0.990845596579,0.99670118956,0.99963328622};
static double w58[58] = {0.0541653905791,0.0541653905791,0.0541653905791,0.0541653905791,0.0541653905791,0.0541653905791,0.0541653905791,0.0541653905791,0.0541653905791,0.0541653905791,0.0541653905791,0.0541653905791,0.0541653905791,0.0541653905791,0.0541653905791,0.0541653905791,0.0541653905791,0.0541653905791,0.0541653905791,0.0541653905791,0.0541653905791,0.0541653905791,0.0541653905791,0.0541653905791,0.0541653905791,0.0541653905791,0.0541653905791,0.0541653905791,0.0541653905791,0.0541653905791,0.0541653905791,0.0541653905791,0.0541653905791,0.0541653905791,0.0541653905791,0.0541653905791,0.0541653905791,0.0541653905791,0.0541653905791,0.0541653905791,0.0541653905791,0.0541653905791,0.0541653905791,0.0541653905791,0.0541653905791,0.0541653905791,0.0541653905791,0.0541653905791,0.0541653905791,0.0541653905791,0.0541653905791,0.0541653905791,0.0541653905791,0.0541653905791,0.0541653905791,0.0541653905791,0.0541653905792,0.054165390579};

static double x59[59] = {-0.999645611123,-0.996812007031,-0.991152831004,-0.982684124593,-0.971429893265,-0.957422038362,-0.940700266671,-0.92131197787,-0.899312130171,-0.874763084532,-0.84773442789,-0.818302775908,-0.786551555803,-0.752570769856,-0.716456740298,-0.67831183627,-0.638244183645,-0.596367358539,-0.552800065361,-0.507665800339,-0.461092501449,-0.413212185768,-0.364160575253,-0.314076712022,-0.263102564228,-0.21138262363,-0.159063496019,-0.106293485647,-0.0532221748422,2.92573839451e-17,0.0532221748422,0.106293485647,0.159063496019,0.21138262363,0.263102564228,0.314076712022,0.364160575253,0.413212185768,0.461092501449,0.507665800339,0.552800065361,0.596367358539,0.638244183645,0.67831183627,0.716456740298,0.752570769856,0.786551555803,0.818302775908,0.84773442789,0.874763084532,0.899312130171,0.92131197787,0.940700266671,0.957422038362,0.971429893265,0.982684124593,0.991152831004,0.996812007031,0.99964561112};
static double w59[59] = {0.0532473331118,0.0532473331117,0.0532473331117,0.0532473331117,0.0532473331117,0.0532473331117,0.0532473331117,0.0532473331117,0.0532473331117,0.0532473331117,0.0532473331117,0.0532473331117,0.0532473331117,0.0532473331117,0.0532473331117,0.0532473331117,0.0532473331117,0.0532473331117,0.0532473331117,0.0532473331117,0.0532473331117,0.0532473331117,0.0532473331117,0.0532473331117,0.0532473331117,0.0532473331117,0.0532473331117,0.0532473331117,0.0532473331117,0.0532473331117,0.0532473331117,0.0532473331117,0.0532473331117,0.0532473331117,0.0532473331117,0.0532473331117,0.0532473331117,0.0532473331117,0.0532473331117,0.0532473331117,0.0532473331117,0.0532473331117,0.0532473331117,0.0532473331117,0.0532473331117,0.0532473331117,0.0532473331117,0.0532473331117,0.0532473331117,0.0532473331117,0.0532473331117,0.0532473331117,0.0532473331117,0.0532473331117,0.0532473331117,0.0532473331117,0.0532473331117,0.0532473331116,0.053247333111};

static double x60[60] = {-0.999657324976,-0.996917333733,-0.991444861374,-0.983254907564,-0.972369920398,-0.958819734868,-0.942641491092,-0.923879532511,-0.90258528435,-0.878817112662,-0.852640164354,-0.824126188622,-0.793353340291,-0.7604059656,-0.725374371012,-0.688354575694,-0.64944804833,-0.608761429009,-0.566406236925,-0.522498564716,-0.47715876026,-0.430511096808,-0.382683432365,-0.333806859234,-0.284015344704,-0.233445363856,-0.182235525492,-0.13052619222,-0.0784590957278,-0.0261769483079,0.0261769483079,0.0784590957278,0.13052619222,0.182235525492,0.233445363856,0.284015344704,0.333806859234,0.382683432365,0.430511096808,0.47715876026,0.522498564716,0.566406236925,0.608761429009,0.64944804833,0.688354575694,0.725374371012,0.7604059656,0.793353340291,0.824126188622,0.852640164354,0.878817112662,0.90258528435,0.923879532511,0.942641491092,0.958819734868,0.972369920398,0.983254907564,0.991444861374,0.996917333733,0.99965732497};
static double w60[60] = {0.0523598775598,0.0523598775599,0.0523598775598,0.0523598775598,0.0523598775598,0.0523598775598,0.0523598775598,0.0523598775598,0.0523598775598,0.0523598775598,0.0523598775598,0.0523598775598,0.0523598775598,0.0523598775598,0.0523598775598,0.0523598775598,0.0523598775598,0.0523598775598,0.0523598775598,0.0523598775598,0.0523598775598,0.0523598775598,0.0523598775598,0.0523598775598,0.0523598775598,0.0523598775598,0.0523598775598,0.0523598775598,0.0523598775598,0.0523598775598,0.0523598775598,0.0523598775598,0.0523598775598,0.0523598775598,0.0523598775598,0.0523598775598,0.0523598775598,0.0523598775598,0.0523598775598,0.0523598775598,0.0523598775598,0.0523598775598,0.0523598775598,0.0523598775598,0.0523598775598,0.0523598775598,0.0523598775598,0.0523598775598,0.0523598775598,0.0523598775598,0.0523598775598,0.0523598775598,0.0523598775598,0.0523598775598,0.0523598775598,0.0523598775598,0.0523598775598,0.0523598775598,0.0523598775598,0.052359877559};

static double x61[61] = {-0.999668467514,-0.997017526449,-0.991722674136,-0.983797951574,-0.9732643737,-0.960149873672,-0.944489228784,-0.926323968251,-0.90570226308,-0.882678798326,-0.857314628076,-0.829677013553,-0.79983924474,-0.767880446037,-0.733885366432,-0.697944154766,-0.660152120671,-0.620609481827,-0.579421098205,-0.536696193992,-0.492548067954,-0.447093792985,-0.400453905651,-0.352752086549,-0.304114832328,-0.254671120241,-0.204552066126,-0.153890576704,-0.102820997137,-0.0514787547703,-1.12480196757e-16,0.0514787547703,0.102820997137,0.153890576704,0.204552066126,0.254671120241,0.304114832328,0.352752086549,0.400453905651,0.447093792985,0.492548067954,0.536696193992,0.579421098205,0.620609481827,0.660152120671,0.697944154766,0.733885366432,0.767880446037,0.79983924474,0.829677013553,0.857314628076,0.882678798326,0.90570226308,0.926323968251,0.944489228784,0.960149873672,0.9732643737,0.983797951574,0.991722674136,0.997017526449,0.99966846751};
static double w61[61] = {0.0515015189113,0.0515015189113,0.0515015189113,0.0515015189113,0.0515015189113,0.0515015189113,0.0515015189113,0.0515015189113,0.0515015189113,0.0515015189113,0.0515015189113,0.0515015189113,0.0515015189113,0.0515015189113,0.0515015189113,0.0515015189113,0.0515015189113,0.0515015189113,0.0515015189113,0.0515015189113,0.0515015189113,0.0515015189113,0.0515015189113,0.0515015189113,0.0515015189113,0.0515015189113,0.0515015189113,0.0515015189113,0.0515015189113,0.0515015189113,0.0515015189113,0.0515015189113,0.0515015189113,0.0515015189113,0.0515015189113,0.0515015189113,0.0515015189113,0.0515015189113,0.0515015189113,0.0515015189113,0.0515015189113,0.0515015189113,0.0515015189113,0.0515015189113,0.0515015189113,0.0515015189113,0.0515015189113,0.0515015189113,0.0515015189113,0.0515015189113,0.0515015189113,0.0515015189113,0.0515015189113,0.0515015189113,0.0515015189113,0.0515015189113,0.0515015189113,0.0515015189113,0.0515015189113,0.0515015189113,0.051501518911};

static double x62[62] = {-0.999679075296,-0.997112913448,-0.991987177051,-0.984315023798,-0.974116147995,-0.961416730012,-0.946249369072,-0.928652999572,-0.908672791142,-0.886360032688,-0.861772000744,-0.834971812432,-0.806028263454,-0.775015651483,-0.742013585451,-0.707106781187,-0.670384843956,-0.631942038446,-0.591877046787,-0.550292715237,-0.50729579018,-0.462996644105,-0.417508992285,-0.37094960087,-0.323437987149,-0.275096112754,-0.226048070584,-0.176419766258,-0.126338594922,-0.0759331142252,-0.0253327143132,0.0253327143132,0.0759331142252,0.126338594922,0.176419766258,0.226048070584,0.275096112754,0.323437987149,0.37094960087,0.417508992285,0.462996644105,0.50729579018,0.550292715237,0.591877046787,0.631942038446,0.670384843956,0.707106781187,0.742013585451,0.775015651483,0.806028263454,0.834971812432,0.861772000744,0.886360032688,0.908672791142,0.928652999572,0.946249369072,0.961416730012,0.974116147995,0.984315023798,0.991987177051,0.997112913448,0.99967907529};
static double w62[62] = {0.0506708492514,0.0506708492515,0.0506708492515,0.0506708492514,0.0506708492514,0.0506708492515,0.0506708492514,0.0506708492514,0.0506708492515,0.0506708492514,0.0506708492515,0.0506708492514,0.0506708492514,0.0506708492515,0.0506708492514,0.0506708492514,0.0506708492514,0.0506708492514,0.0506708492514,0.0506708492514,0.0506708492515,0.0506708492515,0.0506708492514,0.0506708492514,0.0506708492514,0.0506708492514,0.0506708492514,0.0506708492514,0.0506708492514,0.0506708492514,0.0506708492514,0.0506708492514,0.0506708492514,0.0506708492514,0.0506708492514,0.0506708492514,0.0506708492514,0.0506708492514,0.0506708492514,0.0506708492514,0.0506708492514,0.0506708492514,0.0506708492514,0.0506708492514,0.0506708492514,0.0506708492515,0.0506708492514,0.0506708492514,0.0506708492514,0.0506708492515,0.0506708492514,0.0506708492514,0.0506708492514,0.0506708492514,0.0506708492515,0.0506708492514,0.0506708492514,0.0506708492515,0.0506708492514,0.0506708492514,0.0506708492513,0.050670849251};

static double x63[63] = {-0.999689182001,-0.997203797181,-0.9922392066,-0.984807753012,-0.974927912182,-0.96262424695,-0.947927346167,-0.930873748644,-0.911505852312,-0.889871808811,-0.866025403784,-0.840025923151,-0.811938005716,-0.781831482468,-0.749781202968,-0.71586684926,-0.680172737771,-0.642787609687,-0.603804410325,-0.563320058064,-0.521435203379,-0.478253978621,-0.433883739118,-0.388434796275,-0.342020143326,-0.294755174411,-0.24675739769,-0.198146143199,-0.149042266176,-0.0995678465958,-0.0498458856607,4.9805061385e-16,0.0498458856607,0.0995678465958,0.149042266176,0.198146143199,0.24675739769,0.294755174411,0.342020143326,0.388434796275,0.433883739118,0.478253978621,0.521435203379,0.563320058064,0.603804410325,0.642787609687,0.680172737771,0.71586684926,0.749781202968,0.781831482468,0.811938005716,0.840025923151,0.866025403784,0.889871808811,0.911505852312,0.930873748644,0.947927346167,0.96262424695,0.974927912182,0.984807753012,0.9922392066,0.997203797181,0.99968918200};
static double w63[63] = {0.049866550057,0.0498665500569,0.049866550057,0.049866550057,0.049866550057,0.049866550057,0.049866550057,0.049866550057,0.049866550057,0.049866550057,0.049866550057,0.049866550057,0.049866550057,0.049866550057,0.049866550057,0.049866550057,0.049866550057,0.049866550057,0.049866550057,0.049866550057,0.049866550057,0.049866550057,0.049866550057,0.049866550057,0.049866550057,0.049866550057,0.049866550057,0.049866550057,0.049866550057,0.049866550057,0.049866550057,0.049866550057,0.049866550057,0.049866550057,0.049866550057,0.049866550057,0.049866550057,0.049866550057,0.049866550057,0.049866550057,0.049866550057,0.049866550057,0.049866550057,0.049866550057,0.049866550057,0.049866550057,0.049866550057,0.049866550057,0.049866550057,0.049866550057,0.049866550057,0.049866550057,0.049866550057,0.049866550057,0.049866550057,0.049866550057,0.049866550057,0.049866550057,0.049866550057,0.049866550057,0.049866550057,0.049866550057,0.04986655005};

static double x64[64] = {-0.999698818696,-0.997290456679,-0.992479534599,-0.985277642389,-0.975702130039,-0.963776065795,-0.949528180593,-0.932992798835,-0.914209755704,-0.893224301196,-0.870086991109,-0.84485356525,-0.817584813152,-0.788346427627,-0.757208846506,-0.724247082951,-0.689540544737,-0.653172842954,-0.615231590581,-0.575808191418,-0.534997619887,-0.49289819223,-0.449611329655,-0.405241314005,-0.359895036535,-0.313681740399,-0.266712757475,-0.219101240157,-0.17096188876,-0.122410675199,-0.0735645635997,-0.0245412285229,0.0245412285229,0.0735645635997,0.122410675199,0.17096188876,0.219101240157,0.266712757475,0.313681740399,0.359895036535,0.405241314005,0.449611329655,0.49289819223,0.534997619887,0.575808191418,0.615231590581,0.653172842954,0.689540544737,0.724247082951,0.757208846506,0.788346427627,0.817584813152,0.84485356525,0.870086991109,0.893224301196,0.914209755704,0.932992798835,0.949528180593,0.963776065795,0.975702130039,0.985277642389,0.992479534599,0.997290456679,0.99969881869};
static double w64[64] = {0.0490873852124,0.0490873852123,0.0490873852123,0.0490873852123,0.0490873852123,0.0490873852123,0.0490873852123,0.0490873852123,0.0490873852123,0.0490873852123,0.0490873852123,0.0490873852123,0.0490873852123,0.0490873852123,0.0490873852123,0.0490873852123,0.0490873852123,0.0490873852123,0.0490873852123,0.0490873852123,0.0490873852123,0.0490873852123,0.0490873852123,0.0490873852123,0.0490873852123,0.0490873852123,0.0490873852123,0.0490873852123,0.0490873852123,0.0490873852123,0.0490873852123,0.0490873852123,0.0490873852123,0.0490873852123,0.0490873852123,0.0490873852123,0.0490873852123,0.0490873852123,0.0490873852123,0.0490873852123,0.0490873852123,0.0490873852123,0.0490873852123,0.0490873852123,0.0490873852123,0.0490873852123,0.0490873852123,0.0490873852123,0.0490873852123,0.0490873852123,0.0490873852123,0.0490873852123,0.0490873852123,0.0490873852123,0.0490873852123,0.0490873852123,0.0490873852123,0.0490873852123,0.0490873852123,0.0490873852123,0.0490873852123,0.0490873852124,0.0490873852124,0.049087385212};

static double x65[65] = {-0.99970801408,-0.997373149691,-0.992708874098,-0.985726080932,-0.976441078829,-0.964875553344,-0.951056516295,-0.935016242685,-0.916792195317,-0.896426937296,-0.873968032627,-0.849467935122,-0.822983865894,-0.794577679714,-0.764315720546,-0.732268666598,-0.698511365249,-0.663122658241,-0.626185197538,-0.587785252292,-0.548012507355,-0.506959853814,-0.464723172044,-0.421401107773,-0.377094841688,-0.331907853129,-0.285945678399,-0.239315664288,-0.192126717354,-0.144489049569,-0.0965139209145,-0.0483133795255,4.76649576501e-16,0.0483133795255,0.0965139209145,0.144489049569,0.192126717354,0.239315664288,0.285945678399,0.331907853129,0.377094841688,0.421401107773,0.464723172044,0.506959853814,0.548012507355,0.587785252292,0.626185197538,0.663122658241,0.698511365249,0.732268666598,0.764315720546,0.794577679714,0.822983865894,0.849467935122,0.873968032627,0.896426937296,0.916792195317,0.935016242685,0.951056516295,0.964875553344,0.976441078829,0.985726080932,0.992708874098,0.997373149691,0.9997080140};
static double w65[65] = {0.0483321946706,0.0483321946706,0.0483321946706,0.0483321946706,0.0483321946706,0.0483321946706,0.0483321946706,0.0483321946706,0.0483321946706,0.0483321946706,0.0483321946706,0.0483321946706,0.0483321946706,0.0483321946706,0.0483321946706,0.0483321946706,0.0483321946706,0.0483321946706,0.0483321946706,0.0483321946706,0.0483321946706,0.0483321946706,0.0483321946706,0.0483321946706,0.0483321946706,0.0483321946706,0.0483321946706,0.0483321946706,0.0483321946706,0.0483321946706,0.0483321946706,0.0483321946706,0.0483321946706,0.0483321946706,0.0483321946706,0.0483321946706,0.0483321946706,0.0483321946706,0.0483321946706,0.0483321946706,0.0483321946706,0.0483321946706,0.0483321946706,0.0483321946706,0.0483321946706,0.0483321946706,0.0483321946706,0.0483321946706,0.0483321946706,0.0483321946706,0.0483321946706,0.0483321946706,0.0483321946706,0.0483321946706,0.0483321946706,0.0483321946706,0.0483321946706,0.0483321946706,0.0483321946706,0.0483321946706,0.0483321946706,0.0483321946706,0.0483321946706,0.0483321946707,0.048332194670};

static double x66[66] = {-0.999716794693,-0.99745211461,-0.992927884673,-0.986154353718,-0.977146865971,-0.965925826289,-0.952516653936,-0.936949725,-0.919260303582,-0.899488461911,-0.877678989567,-0.853881292021,-0.828149278711,-0.800541240924,-0.771119719745,-0.739951364383,-0.707106781187,-0.672660373701,-0.636690174119,-0.599277666511,-0.560507602241,-0.520467807973,-0.47924898672,-0.436944512369,-0.393650218162,-0.349464179599,-0.30448649227,-0.258819045103,-0.212565289553,-0.165830005254,-0.118719062657,-0.0713391831992,-0.0237976975461,0.0237976975461,0.0713391831992,0.118719062657,0.165830005254,0.212565289553,0.258819045103,0.30448649227,0.349464179599,0.393650218162,0.436944512369,0.47924898672,0.520467807973,0.560507602241,0.599277666511,0.636690174119,0.672660373701,0.707106781187,0.739951364383,0.771119719745,0.800541240924,0.828149278711,0.853881292021,0.877678989567,0.899488461911,0.919260303582,0.936949725,0.952516653936,0.965925826289,0.977146865971,0.986154353718,0.992927884673,0.99745211461,0.99971679469};
static double w66[66] = {0.0475998886907,0.0475998886908,0.0475998886908,0.0475998886907,0.0475998886908,0.0475998886908,0.0475998886907,0.0475998886908,0.0475998886908,0.0475998886908,0.0475998886908,0.0475998886908,0.0475998886908,0.0475998886908,0.0475998886908,0.0475998886908,0.0475998886908,0.0475998886908,0.0475998886908,0.0475998886908,0.0475998886908,0.0475998886908,0.0475998886908,0.0475998886908,0.0475998886908,0.0475998886908,0.0475998886908,0.0475998886908,0.0475998886908,0.0475998886908,0.0475998886908,0.0475998886908,0.0475998886908,0.0475998886908,0.0475998886908,0.0475998886908,0.0475998886908,0.0475998886908,0.0475998886908,0.0475998886908,0.0475998886908,0.0475998886908,0.0475998886908,0.0475998886908,0.0475998886908,0.0475998886908,0.0475998886908,0.0475998886908,0.0475998886908,0.0475998886908,0.0475998886908,0.0475998886908,0.0475998886908,0.0475998886908,0.0475998886908,0.0475998886907,0.0475998886907,0.0475998886908,0.0475998886908,0.0475998886908,0.0475998886908,0.0475998886907,0.0475998886908,0.0475998886908,0.0475998886907,0.047599888690};

static double x67[67] = {-0.99972518511,-0.997527572184,-0.993137177163,-0.986563651087,-0.977821443993,-0.96692977315,-0.953912580815,-0.9387984816,-0.921620699577,-0.902416995239,-0.881229582494,-0.858105035875,-0.833094188154,-0.806252018602,-0.777637532134,-0.7473136296,-0.71534696952,-0.68180782155,-0.646769912017,-0.61031026185,-0.572509017272,-0.533449273624,-0.493216892698,-0.451900314,-0.409590360337,-0.366380038168,-0.322364333161,-0.277640001388,-0.232305356635,-0.186460054292,-0.140204872282,-0.0936414895344,-0.0468722624699,2.22614983349e-16,0.0468722624699,0.0936414895344,0.140204872282,0.186460054292,0.232305356635,0.277640001387,0.322364333161,0.366380038168,0.409590360337,0.451900314,0.493216892698,0.533449273624,0.572509017272,0.61031026185,0.646769912017,0.68180782155,0.71534696952,0.7473136296,0.777637532134,0.806252018602,0.833094188154,0.858105035875,0.881229582494,0.902416995239,0.921620699577,0.9387984816,0.953912580815,0.96692977315,0.977821443993,0.986563651087,0.993137177163,0.997527572184,0.9997251851};
static double w67[67] = {0.0468894425908,0.0468894425909,0.0468894425909,0.0468894425909,0.0468894425909,0.0468894425909,0.0468894425909,0.0468894425909,0.0468894425909,0.0468894425909,0.0468894425909,0.0468894425909,0.0468894425909,0.0468894425909,0.0468894425909,0.0468894425909,0.0468894425909,0.0468894425909,0.0468894425909,0.0468894425909,0.0468894425909,0.0468894425909,0.0468894425909,0.0468894425909,0.0468894425909,0.0468894425909,0.0468894425909,0.0468894425909,0.0468894425909,0.0468894425909,0.0468894425909,0.0468894425909,0.0468894425909,0.0468894425909,0.0468894425909,0.0468894425909,0.0468894425909,0.0468894425909,0.0468894425909,0.0468894425909,0.0468894425909,0.0468894425909,0.0468894425909,0.0468894425909,0.0468894425909,0.0468894425909,0.0468894425909,0.0468894425909,0.0468894425909,0.0468894425909,0.0468894425909,0.0468894425909,0.0468894425909,0.0468894425909,0.0468894425909,0.0468894425909,0.0468894425909,0.0468894425909,0.0468894425909,0.0468894425909,0.0468894425909,0.0468894425909,0.0468894425909,0.0468894425909,0.0468894425909,0.0468894425909,0.046889442590};

static double x68[68] = {-0.999733208112,-0.997599727064,-0.993337317924,-0.986955076888,-0.978466623981,-0.967890073987,-0.955247997799,-0.940567374244,-0.923879532511,-0.905220085297,-0.884628852803,-0.862149777755,-0.837830831634,-0.811723912295,-0.78388473322,-0.75437270462,-0.723250806652,-0.690585455014,-0.656446359213,-0.6209063738,-0.584041342894,-0.545929938329,-0.506653491764,-0.466295821114,-0.424943051683,-0.382683432365,-0.339607147317,-0.295806123501,-0.251373834511,-0.20640510109,-0.160995888781,-0.115243103133,-0.0692443828942,-0.023097891653,0.023097891653,0.0692443828942,0.115243103133,0.160995888781,0.20640510109,0.251373834511,0.295806123501,0.339607147317,0.382683432365,0.424943051683,0.466295821114,0.506653491764,0.545929938329,0.584041342894,0.6209063738,0.656446359213,0.690585455014,0.723250806652,0.75437270462,0.78388473322,0.811723912295,0.837830831634,0.862149777755,0.884628852803,0.905220085297,0.923879532511,0.940567374244,0.955247997799,0.967890073987,0.978466623981,0.986955076888,0.993337317924,0.997599727064,0.99973320811};
static double w68[68] = {0.0461998919645,0.0461998919646,0.0461998919646,0.0461998919646,0.0461998919646,0.0461998919646,0.0461998919645,0.0461998919646,0.0461998919646,0.0461998919646,0.0461998919646,0.0461998919646,0.0461998919646,0.0461998919646,0.0461998919646,0.0461998919646,0.0461998919646,0.0461998919646,0.0461998919646,0.0461998919646,0.0461998919646,0.0461998919646,0.0461998919646,0.0461998919646,0.0461998919646,0.0461998919646,0.0461998919646,0.0461998919646,0.0461998919646,0.0461998919646,0.0461998919646,0.0461998919646,0.0461998919646,0.0461998919646,0.0461998919646,0.0461998919646,0.0461998919646,0.0461998919646,0.0461998919646,0.0461998919646,0.0461998919646,0.0461998919646,0.0461998919646,0.0461998919646,0.0461998919646,0.0461998919646,0.0461998919646,0.0461998919646,0.0461998919646,0.0461998919646,0.0461998919646,0.0461998919646,0.0461998919646,0.0461998919646,0.0461998919646,0.0461998919646,0.0461998919646,0.0461998919646,0.0461998919645,0.0461998919646,0.0461998919646,0.0461998919645,0.0461998919645,0.0461998919646,0.0461998919645,0.0461998919645,0.0461998919646,0.046199891964};

static double x69[69] = {-0.999740884841,-0.997668769191,-0.993528832665,-0.987329655915,-0.979084087682,-0.968809218165,-0.956526343599,-0.942260922119,-0.926042520988,-0.907904755319,-0.887885218402,-0.866025403784,-0.842370619269,-0.81696989301,-0.789875871892,-0.761144712409,-0.730835964278,-0.699012447008,-0.665740119697,-0.631087944326,-0.595127742819,-0.557934048185,-0.519583950035,-0.480156934806,-0.439734721006,-0.398401089846,-0.356241711589,-0.313343967985,-0.269796771157,-0.225690379321,-0.18111620971,-0.136166649096,-0.0909348623088,-0.045514599133,-1.90675438579e-16,0.045514599133,0.0909348623088,0.136166649096,0.18111620971,0.225690379321,0.269796771157,0.313343967985,0.356241711589,0.398401089846,0.439734721006,0.480156934806,0.519583950035,0.557934048185,0.595127742819,0.631087944326,0.665740119697,0.699012447008,0.730835964278,0.761144712409,0.789875871892,0.81696989301,0.842370619269,0.866025403784,0.887885218402,0.907904755319,0.926042520988,0.942260922119,0.956526343599,0.968809218165,0.979084087682,0.987329655915,0.993528832665,0.997668769191,0.99974088484};
static double w69[69] = {0.0455303283128,0.0455303283129,0.0455303283129,0.0455303283129,0.0455303283129,0.0455303283129,0.0455303283129,0.0455303283129,0.0455303283129,0.0455303283129,0.0455303283129,0.0455303283129,0.0455303283129,0.0455303283129,0.0455303283129,0.0455303283129,0.0455303283129,0.0455303283129,0.0455303283129,0.0455303283129,0.0455303283129,0.0455303283129,0.0455303283129,0.0455303283129,0.0455303283129,0.0455303283129,0.0455303283129,0.0455303283129,0.0455303283129,0.0455303283129,0.0455303283129,0.0455303283129,0.0455303283129,0.0455303283129,0.0455303283129,0.0455303283129,0.0455303283129,0.0455303283129,0.0455303283129,0.0455303283129,0.0455303283129,0.0455303283129,0.0455303283129,0.0455303283129,0.0455303283129,0.0455303283129,0.0455303283129,0.0455303283129,0.0455303283129,0.0455303283129,0.0455303283129,0.0455303283129,0.0455303283129,0.0455303283129,0.0455303283129,0.0455303283129,0.0455303283129,0.0455303283129,0.0455303283129,0.0455303283129,0.0455303283129,0.0455303283129,0.0455303283129,0.0455303283129,0.0455303283129,0.0455303283129,0.0455303283128,0.045530328313,0.045530328312};

static double x70[70] = {-0.999748234943,-0.997734875046,-0.993712209893,-0.987688340595,-0.979675398423,-0.969689520377,-0.957750816685,-0.943883330308,-0.928114988519,-0.910477546659,-0.891006524188,-0.869741133156,-0.846724199228,-0.822002075448,-0.795624548882,-0.767644740358,-0.738118997487,-0.707106781187,-0.674670545932,-0.640875613985,-0.605790043841,-0.569484493168,-0.532032076515,-0.493508218064,-0.45399049974,-0.413558504967,-0.372293658402,-0.330279061955,-0.287599327432,-0.244340406138,-0.200589415783,-0.15643446504,-0.111964476103,-0.067269005612,-0.0224380642958,0.0224380642958,0.067269005612,0.111964476103,0.15643446504,0.200589415783,0.244340406138,0.287599327432,0.330279061955,0.372293658402,0.413558504967,0.45399049974,0.493508218064,0.532032076515,0.569484493168,0.605790043841,0.640875613985,0.674670545932,0.707106781187,0.738118997487,0.767644740358,0.795624548882,0.822002075448,0.846724199228,0.869741133156,0.891006524188,0.910477546659,0.928114988519,0.943883330308,0.957750816685,0.969689520377,0.979675398423,0.987688340595,0.993712209893,0.997734875046,0.99974823494};
static double w70[70] = {0.0448798950513,0.0448798950513,0.0448798950513,0.0448798950513,0.0448798950513,0.0448798950513,0.0448798950513,0.0448798950513,0.0448798950513,0.0448798950513,0.0448798950513,0.0448798950513,0.0448798950513,0.0448798950513,0.0448798950513,0.0448798950513,0.0448798950513,0.0448798950513,0.0448798950513,0.0448798950513,0.0448798950513,0.0448798950513,0.0448798950513,0.0448798950513,0.0448798950513,0.0448798950513,0.0448798950513,0.0448798950513,0.0448798950513,0.0448798950513,0.0448798950513,0.0448798950513,0.0448798950513,0.0448798950513,0.0448798950513,0.0448798950513,0.0448798950513,0.0448798950513,0.0448798950513,0.0448798950513,0.0448798950513,0.0448798950513,0.0448798950513,0.0448798950513,0.0448798950513,0.0448798950513,0.0448798950513,0.0448798950513,0.0448798950513,0.0448798950513,0.0448798950513,0.0448798950513,0.0448798950513,0.0448798950513,0.0448798950513,0.0448798950513,0.0448798950513,0.0448798950513,0.0448798950513,0.0448798950513,0.0448798950513,0.0448798950513,0.0448798950513,0.0448798950513,0.0448798950513,0.0448798950513,0.0448798950513,0.0448798950513,0.0448798950513,0.044879895051};

static double x71[71] = {-0.999755276685,-0.997798208783,-0.99388790403,-0.988032017031,-0.980242010962,-0.970533135124,-0.958924395097,-0.945438515536,-0.930101895683,-0.912944557691,-0.894000087856,-0.873305570867,-0.850901517212,-0.826831783879,-0.801143488501,-0.773886917122,-0.745115425761,-0.714885335964,-0.683255824551,-0.650288807775,-0.61604882012,-0.580602887971,-0.544020398403,-0.506372963358,-0.467734279457,-0.42817998374,-0.387787505598,-0.346635915203,-0.304805768725,-0.262378950642,-0.219438513441,-0.176068515046,-0.132353854264,-0.0883801045973,-0.0442333467254,-2.70784802716e-16,0.0442333467254,0.0883801045973,0.132353854264,0.176068515046,0.219438513441,0.262378950642,0.304805768725,0.346635915203,0.387787505598,0.42817998374,0.467734279457,0.506372963358,0.544020398403,0.580602887971,0.61604882012,0.650288807775,0.683255824551,0.714885335964,0.745115425761,0.773886917122,0.801143488501,0.826831783879,0.850901517212,0.873305570867,0.894000087856,0.912944557691,0.930101895683,0.945438515536,0.958924395097,0.970533135124,0.980242010962,0.988032017031,0.99388790403,0.997798208783,0.99975527668};
static double w71[71] = {0.0442477838534,0.0442477838533,0.0442477838534,0.0442477838534,0.0442477838534,0.0442477838534,0.0442477838534,0.0442477838534,0.0442477838534,0.0442477838534,0.0442477838534,0.0442477838534,0.0442477838534,0.0442477838534,0.0442477838534,0.0442477838534,0.0442477838534,0.0442477838534,0.0442477838534,0.0442477838534,0.0442477838534,0.0442477838534,0.0442477838534,0.0442477838534,0.0442477838534,0.0442477838534,0.0442477838534,0.0442477838534,0.0442477838534,0.0442477838534,0.0442477838534,0.0442477838534,0.0442477838534,0.0442477838534,0.0442477838534,0.0442477838534,0.0442477838534,0.0442477838534,0.0442477838534,0.0442477838534,0.0442477838534,0.0442477838534,0.0442477838534,0.0442477838534,0.0442477838534,0.0442477838534,0.0442477838534,0.0442477838534,0.0442477838534,0.0442477838534,0.0442477838534,0.0442477838534,0.0442477838534,0.0442477838534,0.0442477838534,0.0442477838534,0.0442477838534,0.0442477838534,0.0442477838534,0.0442477838534,0.0442477838534,0.0442477838534,0.0442477838534,0.0442477838534,0.0442477838534,0.0442477838534,0.0442477838534,0.0442477838534,0.0442477838534,0.0442477838534,0.044247783853};

static double x72[72] = {-0.99976202708,-0.997858923239,-0.994056338222,-0.988361510468,-0.980785280403,-0.971342069813,-0.960049854386,-0.946930129495,-0.932007869283,-0.915311479119,-0.896872741533,-0.876726755708,-0.854911870673,-0.831469612303,-0.806444604267,-0.779884483093,-0.751839807479,-0.72236396206,-0.691513055782,-0.6593458151,-0.625923472184,-0.591309648364,-0.55557023302,-0.518773258161,-0.480988768919,-0.442288690219,-0.402746689859,-0.362438038284,-0.321439465303,-0.279829014031,-0.237685892326,-0.195090322016,-0.15212338619,-0.108866874852,-0.0654031292301,-0.0218148850346,0.0218148850346,0.0654031292301,0.108866874852,0.15212338619,0.195090322016,0.237685892326,0.279829014031,0.321439465303,0.362438038284,0.402746689859,0.442288690219,0.480988768919,0.518773258161,0.55557023302,0.591309648364,0.625923472184,0.6593458151,0.691513055782,0.72236396206,0.751839807479,0.779884483093,0.806444604267,0.831469612303,0.854911870673,0.876726755708,0.896872741533,0.915311479119,0.932007869283,0.946930129495,0.960049854386,0.971342069813,0.980785280403,0.988361510468,0.994056338222,0.997858923239,0.9997620270};
static double w72[72] = {0.0436332312999,0.0436332312999,0.0436332312999,0.0436332312998,0.0436332312998,0.0436332312999,0.0436332312998,0.0436332312999,0.0436332312999,0.0436332312999,0.0436332312999,0.0436332312999,0.0436332312999,0.0436332312999,0.0436332312999,0.0436332312999,0.0436332312999,0.0436332312999,0.0436332312999,0.0436332312999,0.0436332312999,0.0436332312999,0.0436332312999,0.0436332312999,0.0436332312999,0.0436332312999,0.0436332312999,0.0436332312999,0.0436332312999,0.0436332312999,0.0436332312999,0.0436332312999,0.0436332312999,0.0436332312999,0.0436332312999,0.0436332312999,0.0436332312999,0.0436332312999,0.0436332312999,0.0436332312999,0.0436332312999,0.0436332312999,0.0436332312999,0.0436332312999,0.0436332312999,0.0436332312999,0.0436332312999,0.0436332312999,0.0436332312999,0.0436332312999,0.0436332312999,0.0436332312999,0.0436332312999,0.0436332312999,0.0436332312999,0.0436332312999,0.0436332312999,0.0436332312999,0.0436332312999,0.0436332312999,0.0436332312999,0.0436332312999,0.0436332312999,0.0436332312999,0.0436332312999,0.0436332312999,0.0436332312999,0.0436332312999,0.0436332312998,0.0436332312999,0.0436332312998,0.043633231299};

static double x73[73] = {-0.99976850198,-0.997917160865,-0.994217906894,-0.988677590232,-0.981306470272,-0.972118196629,-0.961129783872,-0.948361580012,-0.933837228823,-0.917583626059,-0.899630869652,-0.880012203974,-0.858763958276,-0.835925479419,-0.811539059007,-0.785649855079,-0.758305808479,-0.729557554086,-0.699458327052,-0.668063864214,-0.63543230089,-0.601624063225,-0.566701756291,-0.530730048162,-0.49377555016,-0.455906693508,-0.417193602612,-0.377707965204,-0.337522899594,-0.296712819273,-0.255353295116,-0.21352091544,-0.171293144181,-0.128748177453,-0.0859647987374,-0.0430222330045,5.22673904672e-17,0.0430222330045,0.0859647987374,0.128748177453,0.171293144181,0.21352091544,0.255353295116,0.296712819273,0.337522899594,0.377707965204,0.417193602612,0.455906693508,0.49377555016,0.530730048162,0.566701756291,0.601624063225,0.63543230089,0.668063864214,0.699458327052,0.729557554086,0.758305808479,0.785649855079,0.811539059007,0.835925479419,0.858763958276,0.880012203974,0.899630869652,0.917583626059,0.933837228823,0.948361580012,0.961129783872,0.972118196629,0.981306470272,0.988677590232,0.994217906894,0.997917160865,0.9997685019};
static double w73[73] = {0.0430355158026,0.0430355158026,0.0430355158026,0.0430355158026,0.0430355158026,0.0430355158026,0.0430355158026,0.0430355158026,0.0430355158026,0.0430355158026,0.0430355158026,0.0430355158026,0.0430355158026,0.0430355158026,0.0430355158026,0.0430355158026,0.0430355158026,0.0430355158026,0.0430355158026,0.0430355158026,0.0430355158026,0.0430355158026,0.0430355158026,0.0430355158026,0.0430355158026,0.0430355158026,0.0430355158026,0.0430355158026,0.0430355158026,0.0430355158026,0.0430355158026,0.0430355158026,0.0430355158026,0.0430355158026,0.0430355158026,0.0430355158026,0.0430355158026,0.0430355158026,0.0430355158026,0.0430355158026,0.0430355158026,0.0430355158026,0.0430355158026,0.0430355158026,0.0430355158026,0.0430355158026,0.0430355158026,0.0430355158026,0.0430355158026,0.0430355158026,0.0430355158026,0.0430355158026,0.0430355158026,0.0430355158026,0.0430355158026,0.0430355158026,0.0430355158026,0.0430355158026,0.0430355158026,0.0430355158026,0.0430355158026,0.0430355158026,0.0430355158026,0.0430355158026,0.0430355158026,0.0430355158026,0.0430355158026,0.0430355158026,0.0430355158026,0.0430355158026,0.0430355158026,0.0430355158026,0.043035515802};

static double x74[74] = {-0.999774716175,-0.997973054561,-0.994372978049,-0.98898097422,-0.98180675983,-0.972863263298,-0.962166601409,-0.949736050271,-0.935594010576,-0.919765967238,-0.902280443459,-0.883168949335,-0.86246592507,-0.840208678914,-0.816437319928,-0.791194685708,-0.764526265187,-0.736480116662,-0.707106781187,-0.676459191498,-0.644592576624,-0.611564362359,-0.577434067777,-0.542263197975,-0.506115133239,-0.469055014824,-0.431149627568,-0.392467279542,-0.353077678951,-0.313051808518,-0.272461797567,-0.23138079204,-0.189882822687,-0.148042671654,-0.105935737719,-0.0636379004255,-0.0212253833336,0.0212253833336,0.0636379004255,0.105935737719,0.148042671654,0.189882822687,0.23138079204,0.272461797567,0.313051808518,0.353077678951,0.392467279542,0.431149627568,0.469055014824,0.506115133239,0.542263197975,0.577434067777,0.611564362359,0.644592576624,0.676459191498,0.707106781187,0.736480116662,0.764526265187,0.791194685708,0.816437319928,0.840208678914,0.86246592507,0.883168949335,0.902280443459,0.919765967238,0.935594010576,0.949736050271,0.962166601409,0.972863263298,0.98180675983,0.98898097422,0.994372978049,0.997973054561,0.99977471617};
static double w74[74] = {0.0424539547782,0.0424539547782,0.0424539547783,0.0424539547783,0.0424539547782,0.0424539547782,0.0424539547782,0.0424539547782,0.0424539547782,0.0424539547782,0.0424539547782,0.0424539547782,0.0424539547782,0.0424539547782,0.0424539547782,0.0424539547782,0.0424539547782,0.0424539547782,0.0424539547782,0.0424539547782,0.0424539547782,0.0424539547782,0.0424539547782,0.0424539547782,0.0424539547782,0.0424539547782,0.0424539547782,0.0424539547782,0.0424539547782,0.0424539547782,0.0424539547782,0.0424539547782,0.0424539547782,0.0424539547782,0.0424539547782,0.0424539547782,0.0424539547782,0.0424539547782,0.0424539547782,0.0424539547782,0.0424539547782,0.0424539547782,0.0424539547782,0.0424539547782,0.0424539547782,0.0424539547782,0.0424539547782,0.0424539547782,0.0424539547782,0.0424539547782,0.0424539547782,0.0424539547782,0.0424539547782,0.0424539547782,0.0424539547782,0.0424539547782,0.0424539547782,0.0424539547782,0.0424539547782,0.0424539547782,0.0424539547782,0.0424539547782,0.0424539547782,0.0424539547782,0.0424539547782,0.0424539547782,0.0424539547782,0.0424539547783,0.0424539547782,0.0424539547782,0.0424539547782,0.0424539547782,0.0424539547782,0.042453954778};

static double x75[75] = {-0.999780683475,-0.998026728428,-0.994521895368,-0.989272332963,-0.982287250729,-0.973578902873,-0.963162566798,-0.951056516295,-0.937281989492,-0.921863151589,-0.904827052466,-0.886203579231,-0.866025403784,-0.844327925502,-0.821149209134,-0.796529918024,-0.770513242776,-0.743144825477,-0.714472679633,-0.684547105929,-0.65342060399,-0.621147780278,-0.587785252292,-0.553391549243,-0.518027009373,-0.481753674102,-0.444635179185,-0.406736643076,-0.368124552685,-0.328866646739,-0.289031796944,-0.248689887165,-0.207911690818,-0.166768746716,-0.125333233564,-0.0836778433323,-0.0418756537292,-6.25452682033e-18,0.0418756537292,0.0836778433323,0.125333233564,0.166768746716,0.207911690818,0.248689887165,0.289031796944,0.328866646739,0.368124552685,0.406736643076,0.444635179185,0.481753674102,0.518027009373,0.553391549243,0.587785252292,0.621147780278,0.65342060399,0.684547105929,0.714472679633,0.743144825477,0.770513242776,0.796529918024,0.821149209134,0.844327925502,0.866025403784,0.886203579231,0.904827052466,0.921863151589,0.937281989492,0.951056516295,0.963162566798,0.973578902873,0.982287250729,0.989272332963,0.994521895368,0.998026728428,0.99978068347};
static double w75[75] = {0.0418879020478,0.0418879020479,0.0418879020479,0.0418879020479,0.0418879020479,0.0418879020479,0.0418879020479,0.0418879020479,0.0418879020479,0.0418879020479,0.0418879020479,0.0418879020479,0.0418879020479,0.0418879020479,0.0418879020479,0.0418879020479,0.0418879020479,0.0418879020479,0.0418879020479,0.0418879020479,0.0418879020479,0.0418879020479,0.0418879020479,0.0418879020479,0.0418879020479,0.0418879020479,0.0418879020479,0.0418879020479,0.0418879020479,0.0418879020479,0.0418879020479,0.0418879020479,0.0418879020479,0.0418879020479,0.0418879020479,0.0418879020479,0.0418879020479,0.0418879020479,0.0418879020479,0.0418879020479,0.0418879020479,0.0418879020479,0.0418879020479,0.0418879020479,0.0418879020479,0.0418879020479,0.0418879020479,0.0418879020479,0.0418879020479,0.0418879020479,0.0418879020479,0.0418879020479,0.0418879020479,0.0418879020479,0.0418879020479,0.0418879020479,0.0418879020479,0.0418879020479,0.0418879020479,0.0418879020479,0.0418879020479,0.0418879020479,0.0418879020479,0.0418879020479,0.0418879020479,0.0418879020479,0.0418879020479,0.0418879020479,0.0418879020479,0.0418879020479,0.0418879020479,0.0418879020479,0.0418879020478,0.0418879020479,0.041887902047};

static double x76[76] = {-0.999786416788,-0.998078298466,-0.994664980113,-0.989552293327,-0.982748973047,-0.974266642632,-0.964119794001,-0.952325762875,-0.938904699157,-0.923879532511,-0.907275933182,-0.889122268139,-0.869449552616,-0.848291397118,-0.825683949997,-0.801665835697,-0.776278088766,-0.749564083741,-0.721569461053,-0.692342049045,-0.66193178226,-0.630390616128,-0.597772438203,-0.564132976095,-0.529529702261,-0.494021735813,-0.457669741516,-0.420535826143,-0.382683432365,-0.344177230363,-0.305083007336,-0.265467555108,-0.225398556016,-0.184944467272,-0.144174404007,-0.103158021192,-0.0619653946286,-0.0206669012276,0.0206669012276,0.0619653946286,0.103158021192,0.144174404007,0.184944467272,0.225398556016,0.265467555108,0.305083007336,0.344177230363,0.382683432365,0.420535826143,0.457669741516,0.494021735813,0.529529702261,0.564132976095,0.597772438203,0.630390616128,0.66193178226,0.692342049045,0.721569461053,0.749564083741,0.776278088766,0.801665835697,0.825683949997,0.848291397118,0.869449552616,0.889122268139,0.907275933182,0.923879532511,0.938904699157,0.952325762875,0.964119794001,0.974266642632,0.982748973047,0.989552293327,0.994664980113,0.998078298466,0.99978641678};
static double w76[76] = {0.0413367454419,0.041336745442,0.041336745442,0.041336745442,0.041336745442,0.041336745442,0.041336745442,0.041336745442,0.041336745442,0.041336745442,0.041336745442,0.041336745442,0.041336745442,0.041336745442,0.041336745442,0.041336745442,0.041336745442,0.041336745442,0.041336745442,0.041336745442,0.041336745442,0.041336745442,0.041336745442,0.041336745442,0.041336745442,0.041336745442,0.041336745442,0.041336745442,0.041336745442,0.041336745442,0.041336745442,0.041336745442,0.041336745442,0.041336745442,0.041336745442,0.041336745442,0.041336745442,0.041336745442,0.041336745442,0.041336745442,0.041336745442,0.041336745442,0.041336745442,0.041336745442,0.041336745442,0.041336745442,0.041336745442,0.041336745442,0.041336745442,0.041336745442,0.041336745442,0.041336745442,0.041336745442,0.041336745442,0.041336745442,0.041336745442,0.041336745442,0.041336745442,0.041336745442,0.041336745442,0.041336745442,0.041336745442,0.041336745442,0.041336745442,0.041336745442,0.041336745442,0.041336745442,0.041336745442,0.041336745442,0.041336745442,0.041336745442,0.041336745442,0.041336745442,0.041336745442,0.0413367454421,0.041336745441};

static double x77[77] = {-0.999791928189,-0.998127873193,-0.994802532857,-0.989821441881,-0.9831928908,-0.974927912182,-0.965040262269,-0.953546398079,-0.940465450014,-0.925819190021,-0.909631995355,-0.891930808003,-0.872745089845,-0.852106773615,-0.830050209755,-0.806612109238,-0.781831482468,-0.755749574354,-0.728409795658,-0.699857650744,-0.670140661838,-0.639308289936,-0.607411852478,-0.574504437936,-0.540640817456,-0.505877353689,-0.470271906993,-0.433883739118,-0.396773414578,-0.359002699848,-0.320634460553,-0.281732556841,-0.242361737093,-0.202587530152,-0.16247613626,-0.122094316874,-0.0815092835471,-0.0407885860616,-1.8088728375e-17,0.0407885860616,0.0815092835471,0.122094316874,0.16247613626,0.202587530152,0.242361737093,0.281732556841,0.320634460553,0.359002699848,0.396773414578,0.433883739118,0.470271906993,0.505877353689,0.540640817456,0.574504437936,0.607411852478,0.639308289936,0.670140661838,0.699857650744,0.728409795658,0.755749574354,0.781831482468,0.806612109238,0.830050209755,0.852106773615,0.872745089845,0.891930808003,0.909631995355,0.925819190021,0.940465450014,0.953546398079,0.965040262269,0.974927912182,0.9831928908,0.989821441881,0.994802532857,0.998127873193,0.99979192818};
static double w77[77] = {0.0407999045919,0.0407999045922,0.0407999045921,0.0407999045921,0.0407999045921,0.0407999045921,0.0407999045921,0.0407999045921,0.0407999045921,0.0407999045921,0.0407999045921,0.0407999045921,0.0407999045921,0.0407999045921,0.0407999045921,0.0407999045921,0.0407999045921,0.0407999045921,0.0407999045921,0.0407999045921,0.0407999045921,0.0407999045921,0.0407999045921,0.0407999045921,0.0407999045921,0.0407999045921,0.0407999045921,0.0407999045921,0.0407999045921,0.0407999045921,0.0407999045921,0.0407999045921,0.0407999045921,0.0407999045921,0.0407999045921,0.0407999045921,0.0407999045921,0.0407999045921,0.0407999045921,0.0407999045921,0.0407999045921,0.0407999045921,0.0407999045921,0.0407999045921,0.0407999045921,0.0407999045921,0.0407999045921,0.0407999045921,0.0407999045921,0.0407999045921,0.0407999045921,0.0407999045921,0.0407999045921,0.0407999045921,0.0407999045921,0.0407999045921,0.0407999045921,0.0407999045921,0.0407999045921,0.0407999045921,0.0407999045921,0.0407999045921,0.0407999045921,0.0407999045921,0.0407999045921,0.0407999045921,0.0407999045921,0.0407999045921,0.0407999045921,0.0407999045921,0.0407999045921,0.0407999045921,0.0407999045921,0.040799904592,0.0407999045921,0.040799904592,0.040799904592};

static double x78[78] = {-0.999797228985,-0.998175554223,-0.994934835063,-0.990080327961,-0.983619906947,-0.975564050847,-0.965925826289,-0.954720866509,-0.941967345991,-0.927685950994,-0.911899845992,-0.894634636105,-0.875918325567,-0.855781272301,-0.834256138683,-0.811377838557,-0.787183480609,-0.761712308177,-0.735005635596,-0.707106781187,-0.678060996992,-0.647915395381,-0.616718872629,-0.58452202961,-0.551377089722,-0.517337814178,-0.482459414807,-0.446798464502,-0.410412805453,-0.373361455333,-0.335704511567,-0.297503053855,-0.258819045103,-0.219715230912,-0.180255037814,-0.140502470385,-0.100522007436,-0.0603784974223,-0.0201370532654,0.0201370532654,0.0603784974223,0.100522007436,0.140502470385,0.180255037814,0.219715230912,0.258819045103,0.297503053855,0.335704511567,0.373361455333,0.410412805453,0.446798464502,0.482459414807,0.517337814178,0.551377089722,0.58452202961,0.616718872629,0.647915395381,0.678060996992,0.707106781187,0.735005635596,0.761712308177,0.787183480609,0.811377838557,0.834256138683,0.855781272301,0.875918325567,0.894634636105,0.911899845992,0.927685950994,0.941967345991,0.954720866509,0.965925826289,0.975564050847,0.983619906947,0.990080327961,0.994934835063,0.998175554223,0.99979722898};
